{"learner":{"attributes":{"best_iteration":"499","best_ntree_limit":"500"},"feature_names":[],"feature_types":[],"gradient_booster":{"model":{"gbtree_model_param":{"num_parallel_tree":"1","num_trees":"1000","size_leaf_vector":"0"},"tree_info":[0,1,0,1,0,1,0,1,0,1,0,1,0,1,0,1,0,1,0,1,0,1,0,1,0,1,0,1,0,1,0,1,0,1,0,1,0,1,0,1,0,1,0,1,0,1,0,1,0,1,0,1,0,1,0,1,0,1,0,1,0,1,0,1,0,1,0,1,0,1,0,1,0,1,0,1,0,1,0,1,0,1,0,1,0,1,0,1,0,1,0,1,0,1,0,1,0,1,0,1,0,1,0,1,0,1,0,1,0,1,0,1,0,1,0,1,0,1,0,1,0,1,0,1,0,1,0,1,0,1,0,1,0,1,0,1,0,1,0,1,0,1,0,1,0,1,0,1,0,1,0,1,0,1,0,1,0,1,0,1,0,1,0,1,0,1,0,1,0,1,0,1,0,1,0,1,0,1,0,1,0,1,0,1,0,1,0,1,0,1,0,1,0,1,0,1,0,1,0,1,0,1,0,1,0,1,0,1,0,1,0,1,0,1,0,1,0,1,0,1,0,1,0,1,0,1,0,1,0,1,0,1,0,1,0,1,0,1,0,1,0,1,0,1,0,1,0,1,0,1,0,1,0,1,0,1,0,1,0,1,0,1,0,1,0,1,0,1,0,1,0,1,0,1,0,1,0,1,0,1,0,1,0,1,0,1,0,1,0,1,0,1,0,1,0,1,0,1,0,1,0,1,0,1,0,1,0,1,0,1,0,1,0,1,0,1,0,1,0,1,0,1,0,1,0,1,0,1,0,1,0,1,0,1,0,1,0,1,0,1,0,1,0,1,0,1,0,1,0,1,0,1,0,1,0,1,0,1,0,1,0,1,0,1,0,1,0,1,0,1,0,1,0,1,0,1,0,1,0,1,0,1,0,1,0,1,0,1,0,1,0,1,0,1,0,1,0,1,0,1,0,1,0,1,0,1,0,1,0,1,0,1,0,1,0,1,0,1,0,1,0,1,0,1,0,1,0,1,0,1,0,1,0,1,0,1,0,1,0,1,0,1,0,1,0,1,0,1,0,1,0,1,0,1,0,1,0,1,0,1,0,1,0,1,0,1,0,1,0,1,0,1,0,1,0,1,0,1,0,1,0,1,0,1,0,1,0,1,0,1,0,1,0,1,0,1,0,1,0,1,0,1,0,1,0,1,0,1,0,1,0,1,0,1,0,1,0,1,0,1,0,1,0,1,0,1,0,1,0,1,0,1,0,1,0,1,0,1,0,1,0,1,0,1,0,1,0,1,0,1,0,1,0,1,0,1,0,1,0,1,0,1,0,1,0,1,0,1,0,1,0,1,0,1,0,1,0,1,0,1,0,1,0,1,0,1,0,1,0,1,0,1,0,1,0,1,0,1,0,1,0,1,0,1,0,1,0,1,0,1,0,1,0,1,0,1,0,1,0,1,0,1,0,1,0,1,0,1,0,1,0,1,0,1,0,1,0,1,0,1,0,1,0,1,0,1,0,1,0,1,0,1,0,1,0,1,0,1,0,1,0,1,0,1,0,1,0,1,0,1,0,1,0,1,0,1,0,1,0,1,0,1,0,1,0,1,0,1,0,1,0,1,0,1,0,1,0,1,0,1,0,1,0,1,0,1,0,1,0,1,0,1,0,1,0,1,0,1,0,1,0,1,0,1,0,1,0,1,0,1,0,1,0,1,0,1,0,1,0,1,0,1,0,1,0,1,0,1,0,1,0,1,0,1,0,1,0,1,0,1,0,1,0,1,0,1,0,1,0,1,0,1,0,1,0,1,0,1,0,1,0,1,0,1,0,1,0,1,0,1,0,1,0,1,0,1,0,1,0,1,0,1,0,1,0,1,0,1,0,1,0,1,0,1,0,1,0,1,0,1,0,1,0,1,0,1,0,1,0,1,0,1,0,1,0,1,0,1,0,1,0,1,0,1,0,1,0,1,0,1,0,1,0,1,0,1,0,1,0,1,0,1,0,1,0,1,0,1,0,1,0,1,0,1,0,1,0,1,0,1,0,1,0,1,0,1,0,1,0,1,0,1,0,1,0,1,0,1,0,1,0,1,0,1,0,1,0,1,0,1,0,1,0,1,0,1,0,1,0,1,0,1,0,1,0,1,0,1,0,1,0,1,0,1,0,1,0,1,0,1,0,1,0,1,0,1,0,1,0,1,0,1,0,1,0,1,0,1,0,1,0,1,0,1,0,1,0,1,0,1,0,1,0,1,0,1,0,1,0,1,0,1,0,1,0,1,0,1,0,1,0,1,0,1,0,1,0,1,0,1],"trees":[{"base_weights":[-1.5106298E-1,1.15417376E-1,-3.1205764E-1,-1.3407455E-1,2.3572105E-1,-4.5858052E-1,-1.0490379E-1],"categories":[],"categories_nodes":[],"categories_segments":[],"categories_sizes":[],"default_left":[1,1,1,0,0,0,0],"id":0,"left_children":[1,3,5,-1,-1,-1,-1],"loss_changes":[2.674222E2,7.050635E1,1.178876E2,0E0,0E0,0E0,0E0],"parents":[2147483647,0,0,1,1,2,2],"right_children":[2,4,6,-1,-1,-1,-1],"split_conditions":[4.595E-1,-1.95E0,1.55E0,-1.3407455E-3,2.3572105E-3,-4.5858053E-3,-1.0490379E-3],"split_indices":[3,77,77,0,0,0,0],"split_type":[0,0,0,0,0,0,0],"sum_hessian":[6.2315E3,2.347E3,3.8845E3,7.635E2,1.5835E3,2.2745E3,1.61E3],"tree_param":{"num_deleted":"0","num_feature":"106","num_nodes":"7","size_leaf_vector":"0"}},{"base_weights":[1.5106298E-1,-1.15417376E-1,3.1205764E-1,1.3407455E-1,-2.3572105E-1,4.5858052E-1,1.0490379E-1],"categories":[],"categories_nodes":[],"categories_segments":[],"categories_sizes":[],"default_left":[1,1,1,0,0,0,0],"id":1,"left_children":[1,3,5,-1,-1,-1,-1],"loss_changes":[2.674222E2,7.050635E1,1.178876E2,0E0,0E0,0E0,0E0],"parents":[2147483647,0,0,1,1,2,2],"right_children":[2,4,6,-1,-1,-1,-1],"split_conditions":[4.595E-1,-1.95E0,1.55E0,1.3407455E-3,-2.3572105E-3,4.5858053E-3,1.0490379E-3],"split_indices":[3,77,77,0,0,0,0],"split_type":[0,0,0,0,0,0,0],"sum_hessian":[6.2315E3,2.347E3,3.8845E3,7.635E2,1.5835E3,2.2745E3,1.61E3],"tree_param":{"num_deleted":"0","num_feature":"106","num_nodes":"7","size_leaf_vector":"0"}},{"base_weights":[-1.4955455E-1,1.1426411E-1,-3.089425E-1,-1.327358E-1,2.3336658E-1,-8.5591085E-2,-4.4217715E-1],"categories":[],"categories_nodes":[],"categories_segments":[],"categories_sizes":[],"default_left":[1,1,1,0,0,0,0],"id":2,"left_children":[1,3,5,-1,-1,-1,-1],"loss_changes":[2.621064E2,6.910485E1,1.1558594E2,0E0,0E0,0E0,0E0],"parents":[2147483647,0,0,1,1,2,2],"right_children":[2,4,6,-1,-1,-1,-1],"split_conditions":[4.595E-1,-1.95E0,1.05E1,-1.327358E-3,2.3336657E-3,-8.559108E-4,-4.4217715E-3],"split_indices":[3,77,103,0,0,0,0],"split_type":[0,0,0,0,0,0,0],"sum_hessian":[6.2314404E3,2.3469897E3,3.8844504E3,7.6349866E2,1.5834912E3,1.4519979E3,2.4324526E3],"tree_param":{"num_deleted":"0","num_feature":"106","num_nodes":"7","size_leaf_vector":"0"}},{"base_weights":[1.4955449E-1,-1.1426413E-1,3.0894244E-1,1.327358E-1,-2.3336661E-1,8.5591055E-2,4.4217706E-1],"categories":[],"categories_nodes":[],"categories_segments":[],"categories_sizes":[],"default_left":[1,1,1,0,0,0,0],"id":3,"left_children":[1,3,5,-1,-1,-1,-1],"loss_changes":[2.6210632E2,6.9104866E1,1.1558591E2,0E0,0E0,0E0,0E0],"parents":[2147483647,0,0,1,1,2,2],"right_children":[2,4,6,-1,-1,-1,-1],"split_conditions":[4.595E-1,-1.95E0,1.05E1,1.327358E-3,-2.333666E-3,8.5591053E-4,4.4217706E-3],"split_indices":[3,77,103,0,0,0,0],"split_type":[0,0,0,0,0,0,0],"sum_hessian":[6.2314404E3,2.34699E3,3.8844504E3,7.6349866E2,1.5834913E3,1.4519978E3,2.4324526E3],"tree_param":{"num_deleted":"0","num_feature":"106","num_nodes":"7","size_leaf_vector":"0"}},{"base_weights":[-1.4806385E-1,1.1312335E-1,-3.0586582E-1,-1.3141087E-1,2.310382E-1,-1.4396678E-1,-4.868963E-1],"categories":[],"categories_nodes":[],"categories_segments":[],"categories_sizes":[],"default_left":[1,1,1,0,0,0,0],"id":4,"left_children":[1,3,5,-1,-1,-1,-1],"loss_changes":[2.5690277E2,6.773194E1,1.1380304E2,0E0,0E0,0E0,0E0],"parents":[2147483647,0,0,1,1,2,2],"right_children":[2,4,6,-1,-1,-1,-1],"split_conditions":[4.595E-1,-1.95E0,1.35E1,-1.3141086E-3,2.310382E-3,-1.4396678E-3,-4.868963E-3],"split_indices":[3,77,80,0,0,0,0],"split_type":[0,0,0,0,0,0,0],"sum_hessian":[6.231266E3,2.3469597E3,3.8843064E3,7.634946E2,1.5834652E3,2.0514502E3,1.8328562E3],"tree_param":{"num_deleted":"0","num_feature":"106","num_nodes":"7","size_leaf_vector":"0"}},{"base_weights":[1.4806382E-1,-1.1312345E-1,3.0586582E-1,1.3141084E-1,-2.3103832E-1,1.4396678E-1,4.868963E-1],"categories":[],"categories_nodes":[],"categories_segments":[],"categories_sizes":[],"default_left":[1,1,1,0,0,0,0],"id":5,"left_children":[1,3,5,-1,-1,-1,-1],"loss_changes":[2.569029E2,6.7731964E1,1.1380304E2,0E0,0E0,0E0,0E0],"parents":[2147483647,0,0,1,1,2,2],"right_children":[2,4,6,-1,-1,-1,-1],"split_conditions":[4.595E-1,-1.95E0,1.35E1,1.3141084E-3,-2.3103831E-3,1.4396678E-3,4.868963E-3],"split_indices":[3,77,80,0,0,0,0],"split_type":[0,0,0,0,0,0,0],"sum_hessian":[6.231266E3,2.3469597E3,3.8843064E3,7.6349457E2,1.5834652E3,2.0514502E3,1.8328562E3],"tree_param":{"num_deleted":"0","num_feature":"106","num_nodes":"7","size_leaf_vector":"0"}},{"base_weights":[-1.4659064E-1,-3.5275418E-1,4.951139E-2,-1.797245E-1,-5.074088E-1,-2.1509242E-1,1.7495483E-1],"categories":[],"categories_nodes":[],"categories_segments":[],"categories_sizes":[],"default_left":[1,1,1,0,0,0,0],"id":6,"left_children":[1,3,5,-1,-1,-1,-1],"loss_changes":[2.519711E2,8.121005E1,1.0608233E2,0E0,0E0,0E0,0E0],"parents":[2147483647,0,0,1,1,2,2],"right_children":[2,4,6,-1,-1,-1,-1],"split_conditions":[1.45E1,1.15E1,-1.95E0,-1.797245E-3,-5.074088E-3,-2.1509242E-3,1.7495482E-3],"split_indices":[51,80,77,0,0,0,0],"split_type":[0,0,0,0,0,0,0],"sum_hessian":[6.2309893E3,3.03718E3,3.193809E3,1.4344546E3,1.6027253E3,1.0269338E3,2.1668752E3],"tree_param":{"num_deleted":"0","num_feature":"106","num_nodes":"7","size_leaf_vector":"0"}},{"base_weights":[1.4659065E-1,3.527542E-1,-4.9511384E-2,1.7972448E-1,5.0740886E-1,2.1509245E-1,-1.7495483E-1],"categories":[],"categories_nodes":[],"categories_segments":[],"categories_sizes":[],"default_left":[1,1,1,0,0,0,0],"id":7,"left_children":[1,3,5,-1,-1,-1,-1],"loss_changes":[2.5197116E2,8.121002E1,1.0608235E2,0E0,0E0,0E0,0E0],"parents":[2147483647,0,0,1,1,2,2],"right_children":[2,4,6,-1,-1,-1,-1],"split_conditions":[1.45E1,1.15E1,-1.95E0,1.7972448E-3,5.0740885E-3,2.1509244E-3,-1.7495482E-3],"split_indices":[51,80,77,0,0,0,0],"split_type":[0,0,0,0,0,0,0],"sum_hessian":[6.2309893E3,3.03718E3,3.193809E3,1.4344546E3,1.6027253E3,1.0269338E3,2.1668752E3],"tree_param":{"num_deleted":"0","num_feature":"106","num_nodes":"7","size_leaf_vector":"0"}},{"base_weights":[-1.4513381E-1,1.11679986E-1,-3.0030674E-1,-4.742483E-2,2.8736883E-1,-4.1532582E-1,-5.2296557E-2],"categories":[],"categories_nodes":[],"categories_segments":[],"categories_sizes":[],"default_left":[1,1,1,0,0,0,0],"id":8,"left_children":[1,3,5,-1,-1,-1,-1],"loss_changes":[2.4836833E2,6.564302E1,1.10795746E2,0E0,0E0,0E0,0E0],"parents":[2147483647,0,0,1,1,2,2],"right_children":[2,4,6,-1,-1,-1,-1],"split_conditions":[4.595E-1,5.135E-1,2.95E0,-4.7424829E-4,2.8736882E-3,-4.153258E-3,-5.2296557E-4],"split_indices":[3,55,77,0,0,0,0],"split_type":[0,0,0,0,0,0,0],"sum_hessian":[6.230653E3,2.3468528E3,3.8838003E3,1.2319353E3,1.1149175E3,2.6528293E3,1.2309708E3],"tree_param":{"num_deleted":"0","num_feature":"106","num_nodes":"7","size_leaf_vector":"0"}},{"base_weights":[1.4513384E-1,-1.11679934E-1,3.0030677E-1,4.7424864E-2,-2.8736874E-1,4.1532585E-1,5.2296583E-2],"categories":[],"categories_nodes":[],"categories_segments":[],"categories_sizes":[],"default_left":[1,1,1,0,0,0,0],"id":9,"left_children":[1,3,5,-1,-1,-1,-1],"loss_changes":[2.4836833E2,6.5643005E1,1.10795746E2,0E0,0E0,0E0,0E0],"parents":[2147483647,0,0,1,1,2,2],"right_children":[2,4,6,-1,-1,-1,-1],"split_conditions":[4.595E-1,5.135E-1,2.95E0,4.7424863E-4,-2.8736873E-3,4.1532586E-3,5.229658E-4],"split_indices":[3,55,77,0,0,0,0],"split_type":[0,0,0,0,0,0,0],"sum_hessian":[6.2306533E3,2.3468528E3,3.8838003E3,1.2319353E3,1.1149175E3,2.6528293E3,1.2309708E3],"tree_param":{"num_deleted":"0","num_feature":"106","num_nodes":"7","size_leaf_vector":"0"}},{"base_weights":[-1.4369334E-1,-3.4644213E-1,4.9135387E-2,-1.7633013E-1,-4.9852863E-1,-2.1150956E-1,1.7269884E-1],"categories":[],"categories_nodes":[],"categories_segments":[],"categories_sizes":[],"default_left":[1,1,1,0,0,0,0],"id":10,"left_children":[1,3,5,-1,-1,-1,-1],"loss_changes":[2.4363083E2,7.849997E1,1.0292269E2,0E0,0E0,0E0,0E0],"parents":[2147483647,0,0,1,1,2,2],"right_children":[2,4,6,-1,-1,-1,-1],"split_conditions":[1.45E1,1.15E1,-1.95E0,-1.7633013E-3,-4.9852864E-3,-2.1150955E-3,1.7269884E-3],"split_indices":[51,80,77,0,0,0,0],"split_type":[0,0,0,0,0,0,0],"sum_hessian":[6.230203E3,3.0365945E3,3.1936086E3,1.4343748E3,1.6022196E3,1.0268525E3,2.166756E3],"tree_param":{"num_deleted":"0","num_feature":"106","num_nodes":"7","size_leaf_vector":"0"}},{"base_weights":[1.4369334E-1,3.464421E-1,-4.913536E-2,1.7633013E-1,4.9852854E-1,2.115096E-1,-1.7269883E-1],"categories":[],"categories_nodes":[],"categories_segments":[],"categories_sizes":[],"default_left":[1,1,1,0,0,0,0],"id":11,"left_children":[1,3,5,-1,-1,-1,-1],"loss_changes":[2.4363077E2,7.849985E1,1.02922714E2,0E0,0E0,0E0,0E0],"parents":[2147483647,0,0,1,1,2,2],"right_children":[2,4,6,-1,-1,-1,-1],"split_conditions":[1.45E1,1.15E1,-1.95E0,1.7633013E-3,4.9852855E-3,2.115096E-3,-1.7269882E-3],"split_indices":[51,80,77,0,0,0,0],"split_type":[0,0,0,0,0,0,0],"sum_hessian":[6.230203E3,3.0365945E3,3.1936086E3,1.4343748E3,1.6022197E3,1.0268525E3,2.166756E3],"tree_param":{"num_deleted":"0","num_feature":"106","num_nodes":"7","size_leaf_vector":"0"}},{"base_weights":[-1.4226963E-1,1.1025448E-1,-2.9487342E-1,-4.6180747E-2,2.8300586E-1,-4.0813312E-1,-5.0724614E-2],"categories":[],"categories_nodes":[],"categories_segments":[],"categories_sizes":[],"default_left":[1,1,1,0,0,0,0],"id":12,"left_children":[1,3,5,-1,-1,-1,-1],"loss_changes":[2.401388E2,6.345835E1,1.0737985E2,0E0,0E0,0E0,0E0],"parents":[2147483647,0,0,1,1,2,2],"right_children":[2,4,6,-1,-1,-1,-1],"split_conditions":[4.595E-1,5.135E-1,2.95E0,-4.6180747E-4,2.8300586E-3,-4.081331E-3,-5.072461E-4],"split_indices":[3,55,77,0,0,0,0],"split_type":[0,0,0,0,0,0,0],"sum_hessian":[6.2296797E3,2.3467034E3,3.8829763E3,1.2318936E3,1.1148099E3,2.6520356E3,1.2309409E3],"tree_param":{"num_deleted":"0","num_feature":"106","num_nodes":"7","size_leaf_vector":"0"}},{"base_weights":[1.4226964E-1,-1.10254474E-1,2.9487342E-1,4.61807E-2,-2.8300577E-1,4.0813312E-1,5.0724637E-2],"categories":[],"categories_nodes":[],"categories_segments":[],"categories_sizes":[],"default_left":[1,1,1,0,0,0,0],"id":13,"left_children":[1,3,5,-1,-1,-1,-1],"loss_changes":[2.4013882E2,6.3458305E1,1.0737988E2,0E0,0E0,0E0,0E0],"parents":[2147483647,0,0,1,1,2,2],"right_children":[2,4,6,-1,-1,-1,-1],"split_conditions":[4.595E-1,5.135E-1,2.95E0,4.6180698E-4,-2.8300576E-3,4.081331E-3,5.0724635E-4],"split_indices":[3,55,77,0,0,0,0],"split_type":[0,0,0,0,0,0,0],"sum_hessian":[6.2296797E3,2.3467034E3,3.8829763E3,1.2318934E3,1.1148099E3,2.6520354E3,1.2309409E3],"tree_param":{"num_deleted":"0","num_feature":"106","num_nodes":"7","size_leaf_vector":"0"}},{"base_weights":[-1.4086172E-1,-3.4027657E-1,4.8758082E-2,-4.1670555E-1,-1.1609234E-2,-2.0799685E-1,1.7047341E-1],"categories":[],"categories_nodes":[],"categories_segments":[],"categories_sizes":[],"default_left":[1,1,1,0,0,0,0],"id":14,"left_children":[1,3,5,-1,-1,-1,-1],"loss_changes":[2.3559344E2,7.62767E1,9.9861465E1,0E0,0E0,0E0,0E0],"parents":[2147483647,0,0,1,1,2,2],"right_children":[2,4,6,-1,-1,-1,-1],"split_conditions":[1.45E1,5.05E0,-1.95E0,-4.1670552E-3,-1.16092335E-4,-2.0799683E-3,1.704734E-3],"split_indices":[51,77,77,0,0,0,0],"split_type":[0,0,0,0,0,0,0],"sum_hessian":[6.2290493E3,3.0357205E3,3.1933289E3,2.4627578E3,5.7296265E2,1.0267406E3,2.1665881E3],"tree_param":{"num_deleted":"0","num_feature":"106","num_nodes":"7","size_leaf_vector":"0"}},{"base_weights":[1.4086172E-1,3.4027657E-1,-4.8758086E-2,4.1670555E-1,1.1609204E-2,2.0799692E-1,-1.7047344E-1],"categories":[],"categories_nodes":[],"categories_segments":[],"categories_sizes":[],"default_left":[1,1,1,0,0,0,0],"id":15,"left_children":[1,3,5,-1,-1,-1,-1],"loss_changes":[2.355935E2,7.62767E1,9.986151E1,0E0,0E0,0E0,0E0],"parents":[2147483647,0,0,1,1,2,2],"right_children":[2,4,6,-1,-1,-1,-1],"split_conditions":[1.45E1,5.05E0,-1.95E0,4.1670552E-3,1.1609204E-4,2.079969E-3,-1.7047344E-3],"split_indices":[51,77,77,0,0,0,0],"split_type":[0,0,0,0,0,0,0],"sum_hessian":[6.2290493E3,3.0357205E3,3.1933286E3,2.4627578E3,5.729626E2,1.0267406E3,2.1665881E3],"tree_param":{"num_deleted":"0","num_feature":"106","num_nodes":"7","size_leaf_vector":"0"}},{"base_weights":[-1.3946909E-1,1.08848535E-1,-2.8956044E-1,-4.4982076E-2,2.7873865E-1,-1.3431963E-1,-4.6328568E-1],"categories":[],"categories_nodes":[],"categories_segments":[],"categories_sizes":[],"default_left":[1,1,1,0,0,0,0],"id":16,"left_children":[1,3,5,-1,-1,-1,-1],"loss_changes":[2.3220242E2,6.1362812E1,1.0465604E2,0E0,0E0,0E0,0E0],"parents":[2147483647,0,0,1,1,2,2],"right_children":[2,4,6,-1,-1,-1,-1],"split_conditions":[4.595E-1,5.135E-1,1.35E1,-4.4982074E-4,2.7873863E-3,-1.3431963E-3,-4.6328567E-3],"split_indices":[3,55,80,0,0,0,0],"split_type":[0,0,0,0,0,0,0],"sum_hessian":[6.2283765E3,2.3465E3,3.8818762E3,1.2318398E3,1.1146603E3,2.0509346E3,1.8309415E3],"tree_param":{"num_deleted":"0","num_feature":"106","num_nodes":"7","size_leaf_vector":"0"}},{"base_weights":[1.3946913E-1,-1.0884851E-1,2.895605E-1,4.4982124E-2,-2.7873865E-1,1.3431966E-1,4.6328574E-1],"categories":[],"categories_nodes":[],"categories_segments":[],"categories_sizes":[],"default_left":[1,1,1,0,0,0,0],"id":17,"left_children":[1,3,5,-1,-1,-1,-1],"loss_changes":[2.3220245E2,6.1362823E1,1.0465604E2,0E0,0E0,0E0,0E0],"parents":[2147483647,0,0,1,1,2,2],"right_children":[2,4,6,-1,-1,-1,-1],"split_conditions":[4.595E-1,5.135E-1,1.35E1,4.4982124E-4,-2.7873863E-3,1.3431966E-3,4.632857E-3],"split_indices":[3,55,80,0,0,0,0],"split_type":[0,0,0,0,0,0,0],"sum_hessian":[6.228376E3,2.3465E3,3.881876E3,1.2318398E3,1.1146603E3,2.0509346E3,1.8309414E3],"tree_param":{"num_deleted":"0","num_feature":"106","num_nodes":"7","size_leaf_vector":"0"}},{"base_weights":[-1.3809282E-1,-3.3424014E-1,4.8372313E-2,-4.0961492E-1,-1.0243559E-2,-2.0442584E-1,1.6820563E-1],"categories":[],"categories_nodes":[],"categories_segments":[],"categories_sizes":[],"default_left":[1,1,1,0,0,0,0],"id":18,"left_children":[1,3,5,-1,-1,-1,-1],"loss_changes":[2.2782428E2,7.412894E1,9.6791466E1,0E0,0E0,0E0,0E0],"parents":[2147483647,0,0,1,1,2,2],"right_children":[2,4,6,-1,-1,-1,-1],"split_conditions":[1.45E1,5.05E0,-1.95E0,-4.096149E-3,-1.0243559E-4,-2.0442584E-3,1.6820563E-3],"split_indices":[51,77,77,0,0,0,0],"split_type":[0,0,0,0,0,0,0],"sum_hessian":[6.2275825E3,3.034609E3,3.1929734E3,2.4616619E3,5.729471E2,1.0265907E3,2.1663828E3],"tree_param":{"num_deleted":"0","num_feature":"106","num_nodes":"7","size_leaf_vector":"0"}},{"base_weights":[1.3809282E-1,3.3424014E-1,-4.8372336E-2,4.0961495E-1,1.0243559E-2,2.0442578E-1,-1.6820563E-1],"categories":[],"categories_nodes":[],"categories_segments":[],"categories_sizes":[],"default_left":[1,1,1,0,0,0,0],"id":19,"left_children":[1,3,5,-1,-1,-1,-1],"loss_changes":[2.2782434E2,7.412894E1,9.679144E1,0E0,0E0,0E0,0E0],"parents":[2147483647,0,0,1,1,2,2],"right_children":[2,4,6,-1,-1,-1,-1],"split_conditions":[1.45E1,5.05E0,-1.95E0,4.0961495E-3,1.0243559E-4,2.0442577E-3,-1.6820563E-3],"split_indices":[51,77,77,0,0,0,0],"split_type":[0,0,0,0,0,0,0],"sum_hessian":[6.2275825E3,3.034609E3,3.1929734E3,2.4616619E3,5.729471E2,1.0265907E3,2.1663826E3],"tree_param":{"num_deleted":"0","num_feature":"106","num_nodes":"7","size_leaf_vector":"0"}},{"base_weights":[-1.3673124E-1,-2.7369565E-1,1.266533E-1,-1.1643308E-1,-4.47527E-1,-1.0717883E-1,2.3170042E-1],"categories":[],"categories_nodes":[],"categories_segments":[],"categories_sizes":[],"default_left":[1,1,1,0,0,0,0],"id":20,"left_children":[1,3,5,-1,-1,-1,-1],"loss_changes":[2.2469621E2,1.1196112E2,5.2376144E1,0E0,0E0,0E0,0E0],"parents":[2147483647,0,0,1,1,2,2],"right_children":[2,4,6,-1,-1,-1,-1],"split_conditions":[1.85E1,1.35E1,-2.05E0,-1.1643308E-3,-4.47527E-3,-1.0717883E-3,2.3170041E-3],"split_indices":[27,80,77,0,0,0,0],"split_type":[0,0,0,0,0,0,0],"sum_hessian":[6.2267437E3,4.09647E3,2.1302734E3,2.1516106E3,1.9448599E3,6.603443E2,1.4699291E3],"tree_param":{"num_deleted":"0","num_feature":"106","num_nodes":"7","size_leaf_vector":"0"}},{"base_weights":[1.3673124E-1,2.7369568E-1,-1.2665327E-1,1.16433114E-1,4.4752696E-1,1.0717883E-1,-2.317004E-1],"categories":[],"categories_nodes":[],"categories_segments":[],"categories_sizes":[],"default_left":[1,1,1,0,0,0,0],"id":21,"left_children":[1,3,5,-1,-1,-1,-1],"loss_changes":[2.2469623E2,1.1196106E2,5.2376137E1,0E0,0E0,0E0,0E0],"parents":[2147483647,0,0,1,1,2,2],"right_children":[2,4,6,-1,-1,-1,-1],"split_conditions":[1.85E1,1.35E1,-2.05E0,1.1643311E-3,4.4752695E-3,1.0717883E-3,-2.317004E-3],"split_indices":[27,80,77,0,0,0,0],"split_type":[0,0,0,0,0,0,0],"sum_hessian":[6.2267437E3,4.09647E3,2.1302734E3,2.1516104E3,1.9448597E3,6.603443E2,1.4699291E3],"tree_param":{"num_deleted":"0","num_feature":"106","num_nodes":"7","size_leaf_vector":"0"}},{"base_weights":[-1.3538484E-1,1.0676967E-1,-2.818065E-1,-4.3480758E-2,2.7273172E-1,-4.173642E-1,-9.0458415E-2],"categories":[],"categories_nodes":[],"categories_segments":[],"categories_sizes":[],"default_left":[1,1,1,0,0,0,0],"id":22,"left_children":[1,3,5,-1,-1,-1,-1],"loss_changes":[2.2081253E2,5.853861E1,1.0062344E2,0E0,0E0,0E0,0E0],"parents":[2147483647,0,0,1,1,2,2],"right_children":[2,4,6,-1,-1,-1,-1],"split_conditions":[4.595E-1,5.135E-1,1.55E0,-4.3480756E-4,2.7273172E-3,-4.173642E-3,-9.045841E-4],"split_indices":[3,55,77,0,0,0,0],"split_type":[0,0,0,0,0,0,0],"sum_hessian":[6.2258237E3,2.346091E3,3.8797327E3,1.2317178E3,1.1143733E3,2.2702363E3,1.6094963E3],"tree_param":{"num_deleted":"0","num_feature":"106","num_nodes":"7","size_leaf_vector":"0"}},{"base_weights":[1.3538487E-1,-1.0676968E-1,2.8180656E-1,4.3480758E-2,-2.7273172E-1,4.1736427E-1,9.045845E-2],"categories":[],"categories_nodes":[],"categories_segments":[],"categories_sizes":[],"default_left":[1,1,1,0,0,0,0],"id":23,"left_children":[1,3,5,-1,-1,-1,-1],"loss_changes":[2.2081258E2,5.8538605E1,1.0062341E2,0E0,0E0,0E0,0E0],"parents":[2147483647,0,0,1,1,2,2],"right_children":[2,4,6,-1,-1,-1,-1],"split_conditions":[4.595E-1,5.135E-1,1.55E0,4.3480756E-4,-2.7273172E-3,4.1736425E-3,9.045845E-4],"split_indices":[3,55,77,0,0,0,0],"split_type":[0,0,0,0,0,0,0],"sum_hessian":[6.2258237E3,2.346091E3,3.8797327E3,1.2317178E3,1.1143733E3,2.2702363E3,1.6094963E3],"tree_param":{"num_deleted":"0","num_feature":"106","num_nodes":"7","size_leaf_vector":"0"}},{"base_weights":[-1.3405396E-1,-3.258439E-1,4.8186027E-2,-3.997965E-1,-8.211695E-3,-1.9880536E-1,1.652542E-1],"categories":[],"categories_nodes":[],"categories_segments":[],"categories_sizes":[],"default_left":[1,1,1,0,0,0,0],"id":24,"left_children":[1,3,5,-1,-1,-1,-1],"loss_changes":[2.1761829E2,7.1253845E1,9.236506E1,0E0,0E0,0E0,0E0],"parents":[2147483647,0,0,1,1,2,2],"right_children":[2,4,6,-1,-1,-1,-1],"split_conditions":[1.45E1,5.05E0,-1.95E0,-3.997965E-3,-8.2116945E-5,-1.9880536E-3,1.652542E-3],"split_indices":[51,77,77,0,0,0,0],"split_type":[0,0,0,0,0,0,0],"sum_hessian":[6.224791E3,3.032544E3,3.192247E3,2.4596243E3,5.729197E2,1.0262849E3,2.1659622E3],"tree_param":{"num_deleted":"0","num_feature":"106","num_nodes":"7","size_leaf_vector":"0"}},{"base_weights":[1.3405396E-1,3.2584387E-1,-4.818601E-2,3.9979646E-1,8.2117235E-3,1.9880538E-1,-1.6525419E-1],"categories":[],"categories_nodes":[],"categories_segments":[],"categories_sizes":[],"default_left":[1,1,1,0,0,0,0],"id":25,"left_children":[1,3,5,-1,-1,-1,-1],"loss_changes":[2.1761823E2,7.1253815E1,9.236505E1,0E0,0E0,0E0,0E0],"parents":[2147483647,0,0,1,1,2,2],"right_children":[2,4,6,-1,-1,-1,-1],"split_conditions":[1.45E1,5.05E0,-1.95E0,3.9979643E-3,8.2117236E-5,1.9880538E-3,-1.6525419E-3],"split_indices":[51,77,77,0,0,0,0],"split_type":[0,0,0,0,0,0,0],"sum_hessian":[6.224791E3,3.0325442E3,3.1922468E3,2.4596245E3,5.729197E2,1.0262848E3,2.1659622E3],"tree_param":{"num_deleted":"0","num_feature":"106","num_nodes":"7","size_leaf_vector":"0"}},{"base_weights":[-1.3273701E-1,-2.6638567E-1,1.24165796E-1,-1.1237279E-1,-4.3676296E-1,-1.03583954E-1,2.2649272E-1],"categories":[],"categories_nodes":[],"categories_segments":[],"categories_sizes":[],"default_left":[1,1,1,0,0,0,0],"id":26,"left_children":[1,3,5,-1,-1,-1,-1],"loss_changes":[2.1375742E2,1.0740268E2,4.9681965E1,0E0,0E0,0E0,0E0],"parents":[2147483647,0,0,1,1,2,2],"right_children":[2,4,6,-1,-1,-1,-1],"split_conditions":[1.85E1,1.35E1,-2.05E0,-1.1237279E-3,-4.3676295E-3,-1.0358396E-3,2.2649271E-3],"split_indices":[27,80,77,0,0,0,0],"split_type":[0,0,0,0,0,0,0],"sum_hessian":[6.22373E3,4.0939143E3,2.1298157E3,2.151091E3,1.9428231E3,6.602594E2,1.4695563E3],"tree_param":{"num_deleted":"0","num_feature":"106","num_nodes":"7","size_leaf_vector":"0"}},{"base_weights":[1.3273701E-1,2.6638564E-1,-1.2416578E-1,1.1237283E-1,4.367629E-1,1.03583984E-1,-2.2649272E-1],"categories":[],"categories_nodes":[],"categories_segments":[],"categories_sizes":[],"default_left":[1,1,1,0,0,0,0],"id":27,"left_children":[1,3,5,-1,-1,-1,-1],"loss_changes":[2.1375735E2,1.0740262E2,4.968198E1,0E0,0E0,0E0,0E0],"parents":[2147483647,0,0,1,1,2,2],"right_children":[2,4,6,-1,-1,-1,-1],"split_conditions":[1.85E1,1.35E1,-2.05E0,1.1237282E-3,4.367629E-3,1.0358398E-3,-2.2649271E-3],"split_indices":[27,80,77,0,0,0,0],"split_type":[0,0,0,0,0,0,0],"sum_hessian":[6.22373E3,4.0939143E3,2.1298157E3,2.151091E3,1.9428232E3,6.6025946E2,1.4695563E3],"tree_param":{"num_deleted":"0","num_feature":"106","num_nodes":"7","size_leaf_vector":"0"}},{"base_weights":[-1.3143475E-1,-3.20233E-1,4.7894005E-2,-3.9319742E-1,-7.0473016E-3,-1.9471967E-1,1.6287431E-1],"categories":[],"categories_nodes":[],"categories_segments":[],"categories_sizes":[],"default_left":[1,1,1,0,0,0,0],"id":28,"left_children":[1,3,5,-1,-1,-1,-1],"loss_changes":[2.1072696E2,6.927994E1,8.9094864E1,0E0,0E0,0E0,0E0],"parents":[2147483647,0,0,1,1,2,2],"right_children":[2,4,6,-1,-1,-1,-1],"split_conditions":[1.45E1,5.05E0,-1.95E0,-3.931974E-3,-7.047301E-5,-1.9471967E-3,1.628743E-3],"split_indices":[51,77,77,0,0,0,0],"split_type":[0,0,0,0,0,0,0],"sum_hessian":[6.2225854E3,3.0308772E3,3.1917085E3,2.4579749E3,5.729022E2,1.0260348E3,2.1656736E3],"tree_param":{"num_deleted":"0","num_feature":"106","num_nodes":"7","size_leaf_vector":"0"}},{"base_weights":[1.3143477E-1,3.20233E-1,-4.7893982E-2,3.9319742E-1,7.047331E-3,1.9471976E-1,-1.6287433E-1],"categories":[],"categories_nodes":[],"categories_segments":[],"categories_sizes":[],"default_left":[1,1,1,0,0,0,0],"id":29,"left_children":[1,3,5,-1,-1,-1,-1],"loss_changes":[2.1072693E2,6.927991E1,8.90949E1,0E0,0E0,0E0,0E0],"parents":[2147483647,0,0,1,1,2,2],"right_children":[2,4,6,-1,-1,-1,-1],"split_conditions":[1.45E1,5.05E0,-1.95E0,3.931974E-3,7.047331E-5,1.9471976E-3,-1.6287433E-3],"split_indices":[51,77,77,0,0,0,0],"split_type":[0,0,0,0,0,0,0],"sum_hessian":[6.2225854E3,3.0308772E3,3.1917083E3,2.4579749E3,5.729023E2,1.0260348E3,2.1656736E3],"tree_param":{"num_deleted":"0","num_feature":"106","num_nodes":"7","size_leaf_vector":"0"}},{"base_weights":[-1.301467E-1,1.0442069E-1,-2.720731E-1,-4.135818E-2,2.6547876E-1,-3.7913874E-1,-4.1780688E-2],"categories":[],"categories_nodes":[],"categories_segments":[],"categories_sizes":[],"default_left":[1,1,1,0,0,0,0],"id":30,"left_children":[1,3,5,-1,-1,-1,-1],"loss_changes":[2.0717947E2,5.5100952E1,9.557739E1,0E0,0E0,0E0,0E0],"parents":[2147483647,0,0,1,1,2,2],"right_children":[2,4,6,-1,-1,-1,-1],"split_conditions":[4.595E-1,5.135E-1,2.95E0,-4.135818E-4,2.6547876E-3,-3.7913872E-3,-4.1780688E-4],"split_indices":[3,55,77,0,0,0,0],"split_type":[0,0,0,0,0,0,0],"sum_hessian":[6.221378E3,2.3453647E3,3.8760132E3,1.2314672E3,1.1138976E3,2.645461E3,1.2305522E3],"tree_param":{"num_deleted":"0","num_feature":"106","num_nodes":"7","size_leaf_vector":"0"}},{"base_weights":[1.301467E-1,-1.0442071E-1,2.720731E-1,4.13582E-2,-2.654788E-1,3.7913874E-1,4.1780703E-2],"categories":[],"categories_nodes":[],"categories_segments":[],"categories_sizes":[],"default_left":[1,1,1,0,0,0,0],"id":31,"left_children":[1,3,5,-1,-1,-1,-1],"loss_changes":[2.0717947E2,5.5100986E1,9.557739E1,0E0,0E0,0E0,0E0],"parents":[2147483647,0,0,1,1,2,2],"right_children":[2,4,6,-1,-1,-1,-1],"split_conditions":[4.595E-1,5.135E-1,2.95E0,4.13582E-4,-2.6547879E-3,3.7913872E-3,4.1780702E-4],"split_indices":[3,55,77,0,0,0,0],"split_type":[0,0,0,0,0,0,0],"sum_hessian":[6.221378E3,2.3453647E3,3.8760132E3,1.2314672E3,1.1138976E3,2.645461E3,1.2305522E3],"tree_param":{"num_deleted":"0","num_feature":"106","num_nodes":"7","size_leaf_vector":"0"}},{"base_weights":[-1.2887275E-1,-3.146491E-1,4.7506716E-2,-1.570431E-1,-4.5599273E-1,-1.9151072E-1,1.6077434E-1],"categories":[],"categories_nodes":[],"categories_segments":[],"categories_sizes":[],"default_left":[1,1,1,0,0,0,0],"id":32,"left_children":[1,3,5,-1,-1,-1,-1],"loss_changes":[2.0386185E2,6.742563E1,8.645077E1,0E0,0E0,0E0,0E0],"parents":[2147483647,0,0,1,1,2,2],"right_children":[2,4,6,-1,-1,-1,-1],"split_conditions":[1.45E1,1.15E1,-1.95E0,-1.5704309E-3,-4.559927E-3,-1.9151071E-3,1.6077433E-3],"split_indices":[51,80,77,0,0,0,0],"split_type":[0,0,0,0,0,0,0],"sum_hessian":[6.220078E3,3.028961E3,3.1911172E3,1.4330933E3,1.5958676E3,1.0257943E3,2.165323E3],"tree_param":{"num_deleted":"0","num_feature":"106","num_nodes":"7","size_leaf_vector":"0"}},{"base_weights":[1.2887272E-1,3.1464905E-1,-4.750673E-2,1.5704308E-1,4.5599264E-1,1.9151068E-1,-1.6077434E-1],"categories":[],"categories_nodes":[],"categories_segments":[],"categories_sizes":[],"default_left":[1,1,1,0,0,0,0],"id":33,"left_children":[1,3,5,-1,-1,-1,-1],"loss_changes":[2.0386182E2,6.742557E1,8.645075E1,0E0,0E0,0E0,0E0],"parents":[2147483647,0,0,1,1,2,2],"right_children":[2,4,6,-1,-1,-1,-1],"split_conditions":[1.45E1,1.15E1,-1.95E0,1.5704308E-3,4.559926E-3,1.9151068E-3,-1.6077433E-3],"split_indices":[51,80,77,0,0,0,0],"split_type":[0,0,0,0,0,0,0],"sum_hessian":[6.220078E3,3.028961E3,3.1911172E3,1.4330933E3,1.5958677E3,1.0257943E3,2.165323E3],"tree_param":{"num_deleted":"0","num_feature":"106","num_nodes":"7","size_leaf_vector":"0"}},{"base_weights":[-1.2761347E-1,-2.5724086E-1,1.2138925E-1,-1.07308894E-1,-4.2332488E-1,1.8395557E-1,-2.2630183E-1],"categories":[],"categories_nodes":[],"categories_segments":[],"categories_sizes":[],"default_left":[1,1,1,0,0,0,0],"id":34,"left_children":[1,3,5,-1,-1,-1,-1],"loss_changes":[2.0078842E2,1.0181726E2,4.6378265E1,0E0,0E0,0E0,0E0],"parents":[2147483647,0,0,1,1,2,2],"right_children":[2,4,6,-1,-1,-1,-1],"split_conditions":[1.85E1,1.35E1,2.55E1,-1.073089E-3,-4.2332485E-3,1.8395556E-3,-2.2630184E-3],"split_indices":[27,80,103,0,0,0,0],"split_type":[0,0,0,0,0,0,0],"sum_hessian":[6.218711E3,4.089658E3,2.1290527E3,2.1502083E3,1.9394497E3,1.8047606E3,3.2429218E2],"tree_param":{"num_deleted":"0","num_feature":"106","num_nodes":"7","size_leaf_vector":"0"}},{"base_weights":[1.2761346E-1,2.5724086E-1,-1.2138927E-1,1.07308894E-1,4.2332488E-1,-1.8395558E-1,2.2630183E-1],"categories":[],"categories_nodes":[],"categories_segments":[],"categories_sizes":[],"default_left":[1,1,1,0,0,0,0],"id":35,"left_children":[1,3,5,-1,-1,-1,-1],"loss_changes":[2.0078844E2,1.0181726E2,4.6378273E1,0E0,0E0,0E0,0E0],"parents":[2147483647,0,0,1,1,2,2],"right_children":[2,4,6,-1,-1,-1,-1],"split_conditions":[1.85E1,1.35E1,2.55E1,1.073089E-3,4.2332485E-3,-1.8395558E-3,2.2630184E-3],"split_indices":[27,80,103,0,0,0,0],"split_type":[0,0,0,0,0,0,0],"sum_hessian":[6.218711E3,4.089658E3,2.129053E3,2.1502083E3,1.9394497E3,1.8047607E3,3.2429218E2],"tree_param":{"num_deleted":"0","num_feature":"106","num_nodes":"7","size_leaf_vector":"0"}},{"base_weights":[-1.2636617E-1,-2.4343504E-1,1.4481583E-1,-9.797857E-2,-4.0714934E-1,7.604841E-5,3.0401424E-1],"categories":[],"categories_nodes":[],"categories_segments":[],"categories_sizes":[],"default_left":[1,1,1,0,0,0,0],"id":36,"left_children":[1,3,5,-1,-1,-1,-1],"loss_changes":[1.9744916E2,1.03398315E2,4.3219135E1,0E0,0E0,0E0,0E0],"parents":[2147483647,0,0,1,1,2,2],"right_children":[2,4,6,-1,-1,-1,-1],"split_conditions":[1.95E1,1.35E1,5.135E-1,-9.797857E-4,-4.071493E-3,7.604841E-7,3.0401424E-3],"split_indices":[28,80,55,0,0,0,0],"split_type":[0,0,0,0,0,0,0],"sum_hessian":[6.217355E3,4.3427144E3,1.8746409E3,2.3004314E3,2.0422828E3,9.824337E2,8.922072E2],"tree_param":{"num_deleted":"0","num_feature":"106","num_nodes":"7","size_leaf_vector":"0"}},{"base_weights":[1.263662E-1,2.4343506E-1,-1.4481579E-1,9.797859E-2,4.0714934E-1,-7.604083E-5,-3.0401415E-1],"categories":[],"categories_nodes":[],"categories_segments":[],"categories_sizes":[],"default_left":[1,1,1,0,0,0,0],"id":37,"left_children":[1,3,5,-1,-1,-1,-1],"loss_changes":[1.9744913E2,1.03398285E2,4.321912E1,0E0,0E0,0E0,0E0],"parents":[2147483647,0,0,1,1,2,2],"right_children":[2,4,6,-1,-1,-1,-1],"split_conditions":[1.95E1,1.35E1,5.135E-1,9.797859E-4,4.071493E-3,-7.604083E-7,-3.0401414E-3],"split_indices":[28,80,55,0,0,0,0],"split_type":[0,0,0,0,0,0,0],"sum_hessian":[6.217355E3,4.3427144E3,1.874641E3,2.3004314E3,2.0422828E3,9.824337E2,8.922072E2],"tree_param":{"num_deleted":"0","num_feature":"106","num_nodes":"7","size_leaf_vector":"0"}},{"base_weights":[-1.2513168E-1,-3.070154E-1,4.743066E-2,-3.779674E-1,-3.0492616E-3,-1.8651773E-1,1.5827489E-1],"categories":[],"categories_nodes":[],"categories_segments":[],"categories_sizes":[],"default_left":[1,1,1,0,0,0,0],"id":38,"left_children":[1,3,5,-1,-1,-1,-1],"loss_changes":[1.9514105E2,6.527905E1,8.2780136E1,0E0,0E0,0E0,0E0],"parents":[2147483647,0,0,1,1,2,2],"right_children":[2,4,6,-1,-1,-1,-1],"split_conditions":[1.45E1,5.05E0,-1.95E0,-3.7796737E-3,-3.0492616E-5,-1.8651773E-3,1.5827488E-3],"split_indices":[51,77,77,0,0,0,0],"split_type":[0,0,0,0,0,0,0],"sum_hessian":[6.2159365E3,3.0258545E3,3.1900823E3,2.4530242E3,5.7283014E2,1.0253309E3,2.1647512E3],"tree_param":{"num_deleted":"0","num_feature":"106","num_nodes":"7","size_leaf_vector":"0"}},{"base_weights":[1.251317E-1,3.070154E-1,-4.7430616E-2,3.779674E-1,3.0492616E-3,1.8651776E-1,-1.5827484E-1],"categories":[],"categories_nodes":[],"categories_segments":[],"categories_sizes":[],"default_left":[1,1,1,0,0,0,0],"id":39,"left_children":[1,3,5,-1,-1,-1,-1],"loss_changes":[1.9514104E2,6.527902E1,8.278012E1,0E0,0E0,0E0,0E0],"parents":[2147483647,0,0,1,1,2,2],"right_children":[2,4,6,-1,-1,-1,-1],"split_conditions":[1.45E1,5.05E0,-1.95E0,3.7796737E-3,3.0492616E-5,1.8651775E-3,-1.5827484E-3],"split_indices":[51,77,77,0,0,0,0],"split_type":[0,0,0,0,0,0,0],"sum_hessian":[6.2159365E3,3.0258542E3,3.1900823E3,2.4530242E3,5.7283014E2,1.0253309E3,2.1647512E3],"tree_param":{"num_deleted":"0","num_feature":"106","num_nodes":"7","size_leaf_vector":"0"}},{"base_weights":[-1.23911634E-1,9.1096506E-2,-2.671609E-1,-2.8748546E-2,2.7285773E-1,-1.2513879E-1,-4.264029E-1],"categories":[],"categories_nodes":[],"categories_segments":[],"categories_sizes":[],"default_left":[1,1,1,0,0,0,0],"id":40,"left_children":[1,3,5,-1,-1,-1,-1],"loss_changes":[1.9145775E2,5.4160454E1,8.431381E1,0E0,0E0,0E0,0E0],"parents":[2147483647,0,0,1,1,2,2],"right_children":[2,4,6,-1,-1,-1,-1],"split_conditions":[4.7149998E-1,5.535E-1,1.35E1,-2.8748545E-4,2.7285772E-3,-1.2513879E-3,-4.2640287E-3],"split_indices":[3,55,80,0,0,0,0],"split_type":[0,0,0,0,0,0,0],"sum_hessian":[6.2144204E3,2.4849822E3,3.7294382E3,1.498067E3,9.8691516E2,1.9722484E3,1.75719E3],"tree_param":{"num_deleted":"0","num_feature":"106","num_nodes":"7","size_leaf_vector":"0"}},{"base_weights":[1.2391161E-1,-9.1096506E-2,2.6716086E-1,2.8748533E-2,-2.7285773E-1,1.2513879E-1,4.2640287E-1],"categories":[],"categories_nodes":[],"categories_segments":[],"categories_sizes":[],"default_left":[1,1,1,0,0,0,0],"id":41,"left_children":[1,3,5,-1,-1,-1,-1],"loss_changes":[1.9145773E2,5.4160442E1,8.431375E1,0E0,0E0,0E0,0E0],"parents":[2147483647,0,0,1,1,2,2],"right_children":[2,4,6,-1,-1,-1,-1],"split_conditions":[4.7149998E-1,5.535E-1,1.35E1,2.874853E-4,-2.7285772E-3,1.2513879E-3,4.2640287E-3],"split_indices":[3,55,80,0,0,0,0],"split_type":[0,0,0,0,0,0,0],"sum_hessian":[6.2144204E3,2.4849822E3,3.7294382E3,1.4980671E3,9.869152E2,1.9722484E3,1.75719E3],"tree_param":{"num_deleted":"0","num_feature":"106","num_nodes":"7","size_leaf_vector":"0"}},{"base_weights":[-1.22704506E-1,-3.0168098E-1,4.700214E-2,-3.717217E-1,-1.8961438E-3,-1.834854E-1,1.561949E-1],"categories":[],"categories_nodes":[],"categories_segments":[],"categories_sizes":[],"default_left":[1,1,1,0,0,0,0],"id":42,"left_children":[1,3,5,-1,-1,-1,-1],"loss_changes":[1.8875037E2,6.3504333E1,8.032291E1,0E0,0E0,0E0,0E0],"parents":[2147483647,0,0,1,1,2,2],"right_children":[2,4,6,-1,-1,-1,-1],"split_conditions":[1.45E1,5.05E0,-1.95E0,-3.7172171E-3,-1.8961437E-5,-1.834854E-3,1.5619489E-3],"split_indices":[51,77,77,0,0,0,0],"split_type":[0,0,0,0,0,0,0],"sum_hessian":[6.212844E3,3.0234587E3,3.1893857E3,2.4506558E3,5.728031E2,1.025033E3,2.1643528E3],"tree_param":{"num_deleted":"0","num_feature":"106","num_nodes":"7","size_leaf_vector":"0"}},{"base_weights":[1.2270448E-1,3.0168095E-1,-4.700217E-2,3.717217E-1,1.896144E-3,1.8348537E-1,-1.5619493E-1],"categories":[],"categories_nodes":[],"categories_segments":[],"categories_sizes":[],"default_left":[1,1,1,0,0,0,0],"id":43,"left_children":[1,3,5,-1,-1,-1,-1],"loss_changes":[1.8875037E2,6.3504333E1,8.0322914E1,0E0,0E0,0E0,0E0],"parents":[2147483647,0,0,1,1,2,2],"right_children":[2,4,6,-1,-1,-1,-1],"split_conditions":[1.45E1,5.05E0,-1.95E0,3.7172171E-3,1.896144E-5,1.8348537E-3,-1.5619493E-3],"split_indices":[51,77,77,0,0,0,0],"split_type":[0,0,0,0,0,0,0],"sum_hessian":[6.212844E3,3.0234587E3,3.1893857E3,2.4506555E3,5.728031E2,1.025033E3,2.1643528E3],"tree_param":{"num_deleted":"0","num_feature":"106","num_nodes":"7","size_leaf_vector":"0"}},{"base_weights":[-1.2151047E-1,-2.3526752E-1,1.4178845E-1,-1.4040442E-1,-4.756309E-1,1.5031297E-3,2.9616356E-1],"categories":[],"categories_nodes":[],"categories_segments":[],"categories_sizes":[],"default_left":[1,1,1,0,0,0,0],"id":44,"left_children":[1,3,5,-1,-1,-1,-1],"loss_changes":[1.8610214E2,9.885513E1,4.0602043E1,0E0,0E0,0E0,0E0],"parents":[2147483647,0,0,1,1,2,2],"right_children":[2,4,6,-1,-1,-1,-1],"split_conditions":[1.95E1,1.95E1,5.135E-1,-1.4040441E-3,-4.756309E-3,1.5031297E-5,2.9616356E-3],"split_indices":[28,80,55,0,0,0,0],"split_type":[0,0,0,0,0,0,0],"sum_hessian":[6.2112095E3,4.337374E3,1.8738354E3,3.1111106E3,1.2262635E3,9.822474E2,8.915881E2],"tree_param":{"num_deleted":"0","num_feature":"106","num_nodes":"7","size_leaf_vector":"0"}},{"base_weights":[1.2151045E-1,2.3526749E-1,-1.4178842E-1,1.404044E-1,4.7563082E-1,-1.5030965E-3,-2.9616356E-1],"categories":[],"categories_nodes":[],"categories_segments":[],"categories_sizes":[],"default_left":[1,1,1,0,0,0,0],"id":45,"left_children":[1,3,5,-1,-1,-1,-1],"loss_changes":[1.8610208E2,9.885513E1,4.060205E1,0E0,0E0,0E0,0E0],"parents":[2147483647,0,0,1,1,2,2],"right_children":[2,4,6,-1,-1,-1,-1],"split_conditions":[1.95E1,1.95E1,5.135E-1,1.404044E-3,4.756308E-3,-1.5030965E-5,-2.9616356E-3],"split_indices":[28,80,55,0,0,0,0],"split_type":[0,0,0,0,0,0,0],"sum_hessian":[6.2112095E3,4.337374E3,1.8738354E3,3.1111106E3,1.2262635E3,9.8224744E2,8.915881E2],"tree_param":{"num_deleted":"0","num_feature":"106","num_nodes":"7","size_leaf_vector":"0"}},{"base_weights":[-1.2032637E-1,1.2378979E-1,-2.4101044E-1,-6.79773E-2,2.3497312E-1,-1.4634268E-1,-4.734267E-1],"categories":[],"categories_nodes":[],"categories_segments":[],"categories_sizes":[],"default_left":[1,1,1,0,0,0,0],"id":46,"left_children":[1,3,5,-1,-1,-1,-1],"loss_changes":[1.8300146E2,4.3837296E1,9.138051E1,0E0,0E0,0E0,0E0],"parents":[2147483647,0,0,1,1,2,2],"right_children":[2,4,6,-1,-1,-1,-1],"split_conditions":[-1.6500001E0,-1.45E0,1.95E1,-6.79773E-4,2.349731E-3,-1.4634267E-3,-4.734267E-3],"split_indices":[25,77,80,0,0,0,0],"split_type":[0,0,0,0,0,0,0],"sum_hessian":[6.209653E3,2.0542834E3,4.155369E3,7.540682E2,1.3002152E3,2.9538408E3,1.2015286E3],"tree_param":{"num_deleted":"0","num_feature":"106","num_nodes":"7","size_leaf_vector":"0"}},{"base_weights":[1.2032639E-1,-1.2378977E-1,2.4101047E-1,6.797728E-2,-2.3497309E-1,1.463427E-1,4.7342673E-1],"categories":[],"categories_nodes":[],"categories_segments":[],"categories_sizes":[],"default_left":[1,1,1,0,0,0,0],"id":47,"left_children":[1,3,5,-1,-1,-1,-1],"loss_changes":[1.8300146E2,4.3837273E1,9.138049E1,0E0,0E0,0E0,0E0],"parents":[2147483647,0,0,1,1,2,2],"right_children":[2,4,6,-1,-1,-1,-1],"split_conditions":[-1.6500001E0,-1.45E0,1.95E1,6.7977275E-4,-2.3497308E-3,1.4634269E-3,4.734267E-3],"split_indices":[25,77,80,0,0,0,0],"split_type":[0,0,0,0,0,0,0],"sum_hessian":[6.209653E3,2.0542834E3,4.155369E3,7.540682E2,1.3002152E3,2.9538408E3,1.2015286E3],"tree_param":{"num_deleted":"0","num_feature":"106","num_nodes":"7","size_leaf_vector":"0"}},{"base_weights":[-1.19155064E-1,-2.943731E-1,4.685694E-2,-3.6346188E-1,9.433239E-4,-1.7824206E-1,1.5346807E-1],"categories":[],"categories_nodes":[],"categories_segments":[],"categories_sizes":[],"default_left":[1,1,1,0,0,0,0],"id":48,"left_children":[1,3,5,-1,-1,-1,-1],"loss_changes":[1.806243E2,6.1635956E1,7.6560555E1,0E0,0E0,0E0,0E0],"parents":[2147483647,0,0,1,1,2,2],"right_children":[2,4,6,-1,-1,-1,-1],"split_conditions":[1.45E1,5.05E0,-1.95E0,-3.6346188E-3,9.433239E-6,-1.7824206E-3,1.5346807E-3],"split_indices":[51,77,77,0,0,0,0],"split_type":[0,0,0,0,0,0,0],"sum_hessian":[6.208044E3,3.0199026E3,3.1881414E3,2.4471624E3,5.7274023E2,1.0244479E3,2.1636936E3],"tree_param":{"num_deleted":"0","num_feature":"106","num_nodes":"7","size_leaf_vector":"0"}},{"base_weights":[1.1915508E-1,2.943731E-1,-4.6856925E-2,3.634619E-1,-9.434066E-4,1.7824209E-1,-1.5346806E-1],"categories":[],"categories_nodes":[],"categories_segments":[],"categories_sizes":[],"default_left":[1,1,1,0,0,0,0],"id":49,"left_children":[1,3,5,-1,-1,-1,-1],"loss_changes":[1.8062431E2,6.1636017E1,7.656056E1,0E0,0E0,0E0,0E0],"parents":[2147483647,0,0,1,1,2,2],"right_children":[2,4,6,-1,-1,-1,-1],"split_conditions":[1.45E1,5.05E0,-1.95E0,3.634619E-3,-9.434066E-6,1.7824208E-3,-1.5346805E-3],"split_indices":[51,77,77,0,0,0,0],"split_type":[0,0,0,0,0,0,0],"sum_hessian":[6.208044E3,3.0199026E3,3.1881414E3,2.4471624E3,5.7274023E2,1.0244479E3,2.1636936E3],"tree_param":{"num_deleted":"0","num_feature":"106","num_nodes":"7","size_leaf_vector":"0"}},{"base_weights":[-1.1799854E-1,-2.2924066E-1,1.3932802E-1,-9.0103455E-2,-3.8630018E-1,2.013692E-1,-1.9731152E-1],"categories":[],"categories_nodes":[],"categories_segments":[],"categories_sizes":[],"default_left":[1,1,1,0,0,0,0],"id":50,"left_children":[1,3,5,-1,-1,-1,-1],"loss_changes":[1.7771811E2,9.467851E1,3.9181446E1,0E0,0E0,0E0,0E0],"parents":[2147483647,0,0,1,1,2,2],"right_children":[2,4,6,-1,-1,-1,-1],"split_conditions":[1.95E1,1.35E1,2.55E1,-9.010345E-4,-3.8630017E-3,2.013692E-3,-1.9731151E-3],"split_indices":[28,80,103,0,0,0,0],"split_type":[0,0,0,0,0,0,0],"sum_hessian":[6.206257E3,4.3331484E3,1.8731083E3,2.2985042E3,2.0346445E3,1.5819617E3,2.9114667E2],"tree_param":{"num_deleted":"0","num_feature":"106","num_nodes":"7","size_leaf_vector":"0"}},{"base_weights":[1.1799853E-1,2.2924067E-1,-1.3932806E-1,9.0103455E-2,3.8630018E-1,-2.0136923E-1,1.9731146E-1],"categories":[],"categories_nodes":[],"categories_segments":[],"categories_sizes":[],"default_left":[1,1,1,0,0,0,0],"id":51,"left_children":[1,3,5,-1,-1,-1,-1],"loss_changes":[1.7771814E2,9.467856E1,3.9181442E1,0E0,0E0,0E0,0E0],"parents":[2147483647,0,0,1,1,2,2],"right_children":[2,4,6,-1,-1,-1,-1],"split_conditions":[1.95E1,1.35E1,2.55E1,9.010345E-4,3.8630017E-3,-2.0136922E-3,1.9731147E-3],"split_indices":[28,80,103,0,0,0,0],"split_type":[0,0,0,0,0,0,0],"sum_hessian":[6.206257E3,4.3331484E3,1.8731083E3,2.2985042E3,2.0346444E3,1.5819617E3,2.9114667E2],"tree_param":{"num_deleted":"0","num_feature":"106","num_nodes":"7","size_leaf_vector":"0"}},{"base_weights":[-1.168528E-1,-2.8947073E-1,4.6591934E-2,-3.576904E-1,1.8209633E-3,-1.7502221E-1,1.5153316E-1],"categories":[],"categories_nodes":[],"categories_segments":[],"categories_sizes":[],"default_left":[1,1,1,0,0,0,0],"id":52,"left_children":[1,3,5,-1,-1,-1,-1],"loss_changes":[1.7509232E2,5.997769E1,7.417521E1,0E0,0E0,0E0,0E0],"parents":[2147483647,0,0,1,1,2,2],"right_children":[2,4,6,-1,-1,-1,-1],"split_conditions":[1.45E1,5.05E0,-1.95E0,-3.5769038E-3,1.8209634E-5,-1.750222E-3,1.5153316E-3],"split_indices":[51,77,77,0,0,0,0],"split_type":[0,0,0,0,0,0,0],"sum_hessian":[6.204501E3,3.017196E3,3.187305E3,2.4444785E3,5.727175E2,1.0240516E3,2.1632532E3],"tree_param":{"num_deleted":"0","num_feature":"106","num_nodes":"7","size_leaf_vector":"0"}},{"base_weights":[1.16852805E-1,2.8947076E-1,-4.6591934E-2,3.5769042E-1,-1.8210474E-3,1.7502217E-1,-1.5153314E-1],"categories":[],"categories_nodes":[],"categories_segments":[],"categories_sizes":[],"default_left":[1,1,1,0,0,0,0],"id":53,"left_children":[1,3,5,-1,-1,-1,-1],"loss_changes":[1.7509235E2,5.9977737E1,7.417518E1,0E0,0E0,0E0,0E0],"parents":[2147483647,0,0,1,1,2,2],"right_children":[2,4,6,-1,-1,-1,-1],"split_conditions":[1.45E1,5.05E0,-1.95E0,3.576904E-3,-1.8210474E-5,1.7502217E-3,-1.5153313E-3],"split_indices":[51,77,77,0,0,0,0],"split_type":[0,0,0,0,0,0,0],"sum_hessian":[6.204501E3,3.0171958E3,3.187305E3,2.4444783E3,5.727176E2,1.0240518E3,2.1632532E3],"tree_param":{"num_deleted":"0","num_feature":"106","num_nodes":"7","size_leaf_vector":"0"}},{"base_weights":[-1.1572052E-1,1.5014735E-1,-2.2025612E-1,2.061775E-1,-1.8623206E-1,-6.3315265E-2,-3.5541463E-1],"categories":[],"categories_nodes":[],"categories_segments":[],"categories_sizes":[],"default_left":[1,1,1,0,0,0,0],"id":54,"left_children":[1,3,5,-1,-1,-1,-1],"loss_changes":[1.7244797E2,3.304741E1,9.443889E1,0E0,0E0,0E0,0E0],"parents":[2147483647,0,0,1,1,2,2],"right_children":[2,4,6,-1,-1,-1,-1],"split_conditions":[-2.45E0,2.55E1,1.15E1,2.061775E-3,-1.8623206E-3,-6.331526E-4,-3.5541463E-3],"split_indices":[25,81,80,0,0,0,0],"split_type":[0,0,0,0,0,0,0],"sum_hessian":[6.202613E3,1.7503838E3,4.452229E3,1.5007874E3,2.495965E2,2.0607888E3,2.3914404E3],"tree_param":{"num_deleted":"0","num_feature":"106","num_nodes":"7","size_leaf_vector":"0"}},{"base_weights":[1.15720525E-1,-1.5014733E-1,2.2025612E-1,-2.0617747E-1,1.8623209E-1,6.3315265E-2,3.5541463E-1],"categories":[],"categories_nodes":[],"categories_segments":[],"categories_sizes":[],"default_left":[1,1,1,0,0,0,0],"id":55,"left_children":[1,3,5,-1,-1,-1,-1],"loss_changes":[1.7244794E2,3.304741E1,9.443892E1,0E0,0E0,0E0,0E0],"parents":[2147483647,0,0,1,1,2,2],"right_children":[2,4,6,-1,-1,-1,-1],"split_conditions":[-2.45E0,2.55E1,1.15E1,-2.0617747E-3,1.8623208E-3,6.331526E-4,3.5541463E-3],"split_indices":[25,81,80,0,0,0,0],"split_type":[0,0,0,0,0,0,0],"sum_hessian":[6.202613E3,1.7503838E3,4.452229E3,1.5007874E3,2.495965E2,2.0607888E3,2.3914404E3],"tree_param":{"num_deleted":"0","num_feature":"106","num_nodes":"7","size_leaf_vector":"0"}},{"base_weights":[-1.1459665E-1,-2.3420851E-1,1.1460116E-1,-9.491584E-2,-3.892992E-1,1.7295098E-1,-2.0964327E-1],"categories":[],"categories_nodes":[],"categories_segments":[],"categories_sizes":[],"default_left":[1,1,1,0,0,0,0],"id":56,"left_children":[1,3,5,-1,-1,-1,-1],"loss_changes":[1.7004958E2,8.800572E1,4.028546E1,0E0,0E0,0E0,0E0],"parents":[2147483647,0,0,1,1,2,2],"right_children":[2,4,6,-1,-1,-1,-1],"split_conditions":[1.85E1,1.35E1,2.55E1,-9.4915833E-4,-3.8929922E-3,1.7295098E-3,-2.0964327E-3],"split_indices":[27,80,103,0,0,0,0],"split_type":[0,0,0,0,0,0,0],"sum_hessian":[6.2008647E3,4.0744844E3,2.1263801E3,2.1474194E3,1.9270648E3,1.8024792E3,3.239009E2],"tree_param":{"num_deleted":"0","num_feature":"106","num_nodes":"7","size_leaf_vector":"0"}},{"base_weights":[1.14596635E-1,2.342085E-1,-1.14601165E-1,9.491578E-2,3.8929924E-1,-1.72951E-1,2.0964329E-1],"categories":[],"categories_nodes":[],"categories_segments":[],"categories_sizes":[],"default_left":[1,1,1,0,0,0,0],"id":57,"left_children":[1,3,5,-1,-1,-1,-1],"loss_changes":[1.7004956E2,8.800578E1,4.0285458E1,0E0,0E0,0E0,0E0],"parents":[2147483647,0,0,1,1,2,2],"right_children":[2,4,6,-1,-1,-1,-1],"split_conditions":[1.85E1,1.35E1,2.55E1,9.4915775E-4,3.8929924E-3,-1.7295099E-3,2.096433E-3],"split_indices":[27,80,103,0,0,0,0],"split_type":[0,0,0,0,0,0,0],"sum_hessian":[6.2008647E3,4.0744844E3,2.1263801E3,2.1474197E3,1.9270648E3,1.8024792E3,3.2390094E2],"tree_param":{"num_deleted":"0","num_feature":"106","num_nodes":"7","size_leaf_vector":"0"}},{"base_weights":[-1.1348719E-1,-2.8258237E-1,4.6466123E-2,-3.496642E-1,3.3814905E-3,-9.326493E-2,2.0764245E-1],"categories":[],"categories_nodes":[],"categories_segments":[],"categories_sizes":[],"default_left":[1,1,1,0,0,0,0],"id":58,"left_children":[1,3,5,-1,-1,-1,-1],"loss_changes":[1.67705E2,5.7818436E1,7.179385E1,0E0,0E0,0E0,0E0],"parents":[2147483647,0,0,1,1,2,2],"right_children":[2,4,6,-1,-1,-1,-1],"split_conditions":[1.45E1,5.05E0,5.5E-1,-3.496642E-3,3.3814904E-5,-9.326493E-4,2.0764244E-3],"split_indices":[51,77,77,0,0,0,0],"split_type":[0,0,0,0,0,0,0],"sum_hessian":[6.198941E3,3.012986E3,3.1859548E3,2.4403113E3,5.726749E2,1.7067325E3,1.4792223E3],"tree_param":{"num_deleted":"0","num_feature":"106","num_nodes":"7","size_leaf_vector":"0"}},{"base_weights":[1.13487184E-1,2.8258237E-1,-4.6466134E-2,3.496642E-1,-3.3814632E-3,9.326493E-2,-2.0764248E-1],"categories":[],"categories_nodes":[],"categories_segments":[],"categories_sizes":[],"default_left":[1,1,1,0,0,0,0],"id":59,"left_children":[1,3,5,-1,-1,-1,-1],"loss_changes":[1.6770502E2,5.7818436E1,7.179388E1,0E0,0E0,0E0,0E0],"parents":[2147483647,0,0,1,1,2,2],"right_children":[2,4,6,-1,-1,-1,-1],"split_conditions":[1.45E1,5.05E0,5.5E-1,3.496642E-3,-3.381463E-5,9.326493E-4,-2.0764247E-3],"split_indices":[51,77,77,0,0,0,0],"split_type":[0,0,0,0,0,0,0],"sum_hessian":[6.1989414E3,3.0129863E3,3.1859548E3,2.4403113E3,5.726749E2,1.7067327E3,1.4792223E3],"tree_param":{"num_deleted":"0","num_feature":"106","num_nodes":"7","size_leaf_vector":"0"}},{"base_weights":[-1.12388454E-1,-2.197492E-1,1.356502E-1,-1.292108E-1,-4.5004192E-1,2.259381E-3,2.825862E-1],"categories":[],"categories_nodes":[],"categories_segments":[],"categories_sizes":[],"default_left":[1,1,1,0,0,0,0],"id":60,"left_children":[1,3,5,-1,-1,-1,-1],"loss_changes":[1.6507999E2,9.014154E1,3.670877E1,0E0,0E0,0E0,0E0],"parents":[2147483647,0,0,1,1,2,2],"right_children":[2,4,6,-1,-1,-1,-1],"split_conditions":[1.95E1,1.95E1,5.135E-1,-1.292108E-3,-4.500419E-3,2.2593811E-5,2.8258618E-3],"split_indices":[28,80,55,0,0,0,0],"split_type":[0,0,0,0,0,0,0],"sum_hessian":[6.196992E3,4.3250547E3,1.8719374E3,3.1056467E3,1.2194081E3,9.817261E2,8.902113E2],"tree_param":{"num_deleted":"0","num_feature":"106","num_nodes":"7","size_leaf_vector":"0"}},{"base_weights":[1.1238844E-1,2.197492E-1,-1.3565023E-1,1.2921077E-1,4.5004195E-1,-2.2593904E-3,-2.8258622E-1],"categories":[],"categories_nodes":[],"categories_segments":[],"categories_sizes":[],"default_left":[1,1,1,0,0,0,0],"id":61,"left_children":[1,3,5,-1,-1,-1,-1],"loss_changes":[1.6507997E2,9.014159E1,3.670878E1,0E0,0E0,0E0,0E0],"parents":[2147483647,0,0,1,1,2,2],"right_children":[2,4,6,-1,-1,-1,-1],"split_conditions":[1.95E1,1.95E1,5.135E-1,1.2921076E-3,4.5004194E-3,-2.2593904E-5,-2.825862E-3],"split_indices":[28,80,55,0,0,0,0],"split_type":[0,0,0,0,0,0,0],"sum_hessian":[6.196992E3,4.325055E3,1.8719374E3,3.1056467E3,1.2194082E3,9.817261E2,8.902113E2],"tree_param":{"num_deleted":"0","num_feature":"106","num_nodes":"7","size_leaf_vector":"0"}},{"base_weights":[-1.1130001E-1,-2.7791023E-1,4.6192486E-2,-3.442577E-1,4.59842E-3,-9.1300786E-2,2.0479842E-1],"categories":[],"categories_nodes":[],"categories_segments":[],"categories_sizes":[],"default_left":[1,1,1,0,0,0,0],"id":62,"left_children":[1,3,5,-1,-1,-1,-1],"loss_changes":[1.625968E2,5.643936E1,6.94976E1,0E0,0E0,0E0,0E0],"parents":[2147483647,0,0,1,1,2,2],"right_children":[2,4,6,-1,-1,-1,-1],"split_conditions":[1.45E1,5.05E0,5.5E-1,-3.442577E-3,4.59842E-5,-9.130078E-4,2.0479842E-3],"split_indices":[51,77,77,0,0,0,0],"split_type":[0,0,0,0,0,0,0],"sum_hessian":[6.195068E3,3.010022E3,3.185046E3,2.4373816E3,5.7264044E2,1.7063014E3,1.4787446E3],"tree_param":{"num_deleted":"0","num_feature":"106","num_nodes":"7","size_leaf_vector":"0"}},{"base_weights":[1.1129999E-1,2.779102E-1,-4.6192486E-2,3.4425768E-1,-4.598448E-3,9.1300786E-2,-2.0479842E-1],"categories":[],"categories_nodes":[],"categories_segments":[],"categories_sizes":[],"default_left":[1,1,1,0,0,0,0],"id":63,"left_children":[1,3,5,-1,-1,-1,-1],"loss_changes":[1.6259677E2,5.6439377E1,6.94976E1,0E0,0E0,0E0,0E0],"parents":[2147483647,0,0,1,1,2,2],"right_children":[2,4,6,-1,-1,-1,-1],"split_conditions":[1.45E1,5.05E0,5.5E-1,3.4425769E-3,-4.5984478E-5,9.130078E-4,-2.0479842E-3],"split_indices":[51,77,77,0,0,0,0],"split_type":[0,0,0,0,0,0,0],"sum_hessian":[6.195068E3,3.010022E3,3.185046E3,2.4373816E3,5.7264044E2,1.7063014E3,1.4787446E3],"tree_param":{"num_deleted":"0","num_feature":"106","num_nodes":"7","size_leaf_vector":"0"}},{"base_weights":[-1.1022402E-1,1.4633587E-1,-2.1122675E-1,2.0074373E-1,-1.8027493E-1,-5.9350494E-2,-3.4233034E-1],"categories":[],"categories_nodes":[],"categories_segments":[],"categories_sizes":[],"default_left":[1,1,1,0,0,0,0],"id":64,"left_children":[1,3,5,-1,-1,-1,-1],"loss_changes":[1.6053836E2,3.1138542E1,8.8481995E1,0E0,0E0,0E0,0E0],"parents":[2147483647,0,0,1,1,2,2],"right_children":[2,4,6,-1,-1,-1,-1],"split_conditions":[-2.45E0,2.55E1,1.15E1,2.0074374E-3,-1.8027493E-3,-5.935049E-4,-3.4233034E-3],"split_indices":[25,81,80,0,0,0,0],"split_type":[0,0,0,0,0,0,0],"sum_hessian":[6.193032E3,1.7492538E3,4.443779E3,1.4997981E3,2.4945576E2,2.0594604E3,2.384318E3],"tree_param":{"num_deleted":"0","num_feature":"106","num_nodes":"7","size_leaf_vector":"0"}},{"base_weights":[1.1022401E-1,-1.4633588E-1,2.1122673E-1,-2.0074375E-1,1.802749E-1,5.9350505E-2,3.4233028E-1],"categories":[],"categories_nodes":[],"categories_segments":[],"categories_sizes":[],"default_left":[1,1,1,0,0,0,0],"id":65,"left_children":[1,3,5,-1,-1,-1,-1],"loss_changes":[1.6053839E2,3.1138535E1,8.8481964E1,0E0,0E0,0E0,0E0],"parents":[2147483647,0,0,1,1,2,2],"right_children":[2,4,6,-1,-1,-1,-1],"split_conditions":[-2.45E0,2.55E1,1.15E1,-2.0074374E-3,1.802749E-3,5.9350504E-4,3.4233027E-3],"split_indices":[25,81,80,0,0,0,0],"split_type":[0,0,0,0,0,0,0],"sum_hessian":[6.1930327E3,1.7492538E3,4.443779E3,1.4997981E3,2.4945576E2,2.0594604E3,2.384318E3],"tree_param":{"num_deleted":"0","num_feature":"106","num_nodes":"7","size_leaf_vector":"0"}},{"base_weights":[-1.09157234E-1,-2.2453532E-1,1.11616075E-1,1.1405518E-2,-3.1102318E-1,-1.5481737E-1,1.7879353E-1],"categories":[],"categories_nodes":[],"categories_segments":[],"categories_sizes":[],"default_left":[1,1,1,0,0,0,0],"id":66,"left_children":[1,3,5,-1,-1,-1,-1],"loss_changes":[1.5775218E2,8.29966E1,3.807935E1,0E0,0E0,0E0,0E0],"parents":[2147483647,0,0,1,1,2,2],"right_children":[2,4,6,-1,-1,-1,-1],"split_conditions":[1.85E1,7.5E0,3.585E-1,1.1405518E-4,-3.1102316E-3,-1.5481737E-3,1.7879353E-3],"split_indices":[27,103,55,0,0,0,0],"split_type":[0,0,0,0,0,0,0],"sum_hessian":[6.1910786E3,4.0660881E3,2.1249907E3,1.0909153E3,2.9751729E3,4.276354E2,1.6973552E3],"tree_param":{"num_deleted":"0","num_feature":"106","num_nodes":"7","size_leaf_vector":"0"}},{"base_weights":[1.09157234E-1,2.2453532E-1,-1.1161608E-1,-1.1405534E-2,3.110232E-1,1.5481737E-1,-1.7879355E-1],"categories":[],"categories_nodes":[],"categories_segments":[],"categories_sizes":[],"default_left":[1,1,1,0,0,0,0],"id":67,"left_children":[1,3,5,-1,-1,-1,-1],"loss_changes":[1.5775218E2,8.299663E1,3.8079353E1,0E0,0E0,0E0,0E0],"parents":[2147483647,0,0,1,1,2,2],"right_children":[2,4,6,-1,-1,-1,-1],"split_conditions":[1.85E1,7.5E0,3.585E-1,-1.14055336E-4,3.110232E-3,1.5481737E-3,-1.7879355E-3],"split_indices":[27,103,55,0,0,0,0],"split_type":[0,0,0,0,0,0,0],"sum_hessian":[6.1910786E3,4.0660881E3,2.1249907E3,1.0909153E3,2.9751729E3,4.276354E2,1.6973552E3],"tree_param":{"num_deleted":"0","num_feature":"106","num_nodes":"7","size_leaf_vector":"0"}},{"base_weights":[-1.0810254E-1,-2.7135494E-1,4.6047326E-2,-3.3460093E-1,1.3211088E-2,-1.6483738E-1,1.4584914E-1],"categories":[],"categories_nodes":[],"categories_segments":[],"categories_sizes":[],"default_left":[1,1,1,0,0,0,0],"id":68,"left_children":[1,3,5,-1,-1,-1,-1],"loss_changes":[1.5578635E2,5.4112442E1,6.704975E1,0E0,0E0,0E0,0E0],"parents":[2147483647,0,0,1,1,2,2],"right_children":[2,4,6,-1,-1,-1,-1],"split_conditions":[1.45E1,5.25E0,-1.95E0,-3.3460092E-3,1.3211089E-4,-1.6483737E-3,1.4584913E-3],"split_indices":[51,77,77,0,0,0,0],"split_type":[0,0,0,0,0,0,0],"sum_hessian":[6.1890166E3,3.005394E3,3.1836226E3,2.4587507E3,5.466433E2,1.0224655E3,2.161157E3],"tree_param":{"num_deleted":"0","num_feature":"106","num_nodes":"7","size_leaf_vector":"0"}},{"base_weights":[1.08102545E-1,2.7135494E-1,-4.604731E-2,3.3460096E-1,-1.32112E-2,1.6483736E-1,-1.4584911E-1],"categories":[],"categories_nodes":[],"categories_segments":[],"categories_sizes":[],"default_left":[1,1,1,0,0,0,0],"id":69,"left_children":[1,3,5,-1,-1,-1,-1],"loss_changes":[1.5578633E2,5.4112503E1,6.704973E1,0E0,0E0,0E0,0E0],"parents":[2147483647,0,0,1,1,2,2],"right_children":[2,4,6,-1,-1,-1,-1],"split_conditions":[1.45E1,5.25E0,-1.95E0,3.3460094E-3,-1.3211199E-4,1.6483736E-3,-1.4584911E-3],"split_indices":[51,77,77,0,0,0,0],"split_type":[0,0,0,0,0,0,0],"sum_hessian":[6.1890166E3,3.005394E3,3.1836226E3,2.4587507E3,5.466433E2,1.0224656E3,2.161157E3],"tree_param":{"num_deleted":"0","num_feature":"106","num_nodes":"7","size_leaf_vector":"0"}},{"base_weights":[-1.0706066E-1,-1.9153865E-1,1.8750112E-1,-4.073101E-2,-3.2072127E-1,2.4123077E-1,-1.3715622E-1],"categories":[],"categories_nodes":[],"categories_segments":[],"categories_sizes":[],"default_left":[1,1,1,0,0,0,0],"id":70,"left_children":[1,3,5,-1,-1,-1,-1],"loss_changes":[1.5401335E2,9.3678604E1,2.4098545E1,0E0,0E0,0E0,0E0],"parents":[2147483647,0,0,1,1,2,2],"right_children":[2,4,6,-1,-1,-1,-1],"split_conditions":[2.35E1,1.15E1,2.55E1,-4.073101E-4,-3.2072125E-3,2.4123075E-3,-1.3715621E-3],"split_indices":[51,80,81,0,0,0,0],"split_type":[0,0,0,0,0,0,0],"sum_hessian":[6.186813E3,4.808207E3,1.3786058E3,2.2190298E3,2.5891775E3,1.1830691E3,1.955368E2],"tree_param":{"num_deleted":"0","num_feature":"106","num_nodes":"7","size_leaf_vector":"0"}},{"base_weights":[1.0706066E-1,1.9153863E-1,-1.8750112E-1,4.0731E-2,3.2072127E-1,-2.4123076E-1,1.3715622E-1],"categories":[],"categories_nodes":[],"categories_segments":[],"categories_sizes":[],"default_left":[1,1,1,0,0,0,0],"id":71,"left_children":[1,3,5,-1,-1,-1,-1],"loss_changes":[1.5401335E2,9.3678604E1,2.4098545E1,0E0,0E0,0E0,0E0],"parents":[2147483647,0,0,1,1,2,2],"right_children":[2,4,6,-1,-1,-1,-1],"split_conditions":[2.35E1,1.15E1,2.55E1,4.0731E-4,3.2072125E-3,-2.4123075E-3,1.3715621E-3],"split_indices":[51,80,81,0,0,0,0],"split_type":[0,0,0,0,0,0,0],"sum_hessian":[6.186813E3,4.808207E3,1.3786058E3,2.2190298E3,2.5891775E3,1.1830691E3,1.955368E2],"tree_param":{"num_deleted":"0","num_feature":"106","num_nodes":"7","size_leaf_vector":"0"}},{"base_weights":[-1.0602502E-1,-2.6705614E-1,4.5911793E-2,-2.0246719E-1,-5.407522E-1,-8.746362E-2,1.9974746E-1],"categories":[],"categories_nodes":[],"categories_segments":[],"categories_sizes":[],"default_left":[1,1,1,0,0,0,0],"id":72,"left_children":[1,3,5,-1,-1,-1,-1],"loss_changes":[1.5135797E2,5.298001E1,6.533901E1,0E0,0E0,0E0,0E0],"parents":[2147483647,0,0,1,1,2,2],"right_children":[2,4,6,-1,-1,-1,-1],"split_conditions":[1.45E1,2.25E1,5.5E-1,-2.0246718E-3,-5.4075215E-3,-8.746362E-4,1.9974746E-3],"split_indices":[51,80,77,0,0,0,0],"split_type":[0,0,0,0,0,0,0],"sum_hessian":[6.18482E3,3.002182E3,3.182638E3,2.4303809E3,5.7180084E2,1.704912E3,1.477726E3],"tree_param":{"num_deleted":"0","num_feature":"106","num_nodes":"7","size_leaf_vector":"0"}},{"base_weights":[1.06025025E-1,2.6705617E-1,-4.59118E-2,2.0246722E-1,5.407522E-1,8.74636E-2,-1.9974746E-1],"categories":[],"categories_nodes":[],"categories_segments":[],"categories_sizes":[],"default_left":[1,1,1,0,0,0,0],"id":73,"left_children":[1,3,5,-1,-1,-1,-1],"loss_changes":[1.51358E2,5.2979996E1,6.533901E1,0E0,0E0,0E0,0E0],"parents":[2147483647,0,0,1,1,2,2],"right_children":[2,4,6,-1,-1,-1,-1],"split_conditions":[1.45E1,2.25E1,5.5E-1,2.0246722E-3,5.4075215E-3,8.74636E-4,-1.9974746E-3],"split_indices":[51,80,77,0,0,0,0],"split_type":[0,0,0,0,0,0,0],"sum_hessian":[6.18482E3,3.002182E3,3.182638E3,2.4303809E3,5.7180084E2,1.7049119E3,1.477726E3],"tree_param":{"num_deleted":"0","num_feature":"106","num_nodes":"7","size_leaf_vector":"0"}},{"base_weights":[-1.0500227E-1,-2.0740156E-1,1.311358E-1,-1.2008869E-1,-4.303327E-1,1.8864349E-1,-1.8086311E-1],"categories":[],"categories_nodes":[],"categories_segments":[],"categories_sizes":[],"default_left":[1,1,1,0,0,0,0],"id":74,"left_children":[1,3,5,-1,-1,-1,-1],"loss_changes":[1.4955136E2,8.391284E1,3.360478E1,0E0,0E0,0E0,0E0],"parents":[2147483647,0,0,1,1,2,2],"right_children":[2,4,6,-1,-1,-1,-1],"split_conditions":[1.95E1,1.95E1,2.55E1,-1.2008869E-3,-4.303327E-3,1.8864349E-3,-1.8086311E-3],"split_indices":[28,80,103,0,0,0,0],"split_type":[0,0,0,0,0,0,0],"sum_hessian":[6.1826997E3,4.312669E3,1.8700309E3,3.1000476E3,1.2126212E3,1.579325E3,2.90706E2],"tree_param":{"num_deleted":"0","num_feature":"106","num_nodes":"7","size_leaf_vector":"0"}},{"base_weights":[1.0500227E-1,2.0740157E-1,-1.3113582E-1,1.2008872E-1,4.3033266E-1,-1.886435E-1,1.8086311E-1],"categories":[],"categories_nodes":[],"categories_segments":[],"categories_sizes":[],"default_left":[1,1,1,0,0,0,0],"id":75,"left_children":[1,3,5,-1,-1,-1,-1],"loss_changes":[1.4955139E2,8.3912796E1,3.3604786E1,0E0,0E0,0E0,0E0],"parents":[2147483647,0,0,1,1,2,2],"right_children":[2,4,6,-1,-1,-1,-1],"split_conditions":[1.95E1,1.95E1,2.55E1,1.2008871E-3,4.3033264E-3,-1.886435E-3,1.8086311E-3],"split_indices":[28,80,103,0,0,0,0],"split_type":[0,0,0,0,0,0,0],"sum_hessian":[6.1826997E3,4.312669E3,1.8700309E3,3.1000476E3,1.2126212E3,1.579325E3,2.90706E2],"tree_param":{"num_deleted":"0","num_feature":"106","num_nodes":"7","size_leaf_vector":"0"}},{"base_weights":[-1.0398961E-1,-1.8669267E-1,1.8419313E-1,-3.880055E-2,-3.1357592E-1,2.367977E-1,-1.3362594E-1],"categories":[],"categories_nodes":[],"categories_segments":[],"categories_sizes":[],"default_left":[1,1,1,0,0,0,0],"id":76,"left_children":[1,3,5,-1,-1,-1,-1],"loss_changes":[1.4736316E2,9.012834E1,2.308538E1,0E0,0E0,0E0,0E0],"parents":[2147483647,0,0,1,1,2,2],"right_children":[2,4,6,-1,-1,-1,-1],"split_conditions":[2.35E1,1.15E1,2.55E1,-3.880055E-4,-3.1357592E-3,2.367977E-3,-1.3362594E-3],"split_indices":[51,80,81,0,0,0,0],"split_type":[0,0,0,0,0,0,0],"sum_hessian":[6.180559E3,4.8026426E3,1.3779165E3,2.2183235E3,2.5843193E3,1.1824547E3,1.9546184E2],"tree_param":{"num_deleted":"0","num_feature":"106","num_nodes":"7","size_leaf_vector":"0"}},{"base_weights":[1.039896E-1,1.8669266E-1,-1.8419315E-1,3.8800538E-2,3.1357592E-1,-2.3679772E-1,1.3362591E-1],"categories":[],"categories_nodes":[],"categories_segments":[],"categories_sizes":[],"default_left":[1,1,1,0,0,0,0],"id":77,"left_children":[1,3,5,-1,-1,-1,-1],"loss_changes":[1.4736316E2,9.012836E1,2.3085388E1,0E0,0E0,0E0,0E0],"parents":[2147483647,0,0,1,1,2,2],"right_children":[2,4,6,-1,-1,-1,-1],"split_conditions":[2.35E1,1.15E1,2.55E1,3.8800537E-4,3.1357592E-3,-2.367977E-3,1.3362591E-3],"split_indices":[51,80,81,0,0,0,0],"split_type":[0,0,0,0,0,0,0],"sum_hessian":[6.180559E3,4.8026426E3,1.3779165E3,2.2183235E3,2.5843193E3,1.1824546E3,1.9546184E2],"tree_param":{"num_deleted":"0","num_feature":"106","num_nodes":"7","size_leaf_vector":"0"}},{"base_weights":[-1.0298546E-1,-2.6097327E-1,4.5922402E-2,-3.2296523E-1,1.7115448E-2,1.6235594E-1,-1.23849876E-1],"categories":[],"categories_nodes":[],"categories_segments":[],"categories_sizes":[],"default_left":[1,1,1,0,0,0,0],"id":78,"left_children":[1,3,5,-1,-1,-1,-1],"loss_changes":[1.4538773E2,5.1696854E1,6.291922E1,0E0,0E0,0E0,0E0],"parents":[2147483647,0,0,1,1,2,2],"right_children":[2,4,6,-1,-1,-1,-1],"split_conditions":[1.45E1,5.25E0,1.75E1,-3.2296523E-3,1.7115448E-4,1.6235594E-3,-1.2384987E-3],"split_indices":[51,77,81,0,0,0,0],"split_type":[0,0,0,0,0,0,0],"sum_hessian":[6.178462E3,2.997466E3,3.1809956E3,2.450938E3,5.4652814E2,1.8869368E3,1.2940588E3],"tree_param":{"num_deleted":"0","num_feature":"106","num_nodes":"7","size_leaf_vector":"0"}},{"base_weights":[1.0298545E-1,2.6097327E-1,-4.5922406E-2,3.2296526E-1,-1.7115531E-2,-1.6235594E-1,1.2384987E-1],"categories":[],"categories_nodes":[],"categories_segments":[],"categories_sizes":[],"default_left":[1,1,1,0,0,0,0],"id":79,"left_children":[1,3,5,-1,-1,-1,-1],"loss_changes":[1.4538773E2,5.16969E1,6.2919216E1,0E0,0E0,0E0,0E0],"parents":[2147483647,0,0,1,1,2,2],"right_children":[2,4,6,-1,-1,-1,-1],"split_conditions":[1.45E1,5.25E0,1.75E1,3.2296525E-3,-1.711553E-4,-1.6235594E-3,1.2384986E-3],"split_indices":[51,77,81,0,0,0,0],"split_type":[0,0,0,0,0,0,0],"sum_hessian":[6.178462E3,2.997466E3,3.1809956E3,2.450938E3,5.465282E2,1.8869368E3,1.2940588E3],"tree_param":{"num_deleted":"0","num_feature":"106","num_nodes":"7","size_leaf_vector":"0"}},{"base_weights":[-1.0199481E-1,1.4025384E-1,-1.9756348E-1,1.9164087E-1,-1.6825694E-1,-4.0664953E-1,-1.0938245E-1],"categories":[],"categories_nodes":[],"categories_segments":[],"categories_sizes":[],"default_left":[1,1,1,0,0,0,0],"id":80,"left_children":[1,3,5,-1,-1,-1,-1],"loss_changes":[1.4303708E2,2.7745682E1,8.163405E1,0E0,0E0,0E0,0E0],"parents":[2147483647,0,0,1,1,2,2],"right_children":[2,4,6,-1,-1,-1,-1],"split_conditions":[-2.45E0,2.55E1,-1.95E0,1.9164087E-3,-1.6825694E-3,-4.066495E-3,-1.0938245E-3],"split_indices":[25,81,77,0,0,0,0],"split_type":[0,0,0,0,0,0,0],"sum_hessian":[6.1761416E3,1.7471008E3,4.4290405E3,1.4979706E3,2.4913036E2,1.3127552E3,3.1162856E3],"tree_param":{"num_deleted":"0","num_feature":"106","num_nodes":"7","size_leaf_vector":"0"}},{"base_weights":[1.019948E-1,-1.4025386E-1,1.9756347E-1,-1.916409E-1,1.6825692E-1,4.0664953E-1,1.09382436E-1],"categories":[],"categories_nodes":[],"categories_segments":[],"categories_sizes":[],"default_left":[1,1,1,0,0,0,0],"id":81,"left_children":[1,3,5,-1,-1,-1,-1],"loss_changes":[1.4303708E2,2.7745682E1,8.163405E1,0E0,0E0,0E0,0E0],"parents":[2147483647,0,0,1,1,2,2],"right_children":[2,4,6,-1,-1,-1,-1],"split_conditions":[-2.45E0,2.55E1,-1.95E0,-1.9164089E-3,1.6825692E-3,4.066495E-3,1.0938243E-3],"split_indices":[25,81,77,0,0,0,0],"split_type":[0,0,0,0,0,0,0],"sum_hessian":[6.1761416E3,1.7471008E3,4.4290405E3,1.4979705E3,2.4913036E2,1.3127551E3,3.1162856E3],"tree_param":{"num_deleted":"0","num_feature":"106","num_nodes":"7","size_leaf_vector":"0"}},{"base_weights":[-1.0101122E-1,8.359466E-2,-2.247527E-1,-2.212887E-2,2.441629E-1,-3.185052E-1,-3.055637E-2],"categories":[],"categories_nodes":[],"categories_segments":[],"categories_sizes":[],"default_left":[1,1,1,0,0,0,0],"id":82,"left_children":[1,3,5,-1,-1,-1,-1],"loss_changes":[1.4107672E2,4.2084927E1,6.73031E1,0E0,0E0,0E0,0E0],"parents":[2147483647,0,0,1,1,2,2],"right_children":[2,4,6,-1,-1,-1,-1],"split_conditions":[4.7149998E-1,5.535E-1,2.85E0,-2.212887E-4,2.441629E-3,-3.185052E-3,-3.0556368E-4],"split_indices":[3,55,77,0,0,0,0],"split_type":[0,0,0,0,0,0,0],"sum_hessian":[6.1739966E3,2.4777888E3,3.696208E3,1.4945735E3,9.832153E2,2.4923374E3,1.2038705E3],"tree_param":{"num_deleted":"0","num_feature":"106","num_nodes":"7","size_leaf_vector":"0"}},{"base_weights":[1.0101122E-1,-8.359465E-2,2.2475268E-1,2.2128873E-2,-2.4416287E-1,3.1850517E-1,3.0556392E-2],"categories":[],"categories_nodes":[],"categories_segments":[],"categories_sizes":[],"default_left":[1,1,1,0,0,0,0],"id":83,"left_children":[1,3,5,-1,-1,-1,-1],"loss_changes":[1.4107669E2,4.2084923E1,6.73031E1,0E0,0E0,0E0,0E0],"parents":[2147483647,0,0,1,1,2,2],"right_children":[2,4,6,-1,-1,-1,-1],"split_conditions":[4.7149998E-1,5.535E-1,2.85E0,2.2128872E-4,-2.4416286E-3,3.1850515E-3,3.055639E-4],"split_indices":[3,55,77,0,0,0,0],"split_type":[0,0,0,0,0,0,0],"sum_hessian":[6.1739966E3,2.4777888E3,3.696208E3,1.4945735E3,9.832153E2,2.4923374E3,1.2038705E3],"tree_param":{"num_deleted":"0","num_feature":"106","num_nodes":"7","size_leaf_vector":"0"}},{"base_weights":[-1.00040145E-1,-2.5476578E-1,4.5617953E-2,-1.9209337E-1,-5.2161336E-1,-8.2932204E-2,1.938683E-1],"categories":[],"categories_nodes":[],"categories_segments":[],"categories_sizes":[],"default_left":[1,1,1,0,0,0,0],"id":84,"left_children":[1,3,5,-1,-1,-1,-1],"loss_changes":[1.3912439E2,4.99597E1,6.0625492E1,0E0,0E0,0E0,0E0],"parents":[2147483647,0,0,1,1,2,2],"right_children":[2,4,6,-1,-1,-1,-1],"split_conditions":[1.45E1,2.25E1,5.5E-1,-1.9209337E-3,-5.2161333E-3,-8.2932203E-4,1.9386829E-3],"split_indices":[51,80,77,0,0,0,0],"split_type":[0,0,0,0,0,0,0],"sum_hessian":[6.1716274E3,2.9923005E3,3.1793271E3,2.4245786E3,5.67722E2,1.7030375E3,1.4762896E3],"tree_param":{"num_deleted":"0","num_feature":"106","num_nodes":"7","size_leaf_vector":"0"}},{"base_weights":[1.0004013E-1,2.5476578E-1,-4.5617968E-2,1.9209339E-1,5.216133E-1,8.293219E-2,-1.9386831E-1],"categories":[],"categories_nodes":[],"categories_segments":[],"categories_sizes":[],"default_left":[1,1,1,0,0,0,0],"id":85,"left_children":[1,3,5,-1,-1,-1,-1],"loss_changes":[1.3912439E2,4.995967E1,6.0625496E1,0E0,0E0,0E0,0E0],"parents":[2147483647,0,0,1,1,2,2],"right_children":[2,4,6,-1,-1,-1,-1],"split_conditions":[1.45E1,2.25E1,5.5E-1,1.9209338E-3,5.216133E-3,8.2932186E-4,-1.9386831E-3],"split_indices":[51,80,77,0,0,0,0],"split_type":[0,0,0,0,0,0,0],"sum_hessian":[6.1716274E3,2.9923005E3,3.1793271E3,2.4245786E3,5.677219E2,1.7030375E3,1.4762896E3],"tree_param":{"num_deleted":"0","num_feature":"106","num_nodes":"7","size_leaf_vector":"0"}},{"base_weights":[-9.907816E-2,-1.791304E-1,1.7951849E-1,-3.5709146E-2,-3.0248812E-1,2.3047754E-1,-1.2826982E-1],"categories":[],"categories_nodes":[],"categories_segments":[],"categories_sizes":[],"default_left":[1,1,1,0,0,0,0],"id":86,"left_children":[1,3,5,-1,-1,-1,-1],"loss_changes":[1.3764458E2,8.479776E1,2.1638985E1,0E0,0E0,0E0,0E0],"parents":[2147483647,0,0,1,1,2,2],"right_children":[2,4,6,-1,-1,-1,-1],"split_conditions":[2.35E1,1.15E1,2.55E1,-3.5709146E-4,-3.024881E-3,2.3047754E-3,-1.2826982E-3],"split_indices":[51,80,81,0,0,0,0],"split_type":[0,0,0,0,0,0,0],"sum_hessian":[6.1693276E3,4.7925796E3,1.3767477E3,2.2166692E3,2.5759106E3,1.1814E3,1.9534761E2],"tree_param":{"num_deleted":"0","num_feature":"106","num_nodes":"7","size_leaf_vector":"0"}},{"base_weights":[9.9078156E-2,1.7913039E-1,-1.7951849E-1,3.57091E-2,3.0248812E-1,-2.3047754E-1,1.2826982E-1],"categories":[],"categories_nodes":[],"categories_segments":[],"categories_sizes":[],"default_left":[1,1,1,0,0,0,0],"id":87,"left_children":[1,3,5,-1,-1,-1,-1],"loss_changes":[1.3764455E2,8.479782E1,2.1638985E1,0E0,0E0,0E0,0E0],"parents":[2147483647,0,0,1,1,2,2],"right_children":[2,4,6,-1,-1,-1,-1],"split_conditions":[2.35E1,1.15E1,2.55E1,3.5709102E-4,3.024881E-3,-2.3047754E-3,1.2826982E-3],"split_indices":[51,80,81,0,0,0,0],"split_type":[0,0,0,0,0,0,0],"sum_hessian":[6.1693276E3,4.79258E3,1.3767477E3,2.2166692E3,2.5759106E3,1.1814E3,1.9534761E2],"tree_param":{"num_deleted":"0","num_feature":"106","num_nodes":"7","size_leaf_vector":"0"}},{"base_weights":[-9.8123826E-2,-1.9576405E-1,1.265953E-1,-1.11881025E-1,-4.1095275E-1,1.8163523E-1,-1.7201127E-1],"categories":[],"categories_nodes":[],"categories_segments":[],"categories_sizes":[],"default_left":[1,1,1,0,0,0,0],"id":88,"left_children":[1,3,5,-1,-1,-1,-1],"loss_changes":[1.353626E2,7.7575775E1,3.0746714E1,0E0,0E0,0E0,0E0],"parents":[2147483647,0,0,1,1,2,2],"right_children":[2,4,6,-1,-1,-1,-1],"split_conditions":[1.95E1,1.95E1,2.55E1,-1.1188103E-3,-4.1095275E-3,1.8163522E-3,-1.7201126E-3],"split_indices":[28,80,103,0,0,0,0],"split_type":[0,0,0,0,0,0,0],"sum_hessian":[6.1670854E3,4.2992114E3,1.8678739E3,3.0944712E3,1.2047402E3,1.5774973E3,2.9037662E2],"tree_param":{"num_deleted":"0","num_feature":"106","num_nodes":"7","size_leaf_vector":"0"}},{"base_weights":[9.812382E-2,1.9576403E-1,-1.265953E-1,1.1188102E-1,4.1095275E-1,-1.8163523E-1,1.7201126E-1],"categories":[],"categories_nodes":[],"categories_segments":[],"categories_sizes":[],"default_left":[1,1,1,0,0,0,0],"id":89,"left_children":[1,3,5,-1,-1,-1,-1],"loss_changes":[1.3536258E2,7.7575775E1,3.0746716E1,0E0,0E0,0E0,0E0],"parents":[2147483647,0,0,1,1,2,2],"right_children":[2,4,6,-1,-1,-1,-1],"split_conditions":[1.95E1,1.95E1,2.55E1,1.1188101E-3,4.1095275E-3,-1.8163522E-3,1.7201125E-3],"split_indices":[28,80,103,0,0,0,0],"split_type":[0,0,0,0,0,0,0],"sum_hessian":[6.1670854E3,4.2992114E3,1.8678739E3,3.0944712E3,1.2047402E3,1.5774973E3,2.9037662E2],"tree_param":{"num_deleted":"0","num_feature":"106","num_nodes":"7","size_leaf_vector":"0"}},{"base_weights":[-9.718086E-2,-2.4900697E-1,4.5586858E-2,-3.0957198E-1,2.1632234E-2,-8.053293E-2,1.9101794E-1],"categories":[],"categories_nodes":[],"categories_segments":[],"categories_sizes":[],"default_left":[1,1,1,0,0,0,0],"id":90,"left_children":[1,3,5,-1,-1,-1,-1],"loss_changes":[1.3365912E2,4.898758E1,5.8314785E1,0E0,0E0,0E0,0E0],"parents":[2147483647,0,0,1,1,2,2],"right_children":[2,4,6,-1,-1,-1,-1],"split_conditions":[1.45E1,5.25E0,5.5E-1,-3.0957197E-3,2.1632233E-4,-8.053293E-4,1.9101794E-3],"split_indices":[51,77,77,0,0,0,0],"split_type":[0,0,0,0,0,0,0],"sum_hessian":[6.1647407E3,2.9872307E3,3.17751E3,2.4408591E3,5.463716E2,1.7019781E3,1.475532E3],"tree_param":{"num_deleted":"0","num_feature":"106","num_nodes":"7","size_leaf_vector":"0"}},{"base_weights":[9.718087E-2,2.49007E-1,-4.5586858E-2,3.09572E-1,-2.1632126E-2,8.053294E-2,-1.9101794E-1],"categories":[],"categories_nodes":[],"categories_segments":[],"categories_sizes":[],"default_left":[1,1,1,0,0,0,0],"id":91,"left_children":[1,3,5,-1,-1,-1,-1],"loss_changes":[1.3365916E2,4.8987534E1,5.8314785E1,0E0,0E0,0E0,0E0],"parents":[2147483647,0,0,1,1,2,2],"right_children":[2,4,6,-1,-1,-1,-1],"split_conditions":[1.45E1,5.25E0,5.5E-1,3.09572E-3,-2.1632125E-4,8.0532936E-4,-1.9101794E-3],"split_indices":[51,77,77,0,0,0,0],"split_type":[0,0,0,0,0,0,0],"sum_hessian":[6.1647407E3,2.9872307E3,3.1775103E3,2.4408591E3,5.463716E2,1.7019781E3,1.475532E3],"tree_param":{"num_deleted":"0","num_feature":"106","num_nodes":"7","size_leaf_vector":"0"}},{"base_weights":[-9.624813E-2,-1.7463025E-1,1.7633972E-1,-3.3989392E-2,-2.958002E-1,2.2623454E-1,-1.249683E-1],"categories":[],"categories_nodes":[],"categories_segments":[],"categories_sizes":[],"default_left":[1,1,1,0,0,0,0],"id":92,"left_children":[1,3,5,-1,-1,-1,-1],"loss_changes":[1.3171567E2,8.157318E1,2.0728855E1,0E0,0E0,0E0,0E0],"parents":[2147483647,0,0,1,1,2,2],"right_children":[2,4,6,-1,-1,-1,-1],"split_conditions":[2.35E1,1.15E1,2.55E1,-3.3989392E-4,-2.958002E-3,2.2623453E-3,-1.249683E-3],"split_indices":[51,80,81,0,0,0,0],"split_type":[0,0,0,0,0,0,0],"sum_hessian":[6.1622866E3,4.7863423E3,1.3759443E3,2.2157834E3,2.5705588E3,1.1806798E3,1.9526445E2],"tree_param":{"num_deleted":"0","num_feature":"106","num_nodes":"7","size_leaf_vector":"0"}},{"base_weights":[9.624811E-2,1.7463022E-1,-1.763397E-1,3.398936E-2,2.958002E-1,-2.2623454E-1,1.249683E-1],"categories":[],"categories_nodes":[],"categories_segments":[],"categories_sizes":[],"default_left":[1,1,1,0,0,0,0],"id":93,"left_children":[1,3,5,-1,-1,-1,-1],"loss_changes":[1.3171562E2,8.15732E1,2.0728859E1,0E0,0E0,0E0,0E0],"parents":[2147483647,0,0,1,1,2,2],"right_children":[2,4,6,-1,-1,-1,-1],"split_conditions":[2.35E1,1.15E1,2.55E1,3.3989357E-4,2.958002E-3,-2.2623453E-3,1.249683E-3],"split_indices":[51,80,81,0,0,0,0],"split_type":[0,0,0,0,0,0,0],"sum_hessian":[6.1622866E3,4.7863423E3,1.3759443E3,2.2157834E3,2.5705588E3,1.1806798E3,1.9526447E2],"tree_param":{"num_deleted":"0","num_feature":"106","num_nodes":"7","size_leaf_vector":"0"}},{"base_weights":[-9.532235E-2,-2.4511324E-1,4.540983E-2,-3.0492845E-1,2.1779602E-2,-1.4917614E-1,1.3737711E-1],"categories":[],"categories_nodes":[],"categories_segments":[],"categories_sizes":[],"default_left":[1,1,1,0,0,0,0],"id":94,"left_children":[1,3,5,-1,-1,-1,-1],"loss_changes":[1.298867E2,4.7653336E1,5.6881386E1,0E0,0E0,0E0,0E0],"parents":[2147483647,0,0,1,1,2,2],"right_children":[2,4,6,-1,-1,-1,-1],"split_conditions":[1.45E1,5.25E0,-1.95E0,-3.0492845E-3,2.1779601E-4,-1.4917613E-3,1.3737711E-3],"split_indices":[51,77,77,0,0,0,0],"split_type":[0,0,0,0,0,0,0],"sum_hessian":[6.159964E3,2.983587E3,3.1763772E3,2.4372214E3,5.4636536E2,1.0192367E3,2.1571404E3],"tree_param":{"num_deleted":"0","num_feature":"106","num_nodes":"7","size_leaf_vector":"0"}},{"base_weights":[9.532236E-2,2.4511325E-1,-4.5409832E-2,3.0492848E-1,-2.177957E-2,1.4917614E-1,-1.3737713E-1],"categories":[],"categories_nodes":[],"categories_segments":[],"categories_sizes":[],"default_left":[1,1,1,0,0,0,0],"id":95,"left_children":[1,3,5,-1,-1,-1,-1],"loss_changes":[1.2988672E2,4.7653366E1,5.6881393E1,0E0,0E0,0E0,0E0],"parents":[2147483647,0,0,1,1,2,2],"right_children":[2,4,6,-1,-1,-1,-1],"split_conditions":[1.45E1,5.25E0,-1.95E0,3.0492847E-3,-2.177957E-4,1.4917613E-3,-1.3737712E-3],"split_indices":[51,77,77,0,0,0,0],"split_type":[0,0,0,0,0,0,0],"sum_hessian":[6.159964E3,2.983587E3,3.1763772E3,2.4372214E3,5.4636536E2,1.0192367E3,2.1571404E3],"tree_param":{"num_deleted":"0","num_feature":"106","num_nodes":"7","size_leaf_vector":"0"}},{"base_weights":[-9.440935E-2,-1.9884096E-1,1.0450795E-1,1.948511E-2,-2.795156E-1,2.317185E-1,-1.2761664E-2],"categories":[],"categories_nodes":[],"categories_segments":[],"categories_sizes":[],"default_left":[1,1,1,0,0,0,0],"id":96,"left_children":[1,3,5,-1,-1,-1,-1],"loss_changes":[1.27950874E2,7.113954E1,3.1640339E1,0E0,0E0,0E0,0E0],"parents":[2147483647,0,0,1,1,2,2],"right_children":[2,4,6,-1,-1,-1,-1],"split_conditions":[1.85E1,7.5E0,-4.6499996E0,1.948511E-4,-2.7951559E-3,2.3171848E-3,-1.2761663E-4],"split_indices":[27,103,25,0,0,0,0],"split_type":[0,0,0,0,0,0,0],"sum_hessian":[6.1574033E3,4.0376414E3,2.119762E3,1.0896176E3,2.948024E3,1.0163166E3,1.1034454E3],"tree_param":{"num_deleted":"0","num_feature":"106","num_nodes":"7","size_leaf_vector":"0"}},{"base_weights":[9.440937E-2,1.98841E-1,-1.0450796E-1,-1.9485058E-2,2.7951562E-1,-2.3171853E-1,1.2761674E-2],"categories":[],"categories_nodes":[],"categories_segments":[],"categories_sizes":[],"default_left":[1,1,1,0,0,0,0],"id":97,"left_children":[1,3,5,-1,-1,-1,-1],"loss_changes":[1.279509E2,7.113954E1,3.164035E1,0E0,0E0,0E0,0E0],"parents":[2147483647,0,0,1,1,2,2],"right_children":[2,4,6,-1,-1,-1,-1],"split_conditions":[1.85E1,7.5E0,-4.6499996E0,-1.9485058E-4,2.795156E-3,-2.3171853E-3,1.2761673E-4],"split_indices":[27,103,25,0,0,0,0],"split_type":[0,0,0,0,0,0,0],"sum_hessian":[6.1574033E3,4.0376414E3,2.119762E3,1.0896174E3,2.948024E3,1.0163166E3,1.1034454E3],"tree_param":{"num_deleted":"0","num_feature":"106","num_nodes":"7","size_leaf_vector":"0"}},{"base_weights":[-9.3501195E-2,-2.4107254E-1,4.5010787E-2,-1.8014032E-1,-5.0193125E-1,-7.82498E-2,1.8713968E-1],"categories":[],"categories_nodes":[],"categories_segments":[],"categories_sizes":[],"default_left":[1,1,1,0,0,0,0],"id":98,"left_children":[1,3,5,-1,-1,-1,-1],"loss_changes":[1.2584339E2,4.728723E1,5.5660755E1,0E0,0E0,0E0,0E0],"parents":[2147483647,0,0,1,1,2,2],"right_children":[2,4,6,-1,-1,-1,-1],"split_conditions":[1.45E1,2.25E1,5.5E-1,-1.8014031E-3,-5.0193123E-3,-7.824979E-4,1.8713967E-3],"split_indices":[51,80,77,0,0,0,0],"split_type":[0,0,0,0,0,0,0],"sum_hessian":[6.1550703E3,2.9797207E3,3.1753494E3,2.416871E3,5.628498E2,1.7007937E3,1.4745557E3],"tree_param":{"num_deleted":"0","num_feature":"106","num_nodes":"7","size_leaf_vector":"0"}},{"base_weights":[9.3501195E-2,2.4107252E-1,-4.5010787E-2,1.801403E-1,5.019313E-1,7.8249805E-2,-1.8713968E-1],"categories":[],"categories_nodes":[],"categories_segments":[],"categories_sizes":[],"default_left":[1,1,1,0,0,0,0],"id":99,"left_children":[1,3,5,-1,-1,-1,-1],"loss_changes":[1.2584338E2,4.7287277E1,5.5660767E1,0E0,0E0,0E0,0E0],"parents":[2147483647,0,0,1,1,2,2],"right_children":[2,4,6,-1,-1,-1,-1],"split_conditions":[1.45E1,2.25E1,5.5E-1,1.801403E-3,5.019313E-3,7.8249804E-4,-1.8713967E-3],"split_indices":[51,80,77,0,0,0,0],"split_type":[0,0,0,0,0,0,0],"sum_hessian":[6.1550703E3,2.9797207E3,3.1753494E3,2.4168708E3,5.628498E2,1.7007937E3,1.4745557E3],"tree_param":{"num_deleted":"0","num_feature":"106","num_nodes":"7","size_leaf_vector":"0"}},{"base_weights":[-9.260474E-2,-1.6885787E-1,1.7230006E-1,-3.1452592E-2,-2.8749898E-1,2.2119813E-1,-1.228295E-1],"categories":[],"categories_nodes":[],"categories_segments":[],"categories_sizes":[],"default_left":[1,1,1,0,0,0,0],"id":100,"left_children":[1,3,5,-1,-1,-1,-1],"loss_changes":[1.24330795E2,7.7892914E1,1.9883198E1,0E0,0E0,0E0,0E0],"parents":[2147483647,0,0,1,1,2,2],"right_children":[2,4,6,-1,-1,-1,-1],"split_conditions":[2.35E1,1.15E1,2.55E1,-3.145259E-4,-2.8749898E-3,2.2119812E-3,-1.2282949E-3],"split_indices":[51,80,81,0,0,0,0],"split_type":[0,0,0,0,0,0,0],"sum_hessian":[6.152605E3,4.777701E3,1.3749038E3,2.2143716E3,2.5633296E3,1.179698E3,1.9520584E2],"tree_param":{"num_deleted":"0","num_feature":"106","num_nodes":"7","size_leaf_vector":"0"}},{"base_weights":[9.2604734E-2,1.6885786E-1,-1.7230006E-1,3.145259E-2,2.8749895E-1,-2.211981E-1,1.2282942E-1],"categories":[],"categories_nodes":[],"categories_segments":[],"categories_sizes":[],"default_left":[1,1,1,0,0,0,0],"id":101,"left_children":[1,3,5,-1,-1,-1,-1],"loss_changes":[1.2433078E2,7.789293E1,1.9883186E1,0E0,0E0,0E0,0E0],"parents":[2147483647,0,0,1,1,2,2],"right_children":[2,4,6,-1,-1,-1,-1],"split_conditions":[2.35E1,1.15E1,2.55E1,3.1452588E-4,2.8749895E-3,-2.211981E-3,1.2282942E-3],"split_indices":[51,80,81,0,0,0,0],"split_type":[0,0,0,0,0,0,0],"sum_hessian":[6.152605E3,4.777701E3,1.3749038E3,2.2143716E3,2.5633296E3,1.179698E3,1.9520584E2],"tree_param":{"num_deleted":"0","num_feature":"106","num_nodes":"7","size_leaf_vector":"0"}},{"base_weights":[-9.171541E-2,-2.9668334E-1,5.600559E-3,-3.5469308E-1,-2.690339E-2,-1.9590522E-1,9.8964415E-2],"categories":[],"categories_nodes":[],"categories_segments":[],"categories_sizes":[],"default_left":[1,1,1,0,0,0,0],"id":102,"left_children":[1,3,5,-1,-1,-1,-1],"loss_changes":[1.2269739E2,3.098198E1,7.850657E1,0E0,0E0,0E0,0E0],"parents":[2147483647,0,0,1,1,2,2],"right_children":[2,4,6,-1,-1,-1,-1],"split_conditions":[9.5E0,5.3500004E0,-1.95E0,-3.5469308E-3,-2.6903392E-4,-1.9590522E-3,9.896441E-4],"split_indices":[51,77,77,0,0,0,0],"split_type":[0,0,0,0,0,0,0],"sum_hessian":[6.150193E3,1.9793069E3,4.170886E3,1.6287651E3,3.505417E2,1.3202698E3,2.8506165E3],"tree_param":{"num_deleted":"0","num_feature":"106","num_nodes":"7","size_leaf_vector":"0"}},{"base_weights":[9.1715395E-2,2.9668334E-1,-5.6005684E-3,3.5469306E-1,2.6903389E-2,1.9590521E-1,-9.896442E-2],"categories":[],"categories_nodes":[],"categories_segments":[],"categories_sizes":[],"default_left":[1,1,1,0,0,0,0],"id":103,"left_children":[1,3,5,-1,-1,-1,-1],"loss_changes":[1.2269737E2,3.0981964E1,7.850657E1,0E0,0E0,0E0,0E0],"parents":[2147483647,0,0,1,1,2,2],"right_children":[2,4,6,-1,-1,-1,-1],"split_conditions":[9.5E0,5.3500004E0,-1.95E0,3.5469304E-3,2.690339E-4,1.959052E-3,-9.896442E-4],"split_indices":[51,77,77,0,0,0,0],"split_type":[0,0,0,0,0,0,0],"sum_hessian":[6.150193E3,1.9793069E3,4.170886E3,1.6287651E3,3.505417E2,1.3202698E3,2.8506165E3],"tree_param":{"num_deleted":"0","num_feature":"106","num_nodes":"7","size_leaf_vector":"0"}},{"base_weights":[-9.083412E-2,-1.8360914E-1,1.2215739E-1,-1.0293783E-1,-3.9165524E-1,5.342718E-3,2.5127974E-1],"categories":[],"categories_nodes":[],"categories_segments":[],"categories_sizes":[],"default_left":[1,1,1,0,0,0,0],"id":104,"left_children":[1,3,5,-1,-1,-1,-1],"loss_changes":[1.2152563E2,7.185254E1,2.8148375E1,0E0,0E0,0E0,0E0],"parents":[2147483647,0,0,1,1,2,2],"right_children":[2,4,6,-1,-1,-1,-1],"split_conditions":[1.95E1,1.95E1,5.135E-1,-1.0293783E-3,-3.9165523E-3,5.3427182E-5,2.5127972E-3],"split_indices":[28,80,55,0,0,0,0],"split_type":[0,0,0,0,0,0,0],"sum_hessian":[6.147856E3,4.2825825E3,1.8652732E3,3.0870518E3,1.1955309E3,9.798562E2,8.85417E2],"tree_param":{"num_deleted":"0","num_feature":"106","num_nodes":"7","size_leaf_vector":"0"}},{"base_weights":[9.083411E-2,1.8360914E-1,-1.221574E-1,1.0293783E-1,3.9165524E-1,-5.3427177E-3,-2.5127977E-1],"categories":[],"categories_nodes":[],"categories_segments":[],"categories_sizes":[],"default_left":[1,1,1,0,0,0,0],"id":105,"left_children":[1,3,5,-1,-1,-1,-1],"loss_changes":[1.2152565E2,7.185257E1,2.8148382E1,0E0,0E0,0E0,0E0],"parents":[2147483647,0,0,1,1,2,2],"right_children":[2,4,6,-1,-1,-1,-1],"split_conditions":[1.95E1,1.95E1,5.135E-1,1.0293783E-3,3.9165523E-3,-5.3427175E-5,-2.5127977E-3],"split_indices":[28,80,55,0,0,0,0],"split_type":[0,0,0,0,0,0,0],"sum_hessian":[6.147856E3,4.2825825E3,1.8652731E3,3.0870518E3,1.1955309E3,9.798562E2,8.8541693E2],"tree_param":{"num_deleted":"0","num_feature":"106","num_nodes":"7","size_leaf_vector":"0"}},{"base_weights":[-8.996381E-2,-2.9236564E-1,6.0387203E-3,-3.4982094E-1,-2.5611099E-2,-1.9240156E-1,9.7915195E-2],"categories":[],"categories_nodes":[],"categories_segments":[],"categories_sizes":[],"default_left":[1,1,1,0,0,0,0],"id":106,"left_children":[1,3,5,-1,-1,-1,-1],"loss_changes":[1.1943134E2,3.029776E1,7.604452E1,0E0,0E0,0E0,0E0],"parents":[2147483647,0,0,1,1,2,2],"right_children":[2,4,6,-1,-1,-1,-1],"split_conditions":[9.5E0,5.3500004E0,-1.95E0,-3.4982094E-3,-2.5611097E-4,-1.9240156E-3,9.791519E-4],"split_indices":[51,77,77,0,0,0,0],"split_type":[0,0,0,0,0,0,0],"sum_hessian":[6.1453154E3,1.9764103E3,4.168905E3,1.6259017E3,3.5050858E2,1.3189861E3,2.849919E3],"tree_param":{"num_deleted":"0","num_feature":"106","num_nodes":"7","size_leaf_vector":"0"}},{"base_weights":[8.996381E-2,2.9236564E-1,-6.03872E-3,3.4982094E-1,2.56111E-2,1.9240154E-1,-9.791519E-2],"categories":[],"categories_nodes":[],"categories_segments":[],"categories_sizes":[],"default_left":[1,1,1,0,0,0,0],"id":107,"left_children":[1,3,5,-1,-1,-1,-1],"loss_changes":[1.1943134E2,3.0297745E1,7.604451E1,0E0,0E0,0E0,0E0],"parents":[2147483647,0,0,1,1,2,2],"right_children":[2,4,6,-1,-1,-1,-1],"split_conditions":[9.5E0,5.3500004E0,-1.95E0,3.4982094E-3,2.56111E-4,1.9240153E-3,-9.791518E-4],"split_indices":[51,77,77,0,0,0,0],"split_type":[0,0,0,0,0,0,0],"sum_hessian":[6.1453154E3,1.9764103E3,4.168905E3,1.6259017E3,3.5050858E2,1.3189861E3,2.849919E3],"tree_param":{"num_deleted":"0","num_feature":"106","num_nodes":"7","size_leaf_vector":"0"}},{"base_weights":[-8.910008E-2,-1.6364868E-1,1.6963176E-1,-2.9550707E-2,-2.7969795E-1,2.1722995E-1,-1.1762589E-1],"categories":[],"categories_nodes":[],"categories_segments":[],"categories_sizes":[],"default_left":[1,1,1,0,0,0,0],"id":108,"left_children":[1,3,5,-1,-1,-1,-1],"loss_changes":[1.1853253E2,7.42248E1,1.8822762E1,0E0,0E0,0E0,0E0],"parents":[2147483647,0,0,1,1,2,2],"right_children":[2,4,6,-1,-1,-1,-1],"split_conditions":[2.35E1,1.15E1,2.55E1,-2.9550705E-4,-2.7969794E-3,2.1722994E-3,-1.1762589E-3],"split_indices":[51,80,81,0,0,0,0],"split_type":[0,0,0,0,0,0,0],"sum_hessian":[6.142932E3,4.769158E3,1.3737737E3,2.2131082E3,2.55605E3,1.1787073E3,1.9506635E2],"tree_param":{"num_deleted":"0","num_feature":"106","num_nodes":"7","size_leaf_vector":"0"}},{"base_weights":[8.910009E-2,1.636487E-1,-1.6963176E-1,2.955072E-2,2.7969795E-1,-2.1722995E-1,1.1762587E-1],"categories":[],"categories_nodes":[],"categories_segments":[],"categories_sizes":[],"default_left":[1,1,1,0,0,0,0],"id":109,"left_children":[1,3,5,-1,-1,-1,-1],"loss_changes":[1.1853253E2,7.422481E1,1.8822746E1,0E0,0E0,0E0,0E0],"parents":[2147483647,0,0,1,1,2,2],"right_children":[2,4,6,-1,-1,-1,-1],"split_conditions":[2.35E1,1.15E1,2.55E1,2.955072E-4,2.7969794E-3,-2.1722994E-3,1.1762587E-3],"split_indices":[51,80,81,0,0,0,0],"split_type":[0,0,0,0,0,0,0],"sum_hessian":[6.142932E3,4.769158E3,1.3737737E3,2.2131082E3,2.55605E3,1.1787074E3,1.9506635E2],"tree_param":{"num_deleted":"0","num_feature":"106","num_nodes":"7","size_leaf_vector":"0"}},{"base_weights":[-8.8245496E-2,7.967599E-2,-2.0135914E-1,-1.7467128E-2,2.2739092E-1,-3.986862E-1,-1.2037291E-1],"categories":[],"categories_nodes":[],"categories_segments":[],"categories_sizes":[],"default_left":[1,1,1,0,0,0,0],"id":110,"left_children":[1,3,5,-1,-1,-1,-1],"loss_changes":[1.1666797E2,3.5484283E1,5.859929E1,0E0,0E0,0E0,0E0],"parents":[2147483647,0,0,1,1,2,2],"right_children":[2,4,6,-1,-1,-1,-1],"split_conditions":[4.7149998E-1,5.535E-1,-1.95E0,-1.7467128E-4,2.273909E-3,-3.986862E-3,-1.2037291E-3],"split_indices":[3,55,77,0,0,0,0],"split_type":[0,0,0,0,0,0,0],"sum_hessian":[6.1404478E3,2.4715837E3,3.668864E3,1.4915583E3,9.800254E2,1.0664592E3,2.6024048E3],"tree_param":{"num_deleted":"0","num_feature":"106","num_nodes":"7","size_leaf_vector":"0"}},{"base_weights":[8.82455E-2,-7.967597E-2,2.0135914E-1,1.7467136E-2,-2.2739089E-1,3.986862E-1,1.2037291E-1],"categories":[],"categories_nodes":[],"categories_segments":[],"categories_sizes":[],"default_left":[1,1,1,0,0,0,0],"id":111,"left_children":[1,3,5,-1,-1,-1,-1],"loss_changes":[1.1666797E2,3.5484276E1,5.859929E1,0E0,0E0,0E0,0E0],"parents":[2147483647,0,0,1,1,2,2],"right_children":[2,4,6,-1,-1,-1,-1],"split_conditions":[4.7149998E-1,5.535E-1,-1.95E0,1.7467135E-4,-2.2739088E-3,3.986862E-3,1.2037291E-3],"split_indices":[3,55,77,0,0,0,0],"split_type":[0,0,0,0,0,0,0],"sum_hessian":[6.1404478E3,2.4715837E3,3.668864E3,1.4915583E3,9.800254E2,1.0664592E3,2.6024048E3],"tree_param":{"num_deleted":"0","num_feature":"106","num_nodes":"7","size_leaf_vector":"0"}},{"base_weights":[-8.740117E-2,-2.8652894E-1,6.9228383E-3,-3.4324092E-1,-2.3862703E-2,-1.8749529E-1,9.684032E-2],"categories":[],"categories_nodes":[],"categories_segments":[],"categories_sizes":[],"default_left":[1,1,1,0,0,0,0],"id":112,"left_children":[1,3,5,-1,-1,-1,-1],"loss_changes":[1.1530493E2,2.938565E1,7.28572E1,0E0,0E0,0E0,0E0],"parents":[2147483647,0,0,1,1,2,2],"right_children":[2,4,6,-1,-1,-1,-1],"split_conditions":[9.5E0,5.3500004E0,-1.95E0,-3.4324091E-3,-2.3862702E-4,-1.8749529E-3,9.684032E-4],"split_indices":[51,77,77,0,0,0,0],"split_type":[0,0,0,0,0,0,0],"sum_hessian":[6.1378413E3,1.9722272E3,4.165614E3,1.6217666E3,3.5046063E2,1.3169788E3,2.8486353E3],"tree_param":{"num_deleted":"0","num_feature":"106","num_nodes":"7","size_leaf_vector":"0"}},{"base_weights":[8.740116E-2,2.8652892E-1,-6.922845E-3,3.4324092E-1,2.3862703E-2,1.8749528E-1,-9.684033E-2],"categories":[],"categories_nodes":[],"categories_segments":[],"categories_sizes":[],"default_left":[1,1,1,0,0,0,0],"id":113,"left_children":[1,3,5,-1,-1,-1,-1],"loss_changes":[1.1530495E2,2.938565E1,7.2857185E1,0E0,0E0,0E0,0E0],"parents":[2147483647,0,0,1,1,2,2],"right_children":[2,4,6,-1,-1,-1,-1],"split_conditions":[9.5E0,5.3500004E0,-1.95E0,3.4324091E-3,2.3862702E-4,1.8749527E-3,-9.684033E-4],"split_indices":[51,77,77,0,0,0,0],"split_type":[0,0,0,0,0,0,0],"sum_hessian":[6.1378413E3,1.9722273E3,4.165614E3,1.6217666E3,3.5046063E2,1.3169788E3,2.8486353E3],"tree_param":{"num_deleted":"0","num_feature":"106","num_nodes":"7","size_leaf_vector":"0"}},{"base_weights":[-8.65629E-2,2.0605539E-1,-1.5036942E-1,-5.753847E-1,2.2356614E-1,-3.562655E-1,-7.263314E-2],"categories":[],"categories_nodes":[],"categories_segments":[],"categories_sizes":[],"default_left":[1,1,1,0,0,0,0],"id":114,"left_children":[1,3,5,-1,-1,-1,-1],"loss_changes":[1.1460345E2,1.5166225E1,8.0617546E1,0E0,0E0,0E0,0E0],"parents":[2147483647,0,0,1,1,2,2],"right_children":[2,4,6,-1,-1,-1,-1],"split_conditions":[-4.6499996E0,8.5E0,-2.35E0,-5.753847E-3,2.2356615E-3,-3.5626548E-3,-7.263314E-4],"split_indices":[25,33,77,0,0,0,0],"split_type":[0,0,0,0,0,0,0],"sum_hessian":[6.1354014E3,1.0979492E3,5.037452E3,2.3365705E1,1.0745835E3,1.3796532E3,3.6577988E3],"tree_param":{"num_deleted":"0","num_feature":"106","num_nodes":"7","size_leaf_vector":"0"}},{"base_weights":[8.656288E-2,-2.0605539E-1,1.5036939E-1,5.753846E-1,-2.2356614E-1,3.5626546E-1,7.263311E-2],"categories":[],"categories_nodes":[],"categories_segments":[],"categories_sizes":[],"default_left":[1,1,1,0,0,0,0],"id":115,"left_children":[1,3,5,-1,-1,-1,-1],"loss_changes":[1.14603424E2,1.5166225E1,8.0617546E1,0E0,0E0,0E0,0E0],"parents":[2147483647,0,0,1,1,2,2],"right_children":[2,4,6,-1,-1,-1,-1],"split_conditions":[-4.6499996E0,8.5E0,-2.35E0,5.753846E-3,-2.2356615E-3,3.5626544E-3,7.263311E-4],"split_indices":[25,33,77,0,0,0,0],"split_type":[0,0,0,0,0,0,0],"sum_hessian":[6.1354014E3,1.0979492E3,5.037452E3,2.3365705E1,1.0745835E3,1.3796532E3,3.6577988E3],"tree_param":{"num_deleted":"0","num_feature":"106","num_nodes":"7","size_leaf_vector":"0"}},{"base_weights":[-8.57298E-2,3.782453E-2,-2.3433709E-1,-1.5488185E-1,1.15420595E-1,-2.9958853E-1,5.2991226E-2],"categories":[],"categories_nodes":[],"categories_segments":[],"categories_sizes":[],"default_left":[1,1,1,0,0,0,0],"id":116,"left_children":[1,3,5,-1,-1,-1,-1],"loss_changes":[1.1263928E2,5.011563E1,5.2228912E1,0E0,0E0,0E0,0E0],"parents":[2147483647,0,0,1,1,2,2],"right_children":[2,4,6,-1,-1,-1,-1],"split_conditions":[5.295E-1,-2.45E0,5.25E0,-1.5488184E-3,1.1542059E-3,-2.9958852E-3,5.2991224E-4],"split_indices":[3,77,77,0,0,0,0],"split_type":[0,0,0,0,0,0,0],"sum_hessian":[6.1331953E3,3.3492905E3,2.7839048E3,9.611991E2,2.3880913E3,2.2686565E3,5.1524817E2],"tree_param":{"num_deleted":"0","num_feature":"106","num_nodes":"7","size_leaf_vector":"0"}},{"base_weights":[8.57298E-2,-3.782454E-2,2.3433712E-1,1.5488185E-1,-1.1542061E-1,2.9958856E-1,-5.2991174E-2],"categories":[],"categories_nodes":[],"categories_segments":[],"categories_sizes":[],"default_left":[1,1,1,0,0,0,0],"id":117,"left_children":[1,3,5,-1,-1,-1,-1],"loss_changes":[1.126393E2,5.011563E1,5.2228897E1,0E0,0E0,0E0,0E0],"parents":[2147483647,0,0,1,1,2,2],"right_children":[2,4,6,-1,-1,-1,-1],"split_conditions":[5.295E-1,-2.45E0,5.25E0,1.5488184E-3,-1.1542061E-3,2.9958854E-3,-5.299117E-4],"split_indices":[3,77,77,0,0,0,0],"split_type":[0,0,0,0,0,0,0],"sum_hessian":[6.1331953E3,3.3492905E3,2.7839048E3,9.611991E2,2.3880913E3,2.2686567E3,5.1524817E2],"tree_param":{"num_deleted":"0","num_feature":"106","num_nodes":"7","size_leaf_vector":"0"}},{"base_weights":[-8.49097E-2,2.0372207E-1,-1.4787622E-1,-5.7004803E-1,2.210694E-1,-3.5115167E-1,-7.125196E-2],"categories":[],"categories_nodes":[],"categories_segments":[],"categories_sizes":[],"default_left":[1,1,1,0,0,0,0],"id":118,"left_children":[1,3,5,-1,-1,-1,-1],"loss_changes":[1.1146631E2,1.4871071E1,7.838492E1,0E0,0E0,0E0,0E0],"parents":[2147483647,0,0,1,1,2,2],"right_children":[2,4,6,-1,-1,-1,-1],"split_conditions":[-4.6499996E0,8.5E0,-2.35E0,-5.70048E-3,2.210694E-3,-3.5115166E-3,-7.1251957E-4],"split_indices":[25,33,77,0,0,0,0],"split_type":[0,0,0,0,0,0,0],"sum_hessian":[6.1305806E3,1.097504E3,5.0330767E3,2.3367027E1,1.074137E3,1.3768545E3,3.656222E3],"tree_param":{"num_deleted":"0","num_feature":"106","num_nodes":"7","size_leaf_vector":"0"}},{"base_weights":[8.49097E-2,-2.0372204E-1,1.478762E-1,5.7004803E-1,-2.2106938E-1,3.5115167E-1,7.125196E-2],"categories":[],"categories_nodes":[],"categories_segments":[],"categories_sizes":[],"default_left":[1,1,1,0,0,0,0],"id":119,"left_children":[1,3,5,-1,-1,-1,-1],"loss_changes":[1.11466286E2,1.4871071E1,7.838492E1,0E0,0E0,0E0,0E0],"parents":[2147483647,0,0,1,1,2,2],"right_children":[2,4,6,-1,-1,-1,-1],"split_conditions":[-4.6499996E0,8.5E0,-2.35E0,5.70048E-3,-2.2106937E-3,3.5115166E-3,7.1251957E-4],"split_indices":[25,33,77,0,0,0,0],"split_type":[0,0,0,0,0,0,0],"sum_hessian":[6.1305806E3,1.097504E3,5.0330767E3,2.3367027E1,1.074137E3,1.3768545E3,3.656222E3],"tree_param":{"num_deleted":"0","num_feature":"106","num_nodes":"7","size_leaf_vector":"0"}},{"base_weights":[-8.40931E-2,-2.7934217E-1,8.230726E-3,-3.3492345E-1,-2.2744467E-2,1.1193626E-1,-1.5168451E-1],"categories":[],"categories_nodes":[],"categories_segments":[],"categories_sizes":[],"default_left":[1,1,1,0,0,0,0],"id":120,"left_children":[1,3,5,-1,-1,-1,-1],"loss_changes":[1.1049057E2,2.8057495E1,6.904852E1,0E0,0E0,0E0,0E0],"parents":[2147483647,0,0,1,1,2,2],"right_children":[2,4,6,-1,-1,-1,-1],"split_conditions":[9.5E0,5.3500004E0,1.65E1,-3.3492344E-3,-2.2744467E-4,1.1193625E-3,-1.5168451E-3],"split_indices":[51,77,80,0,0,0,0],"split_type":[0,0,0,0,0,0,0],"sum_hessian":[6.1283364E3,1.966821E3,4.161515E3,1.6163915E3,3.504295E2,2.5246025E3,1.6369127E3],"tree_param":{"num_deleted":"0","num_feature":"106","num_nodes":"7","size_leaf_vector":"0"}},{"base_weights":[8.4093094E-2,2.7934214E-1,-8.230722E-3,3.3492342E-1,2.2744384E-2,-1.1193626E-1,1.5168451E-1],"categories":[],"categories_nodes":[],"categories_segments":[],"categories_sizes":[],"default_left":[1,1,1,0,0,0,0],"id":121,"left_children":[1,3,5,-1,-1,-1,-1],"loss_changes":[1.10490555E2,2.8057495E1,6.904853E1,0E0,0E0,0E0,0E0],"parents":[2147483647,0,0,1,1,2,2],"right_children":[2,4,6,-1,-1,-1,-1],"split_conditions":[9.5E0,5.3500004E0,1.65E1,3.3492341E-3,2.2744383E-4,-1.1193625E-3,1.5168451E-3],"split_indices":[51,77,80,0,0,0,0],"split_type":[0,0,0,0,0,0,0],"sum_hessian":[6.1283364E3,1.966821E3,4.161515E3,1.6163916E3,3.504295E2,2.5246025E3,1.6369127E3],"tree_param":{"num_deleted":"0","num_feature":"106","num_nodes":"7","size_leaf_vector":"0"}},{"base_weights":[-8.328688E-2,-1.7142726E-1,1.18503734E-1,-9.469243E-2,-3.7073407E-1,1.6855091E-1,-1.5303878E-1],"categories":[],"categories_nodes":[],"categories_segments":[],"categories_sizes":[],"default_left":[1,1,1,0,0,0,0],"id":122,"left_children":[1,3,5,-1,-1,-1,-1],"loss_changes":[1.08992256E2,6.5187965E1,2.5346405E1,0E0,0E0,0E0,0E0],"parents":[2147483647,0,0,1,1,2,2],"right_children":[2,4,6,-1,-1,-1,-1],"split_conditions":[1.95E1,1.95E1,2.55E1,-9.4692427E-4,-3.7073407E-3,1.685509E-3,-1.5303878E-3],"split_indices":[28,80,103,0,0,0,0],"split_type":[0,0,0,0,0,0,0],"sum_hessian":[6.125871E3,4.263682E3,1.8621887E3,3.0795168E3,1.1841654E3,1.5727072E3,2.8948154E2],"tree_param":{"num_deleted":"0","num_feature":"106","num_nodes":"7","size_leaf_vector":"0"}},{"base_weights":[8.328688E-2,1.7142726E-1,-1.18503734E-1,9.4692424E-2,3.7073407E-1,-1.685509E-1,1.5303877E-1],"categories":[],"categories_nodes":[],"categories_segments":[],"categories_sizes":[],"default_left":[1,1,1,0,0,0,0],"id":123,"left_children":[1,3,5,-1,-1,-1,-1],"loss_changes":[1.0899225E2,6.518799E1,2.5346405E1,0E0,0E0,0E0,0E0],"parents":[2147483647,0,0,1,1,2,2],"right_children":[2,4,6,-1,-1,-1,-1],"split_conditions":[1.95E1,1.95E1,2.55E1,9.469242E-4,3.7073407E-3,-1.6855089E-3,1.5303877E-3],"split_indices":[28,80,103,0,0,0,0],"split_type":[0,0,0,0,0,0,0],"sum_hessian":[6.125871E3,4.263682E3,1.8621887E3,3.0795168E3,1.1841654E3,1.5727072E3,2.8948154E2],"tree_param":{"num_deleted":"0","num_feature":"106","num_nodes":"7","size_leaf_vector":"0"}},{"base_weights":[-8.249094E-2,-2.7532187E-1,8.590908E-3,-3.303847E-1,-2.1575492E-2,-1.6485946E-1,1.0142452E-1],"categories":[],"categories_nodes":[],"categories_segments":[],"categories_sizes":[],"default_left":[1,1,1,0,0,0,0],"id":124,"left_children":[1,3,5,-1,-1,-1,-1],"loss_changes":[1.0756448E2,2.7444168E1,6.7008934E1,0E0,0E0,0E0,0E0],"parents":[2147483647,0,0,1,1,2,2],"right_children":[2,4,6,-1,-1,-1,-1],"split_conditions":[9.5E0,5.3500004E0,-1.45E0,-3.303847E-3,-2.1575492E-4,-1.6485945E-3,1.0142452E-3],"split_indices":[51,77,77,0,0,0,0],"split_type":[0,0,0,0,0,0,0],"sum_hessian":[6.123221E3,1.9637373E3,4.159484E3,1.6133411E3,3.503962E2,1.4498353E3,2.709649E3],"tree_param":{"num_deleted":"0","num_feature":"106","num_nodes":"7","size_leaf_vector":"0"}},{"base_weights":[8.2490936E-2,2.7532184E-1,-8.590913E-3,3.303847E-1,2.1575378E-2,1.6485946E-1,-1.0142453E-1],"categories":[],"categories_nodes":[],"categories_segments":[],"categories_sizes":[],"default_left":[1,1,1,0,0,0,0],"id":125,"left_children":[1,3,5,-1,-1,-1,-1],"loss_changes":[1.07564476E2,2.7444199E1,6.700894E1,0E0,0E0,0E0,0E0],"parents":[2147483647,0,0,1,1,2,2],"right_children":[2,4,6,-1,-1,-1,-1],"split_conditions":[9.5E0,5.3500004E0,-1.45E0,3.303847E-3,2.1575378E-4,1.6485945E-3,-1.0142453E-3],"split_indices":[51,77,77,0,0,0,0],"split_type":[0,0,0,0,0,0,0],"sum_hessian":[6.123221E3,1.9637373E3,4.1594844E3,1.6133411E3,3.503962E2,1.4498353E3,2.709649E3],"tree_param":{"num_deleted":"0","num_feature":"106","num_nodes":"7","size_leaf_vector":"0"}},{"base_weights":[-8.170097E-2,2.0069143E-1,-1.4336942E-1,-5.6517863E-1,2.1787174E-1,-3.4206745E-1,-6.869367E-2],"categories":[],"categories_nodes":[],"categories_segments":[],"categories_sizes":[],"default_left":[1,1,1,0,0,0,0],"id":126,"left_children":[1,3,5,-1,-1,-1,-1],"loss_changes":[1.0663626E2,1.4565903E1,7.453773E1,0E0,0E0,0E0,0E0],"parents":[2147483647,0,0,1,1,2,2],"right_children":[2,4,6,-1,-1,-1,-1],"split_conditions":[-4.6499996E0,8.5E0,-2.35E0,-5.651786E-3,2.1787174E-3,-3.4206745E-3,-6.8693666E-4],"split_indices":[25,33,77,0,0,0,0],"split_type":[0,0,0,0,0,0,0],"sum_hessian":[6.120695E3,1.0966511E3,5.024044E3,2.3360958E1,1.0732902E3,1.3714075E3,3.6526365E3],"tree_param":{"num_deleted":"0","num_feature":"106","num_nodes":"7","size_leaf_vector":"0"}},{"base_weights":[8.170098E-2,-2.0069145E-1,1.4336944E-1,5.6517863E-1,-2.1787176E-1,3.4206748E-1,6.869369E-2],"categories":[],"categories_nodes":[],"categories_segments":[],"categories_sizes":[],"default_left":[1,1,1,0,0,0,0],"id":127,"left_children":[1,3,5,-1,-1,-1,-1],"loss_changes":[1.0663629E2,1.4565903E1,7.453771E1,0E0,0E0,0E0,0E0],"parents":[2147483647,0,0,1,1,2,2],"right_children":[2,4,6,-1,-1,-1,-1],"split_conditions":[-4.6499996E0,8.5E0,-2.35E0,5.651786E-3,-2.1787174E-3,3.4206747E-3,6.869369E-4],"split_indices":[25,33,77,0,0,0,0],"split_type":[0,0,0,0,0,0,0],"sum_hessian":[6.120695E3,1.0966511E3,5.024044E3,2.3360958E1,1.0732902E3,1.3714075E3,3.6526365E3],"tree_param":{"num_deleted":"0","num_feature":"106","num_nodes":"7","size_leaf_vector":"0"}},{"base_weights":[-8.0916055E-2,-2.1664216E-1,4.5709245E-2,-1.5978801E-1,-4.6356022E-1,-6.7317985E-2,1.7587613E-1],"categories":[],"categories_nodes":[],"categories_segments":[],