{"learner":{"attributes":{"best_iteration":"499","best_ntree_limit":"500"},"feature_names":[],"feature_types":[],"gradient_booster":{"model":{"gbtree_model_param":{"num_parallel_tree":"1","num_trees":"1000","size_leaf_vector":"0"},"tree_info":[0,1,0,1,0,1,0,1,0,1,0,1,0,1,0,1,0,1,0,1,0,1,0,1,0,1,0,1,0,1,0,1,0,1,0,1,0,1,0,1,0,1,0,1,0,1,0,1,0,1,0,1,0,1,0,1,0,1,0,1,0,1,0,1,0,1,0,1,0,1,0,1,0,1,0,1,0,1,0,1,0,1,0,1,0,1,0,1,0,1,0,1,0,1,0,1,0,1,0,1,0,1,0,1,0,1,0,1,0,1,0,1,0,1,0,1,0,1,0,1,0,1,0,1,0,1,0,1,0,1,0,1,0,1,0,1,0,1,0,1,0,1,0,1,0,1,0,1,0,1,0,1,0,1,0,1,0,1,0,1,0,1,0,1,0,1,0,1,0,1,0,1,0,1,0,1,0,1,0,1,0,1,0,1,0,1,0,1,0,1,0,1,0,1,0,1,0,1,0,1,0,1,0,1,0,1,0,1,0,1,0,1,0,1,0,1,0,1,0,1,0,1,0,1,0,1,0,1,0,1,0,1,0,1,0,1,0,1,0,1,0,1,0,1,0,1,0,1,0,1,0,1,0,1,0,1,0,1,0,1,0,1,0,1,0,1,0,1,0,1,0,1,0,1,0,1,0,1,0,1,0,1,0,1,0,1,0,1,0,1,0,1,0,1,0,1,0,1,0,1,0,1,0,1,0,1,0,1,0,1,0,1,0,1,0,1,0,1,0,1,0,1,0,1,0,1,0,1,0,1,0,1,0,1,0,1,0,1,0,1,0,1,0,1,0,1,0,1,0,1,0,1,0,1,0,1,0,1,0,1,0,1,0,1,0,1,0,1,0,1,0,1,0,1,0,1,0,1,0,1,0,1,0,1,0,1,0,1,0,1,0,1,0,1,0,1,0,1,0,1,0,1,0,1,0,1,0,1,0,1,0,1,0,1,0,1,0,1,0,1,0,1,0,1,0,1,0,1,0,1,0,1,0,1,0,1,0,1,0,1,0,1,0,1,0,1,0,1,0,1,0,1,0,1,0,1,0,1,0,1,0,1,0,1,0,1,0,1,0,1,0,1,0,1,0,1,0,1,0,1,0,1,0,1,0,1,0,1,0,1,0,1,0,1,0,1,0,1,0,1,0,1,0,1,0,1,0,1,0,1,0,1,0,1,0,1,0,1,0,1,0,1,0,1,0,1,0,1,0,1,0,1,0,1,0,1,0,1,0,1,0,1,0,1,0,1,0,1,0,1,0,1,0,1,0,1,0,1,0,1,0,1,0,1,0,1,0,1,0,1,0,1,0,1,0,1,0,1,0,1,0,1,0,1,0,1,0,1,0,1,0,1,0,1,0,1,0,1,0,1,0,1,0,1,0,1,0,1,0,1,0,1,0,1,0,1,0,1,0,1,0,1,0,1,0,1,0,1,0,1,0,1,0,1,0,1,0,1,0,1,0,1,0,1,0,1,0,1,0,1,0,1,0,1,0,1,0,1,0,1,0,1,0,1,0,1,0,1,0,1,0,1,0,1,0,1,0,1,0,1,0,1,0,1,0,1,0,1,0,1,0,1,0,1,0,1,0,1,0,1,0,1,0,1,0,1,0,1,0,1,0,1,0,1,0,1,0,1,0,1,0,1,0,1,0,1,0,1,0,1,0,1,0,1,0,1,0,1,0,1,0,1,0,1,0,1,0,1,0,1,0,1,0,1,0,1,0,1,0,1,0,1,0,1,0,1,0,1,0,1,0,1,0,1,0,1,0,1,0,1,0,1,0,1,0,1,0,1,0,1,0,1,0,1,0,1,0,1,0,1,0,1,0,1,0,1,0,1,0,1,0,1,0,1,0,1,0,1,0,1,0,1,0,1,0,1,0,1,0,1,0,1,0,1,0,1,0,1,0,1,0,1,0,1,0,1,0,1,0,1,0,1,0,1,0,1,0,1,0,1,0,1,0,1,0,1,0,1,0,1,0,1,0,1,0,1,0,1,0,1,0,1,0,1,0,1,0,1,0,1,0,1,0,1,0,1,0,1,0,1,0,1,0,1,0,1,0,1,0,1,0,1,0,1,0,1,0,1,0,1,0,1,0,1,0,1,0,1,0,1,0,1,0,1,0,1,0,1,0,1,0,1,0,1,0,1,0,1,0,1,0,1,0,1,0,1,0,1,0,1,0,1,0,1,0,1,0,1,0,1,0,1,0,1,0,1,0,1,0,1,0,1,0,1,0,1,0,1,0,1,0,1,0,1,0,1,0,1,0,1],"trees":[{"base_weights":[-1.4945848E-1,1.22724354E-1,-3.123878E-1,-1.3020134E-1,2.4111915E-1,-1.5784384E-1,-4.8675948E-1],"categories":[],"categories_nodes":[],"categories_segments":[],"categories_sizes":[],"default_left":[1,1,1,0,0,0,0],"id":0,"left_children":[1,3,5,-1,-1,-1,-1],"loss_changes":[2.7642828E2,6.99382E1,1.04993744E2,0E0,0E0,0E0,0E0],"parents":[2147483647,0,0,1,1,2,2],"right_children":[2,4,6,-1,-1,-1,-1],"split_conditions":[4.595E-1,-2.05E0,1.35E1,-1.3020134E-3,2.4111914E-3,-1.5784384E-3,-4.8675947E-3],"split_indices":[3,77,80,0,0,0,0],"split_type":[0,0,0,0,0,0,0],"sum_hessian":[6.2315E3,2.3335E3,3.898E3,7.44E2,1.5895E3,2.0675E3,1.8305E3],"tree_param":{"num_deleted":"0","num_feature":"106","num_nodes":"7","size_leaf_vector":"0"}},{"base_weights":[1.4945848E-1,-1.22724354E-1,3.123878E-1,1.3020134E-1,-2.4111915E-1,1.5784384E-1,4.8675948E-1],"categories":[],"categories_nodes":[],"categories_segments":[],"categories_sizes":[],"default_left":[1,1,1,0,0,0,0],"id":1,"left_children":[1,3,5,-1,-1,-1,-1],"loss_changes":[2.7642828E2,6.99382E1,1.04993744E2,0E0,0E0,0E0,0E0],"parents":[2147483647,0,0,1,1,2,2],"right_children":[2,4,6,-1,-1,-1,-1],"split_conditions":[4.595E-1,-2.05E0,1.35E1,1.3020134E-3,-2.4111914E-3,1.5784384E-3,4.8675947E-3],"split_indices":[3,77,80,0,0,0,0],"split_type":[0,0,0,0,0,0,0],"sum_hessian":[6.2315E3,2.3335E3,3.898E3,7.44E2,1.5895E3,2.0675E3,1.8305E3],"tree_param":{"num_deleted":"0","num_feature":"106","num_nodes":"7","size_leaf_vector":"0"}},{"base_weights":[-1.4796618E-1,1.5054625E-1,-2.9362497E-1,-8.941343E-2,2.8458607E-1,-1.8949376E-1,-5.507367E-1],"categories":[],"categories_nodes":[],"categories_segments":[],"categories_sizes":[],"default_left":[1,1,1,0,0,0,0],"id":2,"left_children":[1,3,5,-1,-1,-1,-1],"loss_changes":[2.7103668E2,6.578472E1,1.1204791E2,0E0,0E0,0E0,0E0],"parents":[2147483647,0,0,1,1,2,2],"right_children":[2,4,6,-1,-1,-1,-1],"split_conditions":[-1.6500001E0,-1.55E0,1.95E1,-8.941342E-4,2.8458606E-3,-1.8949376E-3,-5.507367E-3],"split_indices":[25,77,80,0,0,0,0],"split_type":[0,0,0,0,0,0,0],"sum_hessian":[6.231441E3,2.0434895E3,4.187951E3,7.324972E2,1.3109923E3,2.981977E3,1.2059744E3],"tree_param":{"num_deleted":"0","num_feature":"106","num_nodes":"7","size_leaf_vector":"0"}},{"base_weights":[1.4796615E-1,-1.5054633E-1,2.9362497E-1,8.94134E-2,-2.8458616E-1,1.8949376E-1,5.507367E-1],"categories":[],"categories_nodes":[],"categories_segments":[],"categories_sizes":[],"default_left":[1,1,1,0,0,0,0],"id":3,"left_children":[1,3,5,-1,-1,-1,-1],"loss_changes":[2.710368E2,6.5784744E1,1.1204794E2,0E0,0E0,0E0,0E0],"parents":[2147483647,0,0,1,1,2,2],"right_children":[2,4,6,-1,-1,-1,-1],"split_conditions":[-1.6500001E0,-1.55E0,1.95E1,8.9413393E-4,-2.8458615E-3,1.8949376E-3,5.507367E-3],"split_indices":[25,77,80,0,0,0,0],"split_type":[0,0,0,0,0,0,0],"sum_hessian":[6.231441E3,2.0434895E3,4.187951E3,7.324972E2,1.3109923E3,2.981977E3,1.2059744E3],"tree_param":{"num_deleted":"0","num_feature":"106","num_nodes":"7","size_leaf_vector":"0"}},{"base_weights":[-1.4649105E-1,1.209034E-1,-3.0655828E-1,-1.2724204E-1,2.3706134E-1,-1.5459757E-1,-4.780275E-1],"categories":[],"categories_nodes":[],"categories_segments":[],"categories_sizes":[],"default_left":[1,1,1,0,0,0,0],"id":4,"left_children":[1,3,5,-1,-1,-1,-1],"loss_changes":[2.6678564E2,6.7318726E1,1.01516266E2,0E0,0E0,0E0,0E0],"parents":[2147483647,0,0,1,1,2,2],"right_children":[2,4,6,-1,-1,-1,-1],"split_conditions":[4.595E-1,-2.05E0,1.35E1,-1.2724204E-3,2.3706134E-3,-1.5459756E-3,-4.780275E-3],"split_indices":[3,77,80,0,0,0,0],"split_type":[0,0,0,0,0,0,0],"sum_hessian":[6.231286E3,2.3334578E3,3.8978281E3,7.4399133E2,1.5894666E3,2.067476E3,1.830352E3],"tree_param":{"num_deleted":"0","num_feature":"106","num_nodes":"7","size_leaf_vector":"0"}},{"base_weights":[1.4649104E-1,-1.2090339E-1,3.0655822E-1,1.2724207E-1,-2.3706134E-1,1.5459757E-1,4.7802743E-1],"categories":[],"categories_nodes":[],"categories_segments":[],"categories_sizes":[],"default_left":[1,1,1,0,0,0,0],"id":5,"left_children":[1,3,5,-1,-1,-1,-1],"loss_changes":[2.6678558E2,6.7318726E1,1.01516235E2,0E0,0E0,0E0,0E0],"parents":[2147483647,0,0,1,1,2,2],"right_children":[2,4,6,-1,-1,-1,-1],"split_conditions":[4.595E-1,-2.05E0,1.35E1,1.2724207E-3,-2.3706134E-3,1.5459756E-3,4.7802744E-3],"split_indices":[3,77,80,0,0,0,0],"split_type":[0,0,0,0,0,0,0],"sum_hessian":[6.231286E3,2.3334578E3,3.8978281E3,7.4399133E2,1.5894666E3,2.067476E3,1.830352E3],"tree_param":{"num_deleted":"0","num_feature":"106","num_nodes":"7","size_leaf_vector":"0"}},{"base_weights":[-1.4503327E-1,-3.5401526E-1,5.6511365E-2,-2.5966746E-1,-5.9865737E-1,-1.8657555E-1,1.8936537E-1],"categories":[],"categories_nodes":[],"categories_segments":[],"categories_sizes":[],"default_left":[1,1,1,0,0,0,0],"id":6,"left_children":[1,3,5,-1,-1,-1,-1],"loss_changes":[2.625077E2,7.0466705E1,1.0251801E2,0E0,0E0,0E0,0E0],"parents":[2147483647,0,0,1,1,2,2],"right_children":[2,4,6,-1,-1,-1,-1],"split_conditions":[1.45E1,1.95E1,-1.45E0,-2.5966745E-3,-5.9865736E-3,-1.8657554E-3,1.8936537E-3],"split_indices":[51,80,77,0,0,0,0],"split_type":[0,0,0,0,0,0,0],"sum_hessian":[6.2310186E3,3.0586953E3,3.1723232E3,2.208886E3,8.4980945E2,1.1209265E3,2.0513967E3],"tree_param":{"num_deleted":"0","num_feature":"106","num_nodes":"7","size_leaf_vector":"0"}},{"base_weights":[1.4503326E-1,3.5401526E-1,-5.6511384E-2,2.5966746E-1,5.9865737E-1,1.8657549E-1,-1.8936537E-1],"categories":[],"categories_nodes":[],"categories_segments":[],"categories_sizes":[],"default_left":[1,1,1,0,0,0,0],"id":7,"left_children":[1,3,5,-1,-1,-1,-1],"loss_changes":[2.6250763E2,7.0466736E1,1.02517975E2,0E0,0E0,0E0,0E0],"parents":[2147483647,0,0,1,1,2,2],"right_children":[2,4,6,-1,-1,-1,-1],"split_conditions":[1.45E1,1.95E1,-1.45E0,2.5966745E-3,5.9865736E-3,1.8657548E-3,-1.8936537E-3],"split_indices":[51,80,77,0,0,0,0],"split_type":[0,0,0,0,0,0,0],"sum_hessian":[6.2310186E3,3.0586953E3,3.172323E3,2.208886E3,8.4980945E2,1.1209264E3,2.0513967E3],"tree_param":{"num_deleted":"0","num_feature":"106","num_nodes":"7","size_leaf_vector":"0"}},{"base_weights":[-1.4359197E-1,1.4771326E-1,-2.857468E-1,-8.543974E-2,2.7795553E-1,-1.8420754E-1,-5.365297E-1],"categories":[],"categories_nodes":[],"categories_segments":[],"categories_sizes":[],"default_left":[1,1,1,0,0,0,0],"id":8,"left_children":[1,3,5,-1,-1,-1,-1],"loss_changes":[2.5809927E2,6.2103714E1,1.06553955E2,0E0,0E0,0E0,0E0],"parents":[2147483647,0,0,1,1,2,2],"right_children":[2,4,6,-1,-1,-1,-1],"split_conditions":[-1.6500001E0,-1.55E0,1.95E1,-8.543974E-4,2.7795553E-3,-1.8420754E-3,-5.365297E-3],"split_indices":[25,77,80,0,0,0,0],"split_type":[0,0,0,0,0,0,0],"sum_hessian":[6.23069E3,2.0433652E3,4.1873247E3,7.324734E2,1.3108918E3,2.981772E3,1.2055526E3],"tree_param":{"num_deleted":"0","num_feature":"106","num_nodes":"7","size_leaf_vector":"0"}},{"base_weights":[1.4359197E-1,-1.4771326E-1,2.857468E-1,8.543974E-2,-2.7795553E-1,1.8420756E-1,5.365297E-1],"categories":[],"categories_nodes":[],"categories_segments":[],"categories_sizes":[],"default_left":[1,1,1,0,0,0,0],"id":9,"left_children":[1,3,5,-1,-1,-1,-1],"loss_changes":[2.580993E2,6.2103714E1,1.06554016E2,0E0,0E0,0E0,0E0],"parents":[2147483647,0,0,1,1,2,2],"right_children":[2,4,6,-1,-1,-1,-1],"split_conditions":[-1.6500001E0,-1.55E0,1.95E1,8.543974E-4,-2.7795553E-3,1.8420755E-3,5.365297E-3],"split_indices":[25,77,80,0,0,0,0],"split_type":[0,0,0,0,0,0,0],"sum_hessian":[6.23069E3,2.0433652E3,4.1873247E3,7.324734E2,1.3108918E3,2.981772E3,1.2055526E3],"tree_param":{"num_deleted":"0","num_feature":"106","num_nodes":"7","size_leaf_vector":"0"}},{"base_weights":[-1.4216723E-1,1.1875606E-1,-2.9838172E-1,-1.2239102E-1,2.3164076E-1,-9.465178E-2,-4.2126986E-1],"categories":[],"categories_nodes":[],"categories_segments":[],"categories_sizes":[],"default_left":[1,1,1,0,0,0,0],"id":10,"left_children":[1,3,5,-1,-1,-1,-1],"loss_changes":[2.5402086E2,6.3571186E1,9.754999E1,0E0,0E0,0E0,0E0],"parents":[2147483647,0,0,1,1,2,2],"right_children":[2,4,6,-1,-1,-1,-1],"split_conditions":[4.595E-1,-2.05E0,1.05E1,-1.2239103E-3,2.3164074E-3,-9.465178E-4,-4.2126984E-3],"split_indices":[3,77,103,0,0,0,0],"split_type":[0,0,0,0,0,0,0],"sum_hessian":[6.2302427E3,2.3332615E3,3.896981E3,7.439445E2,1.589317E3,1.4668824E3,2.4300984E3],"tree_param":{"num_deleted":"0","num_feature":"106","num_nodes":"7","size_leaf_vector":"0"}},{"base_weights":[1.4216721E-1,-1.1875609E-1,2.9838172E-1,1.2239102E-1,-2.3164079E-1,9.4651766E-2,4.2126986E-1],"categories":[],"categories_nodes":[],"categories_segments":[],"categories_sizes":[],"default_left":[1,1,1,0,0,0,0],"id":11,"left_children":[1,3,5,-1,-1,-1,-1],"loss_changes":[2.5402087E2,6.3571198E1,9.754999E1,0E0,0E0,0E0,0E0],"parents":[2147483647,0,0,1,1,2,2],"right_children":[2,4,6,-1,-1,-1,-1],"split_conditions":[4.595E-1,-2.05E0,1.05E1,1.2239103E-3,-2.3164079E-3,9.465176E-4,4.2126984E-3],"split_indices":[3,77,103,0,0,0,0],"split_type":[0,0,0,0,0,0,0],"sum_hessian":[6.2302427E3,2.3332617E3,3.896981E3,7.439445E2,1.5893171E3,1.4668824E3,2.4300984E3],"tree_param":{"num_deleted":"0","num_feature":"106","num_nodes":"7","size_leaf_vector":"0"}},{"base_weights":[-1.4075813E-1,-3.4493202E-1,5.6114353E-2,-2.529231E-1,-5.8364266E-1,-1.8092151E-1,1.856555E-1],"categories":[],"categories_nodes":[],"categories_segments":[],"categories_sizes":[],"default_left":[1,1,1,0,0,0,0],"id":12,"left_children":[1,3,5,-1,-1,-1,-1],"loss_changes":[2.504708E2,6.7033966E1,9.746152E1,0E0,0E0,0E0,0E0],"parents":[2147483647,0,0,1,1,2,2],"right_children":[2,4,6,-1,-1,-1,-1],"split_conditions":[1.45E1,1.95E1,-1.45E0,-2.529231E-3,-5.8364263E-3,-1.809215E-3,1.856555E-3],"split_indices":[51,80,77,0,0,0,0],"split_type":[0,0,0,0,0,0,0],"sum_hessian":[6.2297207E3,3.0577825E3,3.171938E3,2.2085686E3,8.492138E2,1.1207607E3,2.0511772E3],"tree_param":{"num_deleted":"0","num_feature":"106","num_nodes":"7","size_leaf_vector":"0"}},{"base_weights":[1.4075808E-1,3.4493193E-1,-5.6114383E-2,2.5292304E-1,5.8364254E-1,1.8092145E-1,-1.8565552E-1],"categories":[],"categories_nodes":[],"categories_segments":[],"categories_sizes":[],"default_left":[1,1,1,0,0,0,0],"id":13,"left_children":[1,3,5,-1,-1,-1,-1],"loss_changes":[2.504707E2,6.7033936E1,9.746149E1,0E0,0E0,0E0,0E0],"parents":[2147483647,0,0,1,1,2,2],"right_children":[2,4,6,-1,-1,-1,-1],"split_conditions":[1.45E1,1.95E1,-1.45E0,2.5292304E-3,5.8364253E-3,1.8092145E-3,-1.8565551E-3],"split_indices":[51,80,77,0,0,0,0],"split_type":[0,0,0,0,0,0,0],"sum_hessian":[6.2297207E3,3.0577825E3,3.171938E3,2.2085686E3,8.492138E2,1.1207607E3,2.0511772E3],"tree_param":{"num_deleted":"0","num_feature":"106","num_nodes":"7","size_leaf_vector":"0"}},{"base_weights":[-1.3936546E-1,1.4494054E-1,-2.7813032E-1,-8.161782E-2,2.7151048E-1,-1.7892656E-1,-5.232899E-1],"categories":[],"categories_nodes":[],"categories_segments":[],"categories_sizes":[],"default_left":[1,1,1,0,0,0,0],"id":14,"left_children":[1,3,5,-1,-1,-1,-1],"loss_changes":[2.4582909E2,5.863776E1,1.01737854E2,0E0,0E0,0E0,0E0],"parents":[2147483647,0,0,1,1,2,2],"right_children":[2,4,6,-1,-1,-1,-1],"split_conditions":[-1.6500001E0,-1.55E0,1.95E1,-8.1617816E-4,2.7151047E-3,-1.7892655E-3,-5.232899E-3],"split_indices":[25,77,80,0,0,0,0],"split_type":[0,0,0,0,0,0,0],"sum_hessian":[6.2291216E3,2.0431022E3,4.1860195E3,7.324257E2,1.3106764E3,2.9813474E3,1.204672E3],"tree_param":{"num_deleted":"0","num_feature":"106","num_nodes":"7","size_leaf_vector":"0"}},{"base_weights":[1.3936546E-1,-1.4494054E-1,2.7813032E-1,8.161784E-2,-2.7151048E-1,1.789265E-1,5.2329E-1],"categories":[],"categories_nodes":[],"categories_segments":[],"categories_sizes":[],"default_left":[1,1,1,0,0,0,0],"id":15,"left_children":[1,3,5,-1,-1,-1,-1],"loss_changes":[2.4582907E2,5.8637775E1,1.01737885E2,0E0,0E0,0E0,0E0],"parents":[2147483647,0,0,1,1,2,2],"right_children":[2,4,6,-1,-1,-1,-1],"split_conditions":[-1.6500001E0,-1.55E0,1.95E1,8.161784E-4,-2.7151047E-3,1.789265E-3,5.2328994E-3],"split_indices":[25,77,80,0,0,0,0],"split_type":[0,0,0,0,0,0,0],"sum_hessian":[6.2291216E3,2.0431022E3,4.1860195E3,7.324257E2,1.3106764E3,2.9813474E3,1.204672E3],"tree_param":{"num_deleted":"0","num_feature":"106","num_nodes":"7","size_leaf_vector":"0"}},{"base_weights":[-1.3798861E-1,-3.3884913E-1,5.564876E-2,-1.9558468E-1,-4.8640233E-1,-2.0054363E-1,1.7128848E-1],"categories":[],"categories_nodes":[],"categories_segments":[],"categories_sizes":[],"default_left":[1,1,1,0,0,0,0],"id":16,"left_children":[1,3,5,-1,-1,-1,-1],"loss_changes":[2.4230609E2,6.45444E1,9.402561E1,0E0,0E0,0E0,0E0],"parents":[2147483647,0,0,1,1,2,2],"right_children":[2,4,6,-1,-1,-1,-1],"split_conditions":[1.45E1,1.25E1,-2.05E0,-1.9558468E-3,-4.864023E-3,-2.0054362E-3,1.7128848E-3],"split_indices":[51,80,77,0,0,0,0],"split_type":[0,0,0,0,0,0,0],"sum_hessian":[6.2284077E3,3.0568157E3,3.1715923E3,1.5521273E3,1.5046882E3,9.861362E2,2.185456E3],"tree_param":{"num_deleted":"0","num_feature":"106","num_nodes":"7","size_leaf_vector":"0"}},{"base_weights":[1.3798858E-1,3.388491E-1,-5.5648785E-2,1.9558465E-1,4.8640224E-1,2.0054363E-1,-1.712885E-1],"categories":[],"categories_nodes":[],"categories_segments":[],"categories_sizes":[],"default_left":[1,1,1,0,0,0,0],"id":17,"left_children":[1,3,5,-1,-1,-1,-1],"loss_changes":[2.4230603E2,6.454437E1,9.402562E1,0E0,0E0,0E0,0E0],"parents":[2147483647,0,0,1,1,2,2],"right_children":[2,4,6,-1,-1,-1,-1],"split_conditions":[1.45E1,1.25E1,-2.05E0,1.9558466E-3,4.864022E-3,2.0054362E-3,-1.712885E-3],"split_indices":[51,80,77,0,0,0,0],"split_type":[0,0,0,0,0,0,0],"sum_hessian":[6.2284077E3,3.0568157E3,3.1715923E3,1.5521274E3,1.5046884E3,9.861362E2,2.185456E3],"tree_param":{"num_deleted":"0","num_feature":"106","num_nodes":"7","size_leaf_vector":"0"}},{"base_weights":[-1.3662678E-1,1.1629423E-1,-2.8810135E-1,-1.7078944E-1,2.0445651E-1,-8.9417696E-2,-4.0802118E-1],"categories":[],"categories_nodes":[],"categories_segments":[],"categories_sizes":[],"default_left":[1,1,1,0,0,0,0],"id":18,"left_children":[1,3,5,-1,-1,-1,-1],"loss_changes":[2.3865984E2,5.9102737E1,9.278693E1,0E0,0E0,0E0,0E0],"parents":[2147483647,0,0,1,1,2,2],"right_children":[2,4,6,-1,-1,-1,-1],"split_conditions":[4.595E-1,3.725E-1,1.05E1,-1.7078943E-3,2.044565E-3,-8.9417695E-4,-4.0802117E-3],"split_indices":[3,55,103,0,0,0,0],"split_type":[0,0,0,0,0,0,0],"sum_hessian":[6.227647E3,2.3327786E3,3.8948682E3,5.4785516E2,1.7849233E3,1.4666548E3,2.4282134E3],"tree_param":{"num_deleted":"0","num_feature":"106","num_nodes":"7","size_leaf_vector":"0"}},{"base_weights":[1.3662677E-1,-1.1629427E-1,2.8810138E-1,1.7078936E-1,-2.0445654E-1,8.941772E-2,4.0802124E-1],"categories":[],"categories_nodes":[],"categories_segments":[],"categories_sizes":[],"default_left":[1,1,1,0,0,0,0],"id":19,"left_children":[1,3,5,-1,-1,-1,-1],"loss_changes":[2.3865991E2,5.9102715E1,9.278693E1,0E0,0E0,0E0,0E0],"parents":[2147483647,0,0,1,1,2,2],"right_children":[2,4,6,-1,-1,-1,-1],"split_conditions":[4.595E-1,3.725E-1,1.05E1,1.7078936E-3,-2.0445653E-3,8.941772E-4,4.080212E-3],"split_indices":[3,55,103,0,0,0,0],"split_type":[0,0,0,0,0,0,0],"sum_hessian":[6.227647E3,2.3327786E3,3.8948682E3,5.478552E2,1.7849233E3,1.4666549E3,2.4282134E3],"tree_param":{"num_deleted":"0","num_feature":"106","num_nodes":"7","size_leaf_vector":"0"}},{"base_weights":[-1.3527922E-1,-3.3285904E-1,5.5142872E-2,-2.4361715E-1,-5.646797E-1,-1.7426983E-1,1.8050653E-1],"categories":[],"categories_nodes":[],"categories_segments":[],"categories_sizes":[],"default_left":[1,1,1,0,0,0,0],"id":20,"left_children":[1,3,5,-1,-1,-1,-1],"loss_changes":[2.343314E2,6.309793E1,9.126442E1,0E0,0E0,0E0,0E0],"parents":[2147483647,0,0,1,1,2,2],"right_children":[2,4,6,-1,-1,-1,-1],"split_conditions":[1.45E1,1.95E1,-1.45E0,-2.4361715E-3,-5.646797E-3,-1.7426983E-3,1.8050652E-3],"split_indices":[51,80,77,0,0,0,0],"split_type":[0,0,0,0,0,0,0],"sum_hessian":[6.2268267E3,3.055611E3,3.1712158E3,2.2077605E3,8.4785077E2,1.1204419E3,2.050774E3],"tree_param":{"num_deleted":"0","num_feature":"106","num_nodes":"7","size_leaf_vector":"0"}},{"base_weights":[1.3527925E-1,3.328591E-1,-5.5142887E-2,2.4361719E-1,5.6467974E-1,1.742698E-1,-1.8050653E-1],"categories":[],"categories_nodes":[],"categories_segments":[],"categories_sizes":[],"default_left":[1,1,1,0,0,0,0],"id":21,"left_children":[1,3,5,-1,-1,-1,-1],"loss_changes":[2.3433148E2,6.309796E1,9.126441E1,0E0,0E0,0E0,0E0],"parents":[2147483647,0,0,1,1,2,2],"right_children":[2,4,6,-1,-1,-1,-1],"split_conditions":[1.45E1,1.95E1,-1.45E0,2.4361718E-3,5.6467974E-3,1.7426979E-3,-1.8050652E-3],"split_indices":[51,80,77,0,0,0,0],"split_type":[0,0,0,0,0,0,0],"sum_hessian":[6.2268267E3,3.055611E3,3.1712156E3,2.2077603E3,8.478508E2,1.1204419E3,2.0507737E3],"tree_param":{"num_deleted":"0","num_feature":"106","num_nodes":"7","size_leaf_vector":"0"}},{"base_weights":[-1.3394806E-1,1.4171557E-1,-2.6854926E-1,-7.678355E-2,2.6380298E-1,-1.7216161E-1,-5.0702673E-1],"categories":[],"categories_nodes":[],"categories_segments":[],"categories_sizes":[],"default_left":[1,1,1,0,0,0,0],"id":22,"left_children":[1,3,5,-1,-1,-1,-1],"loss_changes":[2.3108487E2,5.453524E1,9.609415E1,0E0,0E0,0E0,0E0],"parents":[2147483647,0,0,1,1,2,2],"right_children":[2,4,6,-1,-1,-1,-1],"split_conditions":[-1.6500001E0,-1.55E0,1.95E1,-7.6783553E-4,2.6380296E-3,-1.721616E-3,-5.0702672E-3],"split_indices":[25,77,80,0,0,0,0],"split_type":[0,0,0,0,0,0,0],"sum_hessian":[6.2258945E3,2.0425972E3,4.1832974E3,7.32327E2,1.3102701E3,2.980402E3,1.2028951E3],"tree_param":{"num_deleted":"0","num_feature":"106","num_nodes":"7","size_leaf_vector":"0"}},{"base_weights":[1.3394804E-1,-1.4171557E-1,2.6854926E-1,7.678363E-2,-2.63803E-1,1.7216161E-1,5.070266E-1],"categories":[],"categories_nodes":[],"categories_segments":[],"categories_sizes":[],"default_left":[1,1,1,0,0,0,0],"id":23,"left_children":[1,3,5,-1,-1,-1,-1],"loss_changes":[2.3108482E2,5.453527E1,9.6094086E1,0E0,0E0,0E0,0E0],"parents":[2147483647,0,0,1,1,2,2],"right_children":[2,4,6,-1,-1,-1,-1],"split_conditions":[-1.6500001E0,-1.55E0,1.95E1,7.6783623E-4,-2.63803E-3,1.721616E-3,5.070266E-3],"split_indices":[25,77,80,0,0,0,0],"split_type":[0,0,0,0,0,0,0],"sum_hessian":[6.2258945E3,2.0425972E3,4.1832974E3,7.3232697E2,1.3102703E3,2.980402E3,1.2028953E3],"tree_param":{"num_deleted":"0","num_feature":"106","num_nodes":"7","size_leaf_vector":"0"}},{"base_weights":[-1.3263144E-1,1.14222676E-1,-2.8052753E-1,-1.6593659E-1,2.0025916E-1,-3.8442418E-1,-5.8671664E-2],"categories":[],"categories_nodes":[],"categories_segments":[],"categories_sizes":[],"default_left":[1,1,1,0,0,0,0],"id":24,"left_children":[1,3,5,-1,-1,-1,-1],"loss_changes":[2.2733084E2,5.6274395E1,8.9724976E1,0E0,0E0,0E0,0E0],"parents":[2147483647,0,0,1,1,2,2],"right_children":[2,4,6,-1,-1,-1,-1],"split_conditions":[4.595E-1,3.725E-1,2.95E0,-1.6593658E-3,2.0025915E-3,-3.8442416E-3,-5.8671663E-4],"split_indices":[3,55,77,0,0,0,0],"split_type":[0,0,0,0,0,0,0],"sum_hessian":[6.22487E3,2.332279E3,3.8925908E3,5.4774316E2,1.784536E3,2.6505754E3,1.2420155E3],"tree_param":{"num_deleted":"0","num_feature":"106","num_nodes":"7","size_leaf_vector":"0"}},{"base_weights":[1.3263144E-1,-1.14222676E-1,2.8052753E-1,1.659366E-1,-2.0025918E-1,3.8442418E-1,5.867165E-2],"categories":[],"categories_nodes":[],"categories_segments":[],"categories_sizes":[],"default_left":[1,1,1,0,0,0,0],"id":25,"left_children":[1,3,5,-1,-1,-1,-1],"loss_changes":[2.2733086E2,5.6274418E1,8.972504E1,0E0,0E0,0E0,0E0],"parents":[2147483647,0,0,1,1,2,2],"right_children":[2,4,6,-1,-1,-1,-1],"split_conditions":[4.595E-1,3.725E-1,2.95E0,1.659366E-3,-2.0025917E-3,3.8442416E-3,5.8671646E-4],"split_indices":[3,55,77,0,0,0,0],"split_type":[0,0,0,0,0,0,0],"sum_hessian":[6.22487E3,2.332279E3,3.8925908E3,5.4774316E2,1.784536E3,2.6505752E3,1.2420155E3],"tree_param":{"num_deleted":"0","num_feature":"106","num_nodes":"7","size_leaf_vector":"0"}},{"base_weights":[-1.3132767E-1,-3.2446355E-1,5.4724418E-2,-3.9329E-1,-3.2157425E-2,-1.9194648E-1,1.6604792E-1],"categories":[],"categories_nodes":[],"categories_segments":[],"categories_sizes":[],"default_left":[1,1,1,0,0,0,0],"id":26,"left_children":[1,3,5,-1,-1,-1,-1],"loss_changes":[2.2369717E2,6.143747E1,8.711997E1,0E0,0E0,0E0,0E0],"parents":[2147483647,0,0,1,1,2,2],"right_children":[2,4,6,-1,-1,-1,-1],"split_conditions":[1.45E1,5.05E0,-2.05E0,-3.9329003E-3,-3.2157425E-4,-1.9194647E-3,1.6604791E-3],"split_indices":[51,77,77,0,0,0,0],"split_type":[0,0,0,0,0,0,0],"sum_hessian":[6.2238447E3,3.053422E3,3.1704229E3,2.4712058E3,5.8221625E2,9.8566327E2,2.1847595E3],"tree_param":{"num_deleted":"0","num_feature":"106","num_nodes":"7","size_leaf_vector":"0"}},{"base_weights":[1.3132764E-1,3.2446352E-1,-5.4724436E-2,3.9328998E-1,3.215742E-2,1.9194648E-1,-1.6604793E-1],"categories":[],"categories_nodes":[],"categories_segments":[],"categories_sizes":[],"default_left":[1,1,1,0,0,0,0],"id":27,"left_children":[1,3,5,-1,-1,-1,-1],"loss_changes":[2.2369717E2,6.143741E1,8.712E1,0E0,0E0,0E0,0E0],"parents":[2147483647,0,0,1,1,2,2],"right_children":[2,4,6,-1,-1,-1,-1],"split_conditions":[1.45E1,5.05E0,-2.05E0,3.9329E-3,3.2157422E-4,1.9194647E-3,-1.6604792E-3],"split_indices":[51,77,77,0,0,0,0],"split_type":[0,0,0,0,0,0,0],"sum_hessian":[6.223845E3,3.053422E3,3.1704229E3,2.471206E3,5.8221625E2,9.8566327E2,2.1847595E3],"tree_param":{"num_deleted":"0","num_feature":"106","num_nodes":"7","size_leaf_vector":"0"}},{"base_weights":[-1.3003804E-1,1.3904475E-1,-2.614757E-1,-7.384412E-2,2.5801963E-1,-1.6676004E-1,-4.9605277E-1],"categories":[],"categories_nodes":[],"categories_segments":[],"categories_sizes":[],"default_left":[1,1,1,0,0,0,0],"id":28,"left_children":[1,3,5,-1,-1,-1,-1],"loss_changes":[2.2015593E2,5.176724E1,9.282623E1,0E0,0E0,0E0,0E0],"parents":[2147483647,0,0,1,1,2,2],"right_children":[2,4,6,-1,-1,-1,-1],"split_conditions":[-1.6500001E0,-1.55E0,1.95E1,-7.384412E-4,2.5801961E-3,-1.6676004E-3,-4.9605276E-3],"split_indices":[25,77,80,0,0,0,0],"split_type":[0,0,0,0,0,0,0],"sum_hessian":[6.2227603E3,2.0420868E3,4.1806733E3,7.3223474E2,1.309852E3,2.9793896E3,1.2012836E3],"tree_param":{"num_deleted":"0","num_feature":"106","num_nodes":"7","size_leaf_vector":"0"}},{"base_weights":[1.3003804E-1,-1.3904476E-1,2.6147574E-1,7.384411E-2,-2.5801966E-1,1.6676006E-1,4.9605277E-1],"categories":[],"categories_nodes":[],"categories_segments":[],"categories_sizes":[],"default_left":[1,1,1,0,0,0,0],"id":29,"left_children":[1,3,5,-1,-1,-1,-1],"loss_changes":[2.2015598E2,5.176724E1,9.282617E1,0E0,0E0,0E0,0E0],"parents":[2147483647,0,0,1,1,2,2],"right_children":[2,4,6,-1,-1,-1,-1],"split_conditions":[-1.6500001E0,-1.55E0,1.95E1,7.3844113E-4,-2.5801966E-3,1.6676006E-3,4.9605276E-3],"split_indices":[25,77,80,0,0,0,0],"split_type":[0,0,0,0,0,0,0],"sum_hessian":[6.2227603E3,2.0420869E3,4.1806733E3,7.3223474E2,1.3098522E3,2.9793896E3,1.2012836E3],"tree_param":{"num_deleted":"0","num_feature":"106","num_nodes":"7","size_leaf_vector":"0"}},{"base_weights":[-1.287642E-1,1.1218731E-1,-2.731871E-1,-3.1500004E-2,2.7281514E-1,-3.751684E-1,-5.559511E-2],"categories":[],"categories_nodes":[],"categories_segments":[],"categories_sizes":[],"default_left":[1,1,1,0,0,0,0],"id":30,"left_children":[1,3,5,-1,-1,-1,-1],"loss_changes":[2.1656781E2,5.384687E1,8.6318665E1,0E0,0E0,0E0,0E0],"parents":[2147483647,0,0,1,1,2,2],"right_children":[2,4,6,-1,-1,-1,-1],"split_conditions":[4.595E-1,5.135E-1,2.95E0,-3.1500004E-4,2.7281514E-3,-3.751684E-3,-5.559511E-4],"split_indices":[3,55,77,0,0,0,0],"split_type":[0,0,0,0,0,0,0],"sum_hessian":[6.221527E3,2.3316626E3,3.8898643E3,1.2311548E3,1.1005079E3,2.6480488E3,1.2418153E3],"tree_param":{"num_deleted":"0","num_feature":"106","num_nodes":"7","size_leaf_vector":"0"}},{"base_weights":[1.2876423E-1,-1.1218724E-1,2.731871E-1,3.1500053E-2,-2.7281505E-1,3.751684E-1,5.5595092E-2],"categories":[],"categories_nodes":[],"categories_segments":[],"categories_sizes":[],"default_left":[1,1,1,0,0,0,0],"id":31,"left_children":[1,3,5,-1,-1,-1,-1],"loss_changes":[2.1656778E2,5.3846855E1,8.6318634E1,0E0,0E0,0E0,0E0],"parents":[2147483647,0,0,1,1,2,2],"right_children":[2,4,6,-1,-1,-1,-1],"split_conditions":[4.595E-1,5.135E-1,2.95E0,3.150005E-4,-2.7281505E-3,3.751684E-3,5.559509E-4],"split_indices":[3,55,77,0,0,0,0],"split_type":[0,0,0,0,0,0,0],"sum_hessian":[6.221527E3,2.3316626E3,3.889864E3,1.2311548E3,1.1005079E3,2.6480488E3,1.2418153E3],"tree_param":{"num_deleted":"0","num_feature":"106","num_nodes":"7","size_leaf_vector":"0"}},{"base_weights":[-1.2750193E-1,-3.1632683E-1,5.429683E-2,-3.8387397E-1,-2.971601E-2,-1.868973E-1,1.6313486E-1],"categories":[],"categories_nodes":[],"categories_segments":[],"categories_sizes":[],"default_left":[1,1,1,0,0,0,0],"id":32,"left_children":[1,3,5,-1,-1,-1,-1],"loss_changes":[2.1358337E2,5.907129E1,8.325911E1,0E0,0E0,0E0,0E0],"parents":[2147483647,0,0,1,1,2,2],"right_children":[2,4,6,-1,-1,-1,-1],"split_conditions":[1.45E1,5.05E0,-2.05E0,-3.8387396E-3,-2.971601E-4,-1.8689729E-3,1.6313485E-3],"split_indices":[51,77,77,0,0,0,0],"split_type":[0,0,0,0,0,0,0],"sum_hessian":[6.220317E3,3.0508345E3,3.1694824E3,2.4686863E3,5.821484E2,9.852871E2,2.1841953E3],"tree_param":{"num_deleted":"0","num_feature":"106","num_nodes":"7","size_leaf_vector":"0"}},{"base_weights":[1.2750195E-1,3.1632683E-1,-5.429682E-2,3.83874E-1,2.9716011E-2,1.8689735E-1,-1.6313487E-1],"categories":[],"categories_nodes":[],"categories_segments":[],"categories_sizes":[],"default_left":[1,1,1,0,0,0,0],"id":33,"left_children":[1,3,5,-1,-1,-1,-1],"loss_changes":[2.1358337E2,5.907138E1,8.325916E1,0E0,0E0,0E0,0E0],"parents":[2147483647,0,0,1,1,2,2],"right_children":[2,4,6,-1,-1,-1,-1],"split_conditions":[1.45E1,5.05E0,-2.05E0,3.8387398E-3,2.971601E-4,1.8689735E-3,-1.6313487E-3],"split_indices":[51,77,77,0,0,0,0],"split_type":[0,0,0,0,0,0,0],"sum_hessian":[6.220317E3,3.0508345E3,3.1694824E3,2.468686E3,5.821484E2,9.8528705E2,2.1841953E3],"tree_param":{"num_deleted":"0","num_feature":"106","num_nodes":"7","size_leaf_vector":"0"}},{"base_weights":[-1.2625398E-1,-2.4147974E-1,1.669803E-1,-1.0305906E-1,-3.9520335E-1,2.361239E-1,-1.5767114E-1],"categories":[],"categories_nodes":[],"categories_segments":[],"categories_sizes":[],"default_left":[1,1,1,0,0,0,0],"id":34,"left_children":[1,3,5,-1,-1,-1,-1],"loss_changes":[2.102037E2,9.498456E1,3.9438343E1,0E0,0E0,0E0,0E0],"parents":[2147483647,0,0,1,1,2,2],"right_children":[2,4,6,-1,-1,-1,-1],"split_conditions":[2.15E1,1.35E1,2.45E1,-1.0305906E-3,-3.9520334E-3,2.361239E-3,-1.5767113E-3],"split_indices":[51,80,81,0,0,0,0],"split_type":[0,0,0,0,0,0,0],"sum_hessian":[6.219034E3,4.4647837E3,1.7542504E3,2.3502065E3,2.1145771E3,1.4464591E3,3.077913E2],"tree_param":{"num_deleted":"0","num_feature":"106","num_nodes":"7","size_leaf_vector":"0"}},{"base_weights":[1.2625396E-1,2.4147974E-1,-1.6698034E-1,1.0305902E-1,3.9520335E-1,-2.3612398E-1,1.5767114E-1],"categories":[],"categories_nodes":[],"categories_segments":[],"categories_sizes":[],"default_left":[1,1,1,0,0,0,0],"id":35,"left_children":[1,3,5,-1,-1,-1,-1],"loss_changes":[2.1020377E2,9.498456E1,3.9438366E1,0E0,0E0,0E0,0E0],"parents":[2147483647,0,0,1,1,2,2],"right_children":[2,4,6,-1,-1,-1,-1],"split_conditions":[2.15E1,1.35E1,2.45E1,1.0305903E-3,3.9520334E-3,-2.3612396E-3,1.5767113E-3],"split_indices":[51,80,81,0,0,0,0],"split_type":[0,0,0,0,0,0,0],"sum_hessian":[6.219034E3,4.4647837E3,1.7542504E3,2.3502065E3,2.1145771E3,1.446459E3,3.077913E2],"tree_param":{"num_deleted":"0","num_feature":"106","num_nodes":"7","size_leaf_vector":"0"}},{"base_weights":[-1.2501837E-1,-3.109836E-1,5.3947113E-2,-2.4372515E-1,-5.9470093E-1,-1.6200875E-1,1.7192432E-1],"categories":[],"categories_nodes":[],"categories_segments":[],"categories_sizes":[],"default_left":[1,1,1,0,0,0,0],"id":36,"left_children":[1,3,5,-1,-1,-1,-1],"loss_changes":[2.069849E2,5.8054047E1,8.078922E1,0E0,0E0,0E0,0E0],"parents":[2147483647,0,0,1,1,2,2],"right_children":[2,4,6,-1,-1,-1,-1],"split_conditions":[1.45E1,2.25E1,-1.45E0,-2.4372514E-3,-5.947009E-3,-1.6200874E-3,1.7192432E-3],"split_indices":[51,80,77,0,0,0,0],"split_type":[0,0,0,0,0,0,0],"sum_hessian":[6.2177417E3,3.048878E3,3.1688638E3,2.466116E3,5.8276196E2,1.1194149E3,2.049449E3],"tree_param":{"num_deleted":"0","num_feature":"106","num_nodes":"7","size_leaf_vector":"0"}},{"base_weights":[1.2501837E-1,3.109836E-1,-5.3947125E-2,2.4372517E-1,5.9470093E-1,1.6200873E-1,-1.7192432E-1],"categories":[],"categories_nodes":[],"categories_segments":[],"categories_sizes":[],"default_left":[1,1,1,0,0,0,0],"id":37,"left_children":[1,3,5,-1,-1,-1,-1],"loss_changes":[2.0698499E2,5.8053986E1,8.0789215E1,0E0,0E0,0E0,0E0],"parents":[2147483647,0,0,1,1,2,2],"right_children":[2,4,6,-1,-1,-1,-1],"split_conditions":[1.45E1,2.25E1,-1.45E0,2.4372516E-3,5.947009E-3,1.6200873E-3,-1.7192432E-3],"split_indices":[51,80,77,0,0,0,0],"split_type":[0,0,0,0,0,0,0],"sum_hessian":[6.2177417E3,3.0488777E3,3.1688638E3,2.4661157E3,5.827619E2,1.1194149E3,2.049449E3],"tree_param":{"num_deleted":"0","num_feature":"106","num_nodes":"7","size_leaf_vector":"0"}},{"base_weights":[-1.2379839E-1,1.0999806E-1,-2.6403508E-1,-2.9564552E-2,2.66046E-1,-3.6373225E-1,-5.158014E-2],"categories":[],"categories_nodes":[],"categories_segments":[],"categories_sizes":[],"default_left":[1,1,1,0,0,0,0],"id":38,"left_children":[1,3,5,-1,-1,-1,-1],"loss_changes":[2.0387503E2,5.0790215E1,8.230264E1,0E0,0E0,0E0,0E0],"parents":[2147483647,0,0,1,1,2,2],"right_children":[2,4,6,-1,-1,-1,-1],"split_conditions":[4.595E-1,5.135E-1,2.95E0,-2.956455E-4,2.6604598E-3,-3.6373225E-3,-5.1580137E-4],"split_indices":[3,55,77,0,0,0,0],"split_type":[0,0,0,0,0,0,0],"sum_hessian":[6.216311E3,2.3307698E3,3.8855415E3,1.2308027E3,1.0999669E3,2.6440674E3,1.2414741E3],"tree_param":{"num_deleted":"0","num_feature":"106","num_nodes":"7","size_leaf_vector":"0"}},{"base_weights":[1.2379841E-1,-1.0999804E-1,2.640351E-1,2.9564591E-2,-2.66046E-1,3.6373228E-1,5.1580127E-2],"categories":[],"categories_nodes":[],"categories_segments":[],"categories_sizes":[],"default_left":[1,1,1,0,0,0,0],"id":39,"left_children":[1,3,5,-1,-1,-1,-1],"loss_changes":[2.0387502E2,5.0790222E1,8.230267E1,0E0,0E0,0E0,0E0],"parents":[2147483647,0,0,1,1,2,2],"right_children":[2,4,6,-1,-1,-1,-1],"split_conditions":[4.595E-1,5.135E-1,2.95E0,2.956459E-4,-2.6604598E-3,3.6373227E-3,5.1580125E-4],"split_indices":[3,55,77,0,0,0,0],"split_type":[0,0,0,0,0,0,0],"sum_hessian":[6.216311E3,2.3307698E3,3.8855415E3,1.2308027E3,1.099967E3,2.6440674E3,1.2414741E3],"tree_param":{"num_deleted":"0","num_feature":"106","num_nodes":"7","size_leaf_vector":"0"}},{"base_weights":[-1.22589536E-1,-2.3526463E-1,1.640131E-1,-1.2565489E-1,-4.2225543E-1,2.3175195E-1,-1.5400124E-1],"categories":[],"categories_nodes":[],"categories_segments":[],"categories_sizes":[],"default_left":[1,1,1,0,0,0,0],"id":40,"left_children":[1,3,5,-1,-1,-1,-1],"loss_changes":[2.007674E2,9.140373E1,3.783508E1,0E0,0E0,0E0,0E0],"parents":[2147483647,0,0,1,1,2,2],"right_children":[2,4,6,-1,-1,-1,-1],"split_conditions":[2.15E1,1.65E1,2.45E1,-1.2565489E-3,-4.222554E-3,2.3175194E-3,-1.5400123E-3],"split_indices":[51,80,81,0,0,0,0],"split_type":[0,0,0,0,0,0,0],"sum_hessian":[6.2148647E3,4.4611753E3,1.7536895E3,2.8135872E3,1.6475884E3,1.4459625E3,3.077269E2],"tree_param":{"num_deleted":"0","num_feature":"106","num_nodes":"7","size_leaf_vector":"0"}},{"base_weights":[1.22589506E-1,2.3526458E-1,-1.640131E-1,1.2565486E-1,4.222554E-1,-2.3175195E-1,1.5400124E-1],"categories":[],"categories_nodes":[],"categories_segments":[],"categories_sizes":[],"default_left":[1,1,1,0,0,0,0],"id":41,"left_children":[1,3,5,-1,-1,-1,-1],"loss_changes":[2.0076733E2,9.140376E1,3.783508E1,0E0,0E0,0E0,0E0],"parents":[2147483647,0,0,1,1,2,2],"right_children":[2,4,6,-1,-1,-1,-1],"split_conditions":[2.15E1,1.65E1,2.45E1,1.2565486E-3,4.2225537E-3,-2.3175194E-3,1.5400123E-3],"split_indices":[51,80,81,0,0,0,0],"split_type":[0,0,0,0,0,0,0],"sum_hessian":[6.214865E3,4.461176E3,1.7536895E3,2.8135872E3,1.6475885E3,1.4459625E3,3.077269E2],"tree_param":{"num_deleted":"0","num_feature":"106","num_nodes":"7","size_leaf_vector":"0"}},{"base_weights":[-1.2139342E-1,-3.0339393E-1,5.3631406E-2,-3.692925E-1,-2.4271276E-2,-1.5780191E-1,1.6912314E-1],"categories":[],"categories_nodes":[],"categories_segments":[],"categories_sizes":[],"default_left":[1,1,1,0,0,0,0],"id":42,"left_children":[1,3,5,-1,-1,-1,-1],"loss_changes":[1.9797345E2,5.6030212E1,7.7403946E1,0E0,0E0,0E0,0E0],"parents":[2147483647,0,0,1,1,2,2],"right_children":[2,4,6,-1,-1,-1,-1],"split_conditions":[1.45E1,5.05E0,-1.45E0,-3.692925E-3,-2.4271275E-4,-1.5780191E-3,1.6912314E-3],"split_indices":[51,77,77,0,0,0,0],"split_type":[0,0,0,0,0,0,0],"sum_hessian":[6.213396E3,3.0456384E3,3.1677573E3,2.4636646E3,5.819739E2,1.1189337E3,2.0488235E3],"tree_param":{"num_deleted":"0","num_feature":"106","num_nodes":"7","size_leaf_vector":"0"}},{"base_weights":[1.2139343E-1,3.0339396E-1,-5.363142E-2,3.6929253E-1,2.4271276E-2,1.5780188E-1,-1.6912314E-1],"categories":[],"categories_nodes":[],"categories_segments":[],"categories_sizes":[],"default_left":[1,1,1,0,0,0,0],"id":43,"left_children":[1,3,5,-1,-1,-1,-1],"loss_changes":[1.9797346E2,5.6030212E1,7.740393E1,0E0,0E0,0E0,0E0],"parents":[2147483647,0,0,1,1,2,2],"right_children":[2,4,6,-1,-1,-1,-1],"split_conditions":[1.45E1,5.05E0,-1.45E0,3.6929252E-3,2.4271275E-4,1.5780188E-3,-1.6912314E-3],"split_indices":[51,77,77,0,0,0,0],"split_type":[0,0,0,0,0,0,0],"sum_hessian":[6.213396E3,3.0456387E3,3.1677573E3,2.4636648E3,5.819739E2,1.1189337E3,2.0488235E3],"tree_param":{"num_deleted":"0","num_feature":"106","num_nodes":"7","size_leaf_vector":"0"}},{"base_weights":[-1.2021084E-1,1.3288425E-1,-2.4401042E-1,-6.652318E-2,2.4439587E-1,-1.534855E-1,-4.6897474E-1],"categories":[],"categories_nodes":[],"categories_segments":[],"categories_sizes":[],"default_left":[1,1,1,0,0,0,0],"id":44,"left_children":[1,3,5,-1,-1,-1,-1],"loss_changes":[1.946993E2,4.5409107E1,8.489914E1,0E0,0E0,0E0,0E0],"parents":[2147483647,0,0,1,1,2,2],"right_children":[2,4,6,-1,-1,-1,-1],"split_conditions":[-1.6500001E0,-1.55E0,1.95E1,-6.652318E-4,2.4439585E-3,-1.534855E-3,-4.6897475E-3],"split_indices":[25,77,80,0,0,0,0],"split_type":[0,0,0,0,0,0,0],"sum_hessian":[6.211825E3,2.0403905E3,4.171435E3,7.3193396E2,1.3084565E3,2.9757036E3,1.1957313E3],"tree_param":{"num_deleted":"0","num_feature":"106","num_nodes":"7","size_leaf_vector":"0"}},{"base_weights":[1.20210856E-1,-1.3288428E-1,2.4401046E-1,6.652317E-2,-2.4439588E-1,1.5348554E-1,4.6897477E-1],"categories":[],"categories_nodes":[],"categories_segments":[],"categories_sizes":[],"default_left":[1,1,1,0,0,0,0],"id":45,"left_children":[1,3,5,-1,-1,-1,-1],"loss_changes":[1.9469937E2,4.540912E1,8.4899185E1,0E0,0E0,0E0,0E0],"parents":[2147483647,0,0,1,1,2,2],"right_children":[2,4,6,-1,-1,-1,-1],"split_conditions":[-1.6500001E0,-1.55E0,1.95E1,6.652317E-4,-2.4439588E-3,1.5348553E-3,4.6897475E-3],"split_indices":[25,77,80,0,0,0,0],"split_type":[0,0,0,0,0,0,0],"sum_hessian":[6.2118257E3,2.0403905E3,4.171435E3,7.3193396E2,1.3084565E3,2.9757036E3,1.1957313E3],"tree_param":{"num_deleted":"0","num_feature":"106","num_nodes":"7","size_leaf_vector":"0"}},{"base_weights":[-1.1904234E-1,6.4219184E-2,-2.8740337E-1,-1.7602389E-1,1.6074868E-1,-1.5363E-1,-4.23533E-1],"categories":[],"categories_nodes":[],"categories_segments":[],"categories_sizes":[],"default_left":[1,1,1,0,0,0,0],"id":46,"left_children":[1,3,5,-1,-1,-1,-1],"loss_changes":[1.9165724E2,6.901503E1,5.8888733E1,0E0,0E0,0E0,0E0],"parents":[2147483647,0,0,1,1,2,2],"right_children":[2,4,6,-1,-1,-1,-1],"split_conditions":[5E-2,-2.45E0,1.25E1,-1.7602388E-3,1.6074867E-3,-1.5363E-3,-4.23533E-3],"split_indices":[25,77,80,0,0,0,0],"split_type":[0,0,0,0,0,0,0],"sum_hessian":[6.2101284E3,2.9737788E3,3.2363494E3,8.521415E2,2.1216375E3,1.633375E3,1.6029744E3],"tree_param":{"num_deleted":"0","num_feature":"106","num_nodes":"7","size_leaf_vector":"0"}},{"base_weights":[1.1904235E-1,-6.421917E-2,2.8740337E-1,1.760239E-1,-1.6074866E-1,1.5363002E-1,4.23533E-1],"categories":[],"categories_nodes":[],"categories_segments":[],"categories_sizes":[],"default_left":[1,1,1,0,0,0,0],"id":47,"left_children":[1,3,5,-1,-1,-1,-1],"loss_changes":[1.916572E2,6.901504E1,5.8888763E1,0E0,0E0,0E0,0E0],"parents":[2147483647,0,0,1,1,2,2],"right_children":[2,4,6,-1,-1,-1,-1],"split_conditions":[5E-2,-2.45E0,1.25E1,1.760239E-3,-1.6074865E-3,1.5363002E-3,4.23533E-3],"split_indices":[25,77,80,0,0,0,0],"split_type":[0,0,0,0,0,0,0],"sum_hessian":[6.210128E3,2.973779E3,3.236349E3,8.5214154E2,2.1216375E3,1.633375E3,1.6029742E3],"tree_param":{"num_deleted":"0","num_feature":"106","num_nodes":"7","size_leaf_vector":"0"}},{"base_weights":[-1.17885806E-1,-2.3219055E-1,1.4859968E-1,-1.4245296E-1,-4.630415E-1,-1.2940003E-1,2.2171892E-1],"categories":[],"categories_nodes":[],"categories_segments":[],"categories_sizes":[],"default_left":[1,1,1,0,0,0,0],"id":48,"left_children":[1,3,5,-1,-1,-1,-1],"loss_changes":[1.8917679E2,8.996329E1,3.7929398E1,0E0,0E0,0E0,0E0],"parents":[2147483647,0,0,1,1,2,2],"right_children":[2,4,6,-1,-1,-1,-1],"split_conditions":[1.95E1,1.95E1,3.585E-1,-1.4245295E-3,-4.6304152E-3,-1.2940003E-3,2.2171892E-3],"split_indices":[28,80,55,0,0,0,0],"split_type":[0,0,0,0,0,0,0],"sum_hessian":[6.2084155E3,4.3448774E3,1.8635381E3,3.1298447E3,1.2150327E3,3.8791473E2,1.4756233E3],"tree_param":{"num_deleted":"0","num_feature":"106","num_nodes":"7","size_leaf_vector":"0"}},{"base_weights":[1.17885806E-1,2.3219055E-1,-1.4859967E-1,1.4245296E-1,4.630415E-1,1.2939997E-1,-2.217189E-1],"categories":[],"categories_nodes":[],"categories_segments":[],"categories_sizes":[],"default_left":[1,1,1,0,0,0,0],"id":49,"left_children":[1,3,5,-1,-1,-1,-1],"loss_changes":[1.8917676E2,8.996333E1,3.792937E1,0E0,0E0,0E0,0E0],"parents":[2147483647,0,0,1,1,2,2],"right_children":[2,4,6,-1,-1,-1,-1],"split_conditions":[1.95E1,1.95E1,3.585E-1,1.4245295E-3,4.6304152E-3,1.2939997E-3,-2.217189E-3],"split_indices":[28,80,55,0,0,0,0],"split_type":[0,0,0,0,0,0,0],"sum_hessian":[6.2084155E3,4.3448774E3,1.8635381E3,3.1298447E3,1.2150327E3,3.8791473E2,1.4756234E3],"tree_param":{"num_deleted":"0","num_feature":"106","num_nodes":"7","size_leaf_vector":"0"}},{"base_weights":[-1.16739824E-1,-2.933866E-1,5.2949768E-2,-3.5812858E-1,-1.9620515E-2,-1.7242333E-1,1.545875E-1],"categories":[],"categories_nodes":[],"categories_segments":[],"categories_sizes":[],"default_left":[1,1,1,0,0,0,0],"id":50,"left_children":[1,3,5,-1,-1,-1,-1],"loss_changes":[1.8609308E2,5.390396E1,7.257272E1,0E0,0E0,0E0,0E0],"parents":[2147483647,0,0,1,1,2,2],"right_children":[2,4,6,-1,-1,-1,-1],"split_conditions":[1.45E1,5.05E0,-2.05E0,-3.5812857E-3,-1.9620515E-4,-1.7242333E-3,1.545875E-3],"split_indices":[51,77,77,0,0,0,0],"split_type":[0,0,0,0,0,0,0],"sum_hessian":[6.206732E3,3.0406685E3,3.1660635E3,2.4588708E3,5.8179767E2,9.8382294E2,2.1822405E3],"tree_param":{"num_deleted":"0","num_feature":"106","num_nodes":"7","size_leaf_vector":"0"}},{"base_weights":[1.1673984E-1,2.9338667E-1,-5.2949775E-2,3.5812864E-1,1.9620545E-2,1.7242329E-1,-1.545875E-1],"categories":[],"categories_nodes":[],"categories_segments":[],"categories_sizes":[],"default_left":[1,1,1,0,0,0,0],"id":51,"left_children":[1,3,5,-1,-1,-1,-1],"loss_changes":[1.8609311E2,5.390399E1,7.257271E1,0E0,0E0,0E0,0E0],"parents":[2147483647,0,0,1,1,2,2],"right_children":[2,4,6,-1,-1,-1,-1],"split_conditions":[1.45E1,5.05E0,-2.05E0,3.5812862E-3,1.9620545E-4,1.7242328E-3,-1.545875E-3],"split_indices":[51,77,77,0,0,0,0],"split_type":[0,0,0,0,0,0,0],"sum_hessian":[6.206732E3,3.0406685E3,3.1660635E3,2.4588706E3,5.8179767E2,9.8382294E2,2.1822405E3],"tree_param":{"num_deleted":"0","num_feature":"106","num_nodes":"7","size_leaf_vector":"0"}},{"base_weights":[-1.1560652E-1,-2.2353783E-1,1.5862136E-1,-9.285757E-2,-3.691774E-1,2.2341464E-1,-1.4550358E-1],"categories":[],"categories_nodes":[],"categories_segments":[],"categories_sizes":[],"default_left":[1,1,1,0,0,0,0],"id":52,"left_children":[1,3,5,-1,-1,-1,-1],"loss_changes":[1.8371799E2,8.472865E1,3.4581787E1,0E0,0E0,0E0,0E0],"parents":[2147483647,0,0,1,1,2,2],"right_children":[2,4,6,-1,-1,-1,-1],"split_conditions":[2.15E1,1.35E1,2.45E1,-9.285757E-4,-3.6917739E-3,2.2341465E-3,-1.4550358E-3],"split_indices":[51,80,81,0,0,0,0],"split_type":[0,0,0,0,0,0,0],"sum_hessian":[6.2049575E3,4.4526553E3,1.7523026E3,2.3477188E3,2.1049363E3,1.4447637E3,3.07539E2],"tree_param":{"num_deleted":"0","num_feature":"106","num_nodes":"7","size_leaf_vector":"0"}},{"base_weights":[1.1560652E-1,2.2353785E-1,-1.5862139E-1,9.28576E-2,3.691774E-1,-2.2341469E-1,1.455036E-1],"categories":[],"categories_nodes":[],"categories_segments":[],"categories_sizes":[],"default_left":[1,1,1,0,0,0,0],"id":53,"left_children":[1,3,5,-1,-1,-1,-1],"loss_changes":[1.8371802E2,8.472865E1,3.4581795E1,0E0,0E0,0E0,0E0],"parents":[2147483647,0,0,1,1,2,2],"right_children":[2,4,6,-1,-1,-1,-1],"split_conditions":[2.15E1,1.35E1,2.45E1,9.28576E-4,3.6917739E-3,-2.234147E-3,1.4550359E-3],"split_indices":[51,80,81,0,0,0,0],"split_type":[0,0,0,0,0,0,0],"sum_hessian":[6.2049575E3,4.4526553E3,1.7523026E3,2.3477188E3,2.1049363E3,1.4447635E3,3.07539E2],"tree_param":{"num_deleted":"0","num_feature":"106","num_nodes":"7","size_leaf_vector":"0"}},{"base_weights":[-1.1448399E-1,1.0578773E-1,-2.4684003E-1,-2.675834E-2,2.5404438E-1,-3.4255338E-1,-4.3510303E-2],"categories":[],"categories_nodes":[],"categories_segments":[],"categories_sizes":[],"default_left":[1,1,1,0,0,0,0],"id":54,"left_children":[1,3,5,-1,-1,-1,-1],"loss_changes":[1.80905E2,4.5781357E1,7.541344E1,0E0,0E0,0E0,0E0],"parents":[2147483647,0,0,1,1,2,2],"right_children":[2,4,6,-1,-1,-1,-1],"split_conditions":[4.595E-1,5.135E-1,2.95E0,-2.6758338E-4,2.5404438E-3,-3.4255337E-3,-4.3510302E-4],"split_indices":[3,55,77,0,0,0,0],"split_type":[0,0,0,0,0,0,0],"sum_hessian":[6.2031934E3,2.3283948E3,3.8747983E3,1.2297656E3,1.0986293E3,2.6341438E3,1.2406544E3],"tree_param":{"num_deleted":"0","num_feature":"106","num_nodes":"7","size_leaf_vector":"0"}},{"base_weights":[1.14484E-1,-1.0578773E-1,2.4684004E-1,2.6758337E-2,-2.5404438E-1,3.425534E-1,4.3510303E-2],"categories":[],"categories_nodes":[],"categories_segments":[],"categories_sizes":[],"default_left":[1,1,1,0,0,0,0],"id":55,"left_children":[1,3,5,-1,-1,-1,-1],"loss_changes":[1.80905E2,4.5781357E1,7.541344E1,0E0,0E0,0E0,0E0],"parents":[2147483647,0,0,1,1,2,2],"right_children":[2,4,6,-1,-1,-1,-1],"split_conditions":[4.595E-1,5.135E-1,2.95E0,2.6758338E-4,-2.5404438E-3,3.4255339E-3,4.3510302E-4],"split_indices":[3,55,77,0,0,0,0],"split_type":[0,0,0,0,0,0,0],"sum_hessian":[6.203193E3,2.3283948E3,3.874798E3,1.2297656E3,1.0986293E3,2.6341438E3,1.2406544E3],"tree_param":{"num_deleted":"0","num_feature":"106","num_nodes":"7","size_leaf_vector":"0"}},{"base_weights":[-1.13373324E-1,-2.8629798E-1,5.2593987E-2,-2.2218482E-1,-5.58348E-1,-1.4813606E-1,1.6219532E-1],"categories":[],"categories_nodes":[],"categories_segments":[],"categories_sizes":[],"default_left":[1,1,1,0,0,0,0],"id":56,"left_children":[1,3,5,-1,-1,-1,-1],"loss_changes":[1.7802173E2,5.2858917E1,6.9670105E1,0E0,0E0,0E0,0E0],"parents":[2147483647,0,0,1,1,2,2],"right_children":[2,4,6,-1,-1,-1,-1],"split_conditions":[1.45E1,2.25E1,-1.45E0,-2.2218481E-3,-5.58348E-3,-1.4813606E-3,1.6219532E-3],"split_indices":[51,80,77,0,0,0,0],"split_type":[0,0,0,0,0,0,0],"sum_hessian":[6.2013574E3,3.0366677E3,3.16469E3,2.4589836E3,5.7768414E2,1.1175657E3,2.0471241E3],"tree_param":{"num_deleted":"0","num_feature":"106","num_nodes":"7","size_leaf_vector":"0"}},{"base_weights":[1.13373294E-1,2.8629792E-1,-5.259399E-2,2.2218478E-1,5.583479E-1,1.4813605E-1,-1.6219532E-1],"categories":[],"categories_nodes":[],"categories_segments":[],"categories_sizes":[],"default_left":[1,1,1,0,0,0,0],"id":57,"left_children":[1,3,5,-1,-1,-1,-1],"loss_changes":[1.7802168E2,5.285887E1,6.967009E1,0E0,0E0,0E0,0E0],"parents":[2147483647,0,0,1,1,2,2],"right_children":[2,4,6,-1,-1,-1,-1],"split_conditions":[1.45E1,2.25E1,-1.45E0,2.2218477E-3,5.5834786E-3,1.4813604E-3,-1.6219532E-3],"split_indices":[51,80,77,0,0,0,0],"split_type":[0,0,0,0,0,0,0],"sum_hessian":[6.201358E3,3.0366677E3,3.16469E3,2.4589836E3,5.7768414E2,1.1175657E3,2.0471241E3],"tree_param":{"num_deleted":"0","num_feature":"106","num_nodes":"7","size_leaf_vector":"0"}},{"base_weights":[-1.12276316E-1,-2.2258452E-1,1.4461793E-1,-1.3546726E-1,-4.4734007E-1,1.5023813E-2,2.9093587E-1],"categories":[],"categories_nodes":[],"categories_segments":[],"categories_sizes":[],"default_left":[1,1,1,0,0,0,0],"id":58,"left_children":[1,3,5,-1,-1,-1,-1],"loss_changes":[1.7573698E2,8.4881775E1,3.532597E1,0E0,0E0,0E0,0E0],"parents":[2147483647,0,0,1,1,2,2],"right_children":[2,4,6,-1,-1,-1,-1],"split_conditions":[1.95E1,1.95E1,5.135E-1,-1.3546726E-3,-4.473401E-3,1.5023812E-4,2.9093586E-3],"split_indices":[28,80,55,0,0,0,0],"split_type":[0,0,0,0,0,0,0],"sum_hessian":[6.199425E3,4.337201E3,1.8622238E3,3.12682E3,1.2103807E3,9.8813403E2,8.740897E2],"tree_param":{"num_deleted":"0","num_feature":"106","num_nodes":"7","size_leaf_vector":"0"}},{"base_weights":[1.1227632E-1,2.2258455E-1,-1.4461794E-1,1.3546729E-1,4.4734004E-1,-1.5023825E-2,-2.9093587E-1],"categories":[],"categories_nodes":[],"categories_segments":[],"categories_sizes":[],"default_left":[1,1,1,0,0,0,0],"id":59,"left_children":[1,3,5,-1,-1,-1,-1],"loss_changes":[1.7573701E2,8.488173E1,3.532597E1,0E0,0E0,0E0,0E0],"parents":[2147483647,0,0,1,1,2,2],"right_children":[2,4,6,-1,-1,-1,-1],"split_conditions":[1.95E1,1.95E1,5.135E-1,1.3546728E-3,4.4734003E-3,-1.5023825E-4,-2.9093586E-3],"split_indices":[28,80,55,0,0,0,0],"split_type":[0,0,0,0,0,0,0],"sum_hessian":[6.199425E3,4.337201E3,1.8622238E3,3.12682E3,1.2103809E3,9.8813403E2,8.740898E2],"tree_param":{"num_deleted":"0","num_feature":"106","num_nodes":"7","size_leaf_vector":"0"}},{"base_weights":[-1.1118848E-1,-2.1602324E-1,1.5494484E-1,-7.067548E-2,-3.4080637E-1,2.1812582E-1,-1.4152955E-1],"categories":[],"categories_nodes":[],"categories_segments":[],"categories_sizes":[],"default_left":[1,1,1,0,0,0,0],"id":60,"left_children":[1,3,5,-1,-1,-1,-1],"loss_changes":[1.7297241E2,8.063548E1,3.285362E1,0E0,0E0,0E0,0E0],"parents":[2147483647,0,0,1,1,2,2],"right_children":[2,4,6,-1,-1,-1,-1],"split_conditions":[2.15E1,1.15E1,2.45E1,-7.0675474E-4,-3.4080637E-3,2.181258E-3,-1.4152954E-3],"split_indices":[51,80,81,0,0,0,0],"split_type":[0,0,0,0,0,0,0],"sum_hessian":[6.1975244E3,4.446253E3,1.7512715E3,2.0546067E3,2.391646E3,1.4438419E3,3.0742957E2],"tree_param":{"num_deleted":"0","num_feature":"106","num_nodes":"7","size_leaf_vector":"0"}},{"base_weights":[1.111885E-1,2.1602327E-1,-1.5494487E-1,7.067552E-2,3.408064E-1,-2.1812585E-1,1.4152955E-1],"categories":[],"categories_nodes":[],"categories_segments":[],"categories_sizes":[],"default_left":[1,1,1,0,0,0,0],"id":61,"left_children":[1,3,5,-1,-1,-1,-1],"loss_changes":[1.7297247E2,8.063551E1,3.285362E1,0E0,0E0,0E0,0E0],"parents":[2147483647,0,0,1,1,2,2],"right_children":[2,4,6,-1,-1,-1,-1],"split_conditions":[2.15E1,1.15E1,2.45E1,7.067552E-4,3.408064E-3,-2.1812585E-3,1.4152954E-3],"split_indices":[51,80,81,0,0,0,0],"split_type":[0,0,0,0,0,0,0],"sum_hessian":[6.1975244E3,4.446253E3,1.7512715E3,2.054607E3,2.391646E3,1.4438419E3,3.0742957E2],"tree_param":{"num_deleted":"0","num_feature":"106","num_nodes":"7","size_leaf_vector":"0"}},{"base_weights":[-1.1011149E-1,-2.7955902E-1,5.236858E-2,-2.1671169E-1,-5.469472E-1,-1.6392332E-1,1.4986551E-1],"categories":[],"categories_nodes":[],"categories_segments":[],"categories_sizes":[],"default_left":[1,1,1,0,0,0,0],"id":62,"left_children":[1,3,5,-1,-1,-1,-1],"loss_changes":[1.706188E2,5.08571E1,6.6750244E1,0E0,0E0,0E0,0E0],"parents":[2147483647,0,0,1,1,2,2],"right_children":[2,4,6,-1,-1,-1,-1],"split_conditions":[1.45E1,2.25E1,-2.05E0,-2.1671169E-3,-5.4694717E-3,-1.6392332E-3,1.4986551E-3],"split_indices":[51,80,77,0,0,0,0],"split_type":[0,0,0,0,0,0,0],"sum_hessian":[6.195612E3,3.0324275E3,3.1631843E3,2.45679E3,5.756374E2,9.826173E2,2.1805671E3],"tree_param":{"num_deleted":"0","num_feature":"106","num_nodes":"7","size_leaf_vector":"0"}},{"base_weights":[1.1011149E-1,2.7955902E-1,-5.2368574E-2,2.1671167E-1,5.469472E-1,1.6392334E-1,-1.4986551E-1],"categories":[],"categories_nodes":[],"categories_segments":[],"categories_sizes":[],"default_left":[1,1,1,0,0,0,0],"id":63,"left_children":[1,3,5,-1,-1,-1,-1],"loss_changes":[1.706188E2,5.0857132E1,6.6750244E1,0E0,0E0,0E0,0E0],"parents":[2147483647,0,0,1,1,2,2],"right_children":[2,4,6,-1,-1,-1,-1],"split_conditions":[1.45E1,2.25E1,-2.05E0,2.1671166E-3,5.4694717E-3,1.6392333E-3,-1.4986551E-3],"split_indices":[51,80,77,0,0,0,0],"split_type":[0,0,0,0,0,0,0],"sum_hessian":[6.195612E3,3.0324275E3,3.1631843E3,2.45679E3,5.756374E2,9.826173E2,2.1805671E3],"tree_param":{"num_deleted":"0","num_feature":"106","num_nodes":"7","size_leaf_vector":"0"}},{"base_weights":[-1.0904836E-1,-2.1695043E-1,1.4207475E-1,-1.3165373E-1,-4.37494E-1,-1.2088106E-1,2.1126649E-1],"categories":[],"categories_nodes":[],"categories_segments":[],"categories_sizes":[],"default_left":[1,1,1,0,0,0,0],"id":64,"left_children":[1,3,5,-1,-1,-1,-1],"loss_changes":[1.6788287E2,8.145752E1,3.390941E1,0E0,0E0,0E0,0E0],"parents":[2147483647,0,0,1,1,2,2],"right_children":[2,4,6,-1,-1,-1,-1],"split_conditions":[1.95E1,1.95E1,3.585E-1,-1.3165373E-3,-4.37494E-3,-1.2088106E-3,2.1126647E-3],"split_indices":[28,80,55,0,0,0,0],"split_type":[0,0,0,0,0,0,0],"sum_hessian":[6.193555E3,4.332228E3,1.8613271E3,3.1251519E3,1.2070764E3,3.875891E2,1.473738E3],"tree_param":{"num_deleted":"0","num_feature":"106","num_nodes":"7","size_leaf_vector":"0"}},{"base_weights":[1.09048344E-1,2.1695043E-1,-1.420748E-1,1.3165373E-1,4.3749404E-1,1.2088112E-1,-2.1126655E-1],"categories":[],"categories_nodes":[],"categories_segments":[],"categories_sizes":[],"default_left":[1,1,1,0,0,0,0],"id":65,"left_children":[1,3,5,-1,-1,-1,-1],"loss_changes":[1.6788293E2,8.1457504E1,3.390943E1,0E0,0E0,0E0,0E0],"parents":[2147483647,0,0,1,1,2,2],"right_children":[2,4,6,-1,-1,-1,-1],"split_conditions":[1.95E1,1.95E1,3.585E-1,1.3165373E-3,4.3749404E-3,1.2088112E-3,-2.1126654E-3],"split_indices":[28,80,55,0,0,0,0],"split_type":[0,0,0,0,0,0,0],"sum_hessian":[6.193555E3,4.332228E3,1.8613271E3,3.1251519E3,1.2070764E3,3.875891E2,1.473738E3],"tree_param":{"num_deleted":"0","num_feature":"106","num_nodes":"7","size_leaf_vector":"0"}},{"base_weights":[-1.079946E-1,-2.749551E-1,5.198757E-2,-3.362115E-1,-3.7899148E-3,-7.8787014E-2,2.0836276E-1],"categories":[],"categories_nodes":[],"categories_segments":[],"categories_sizes":[],"default_left":[1,1,1,0,0,0,0],"id":66,"left_children":[1,3,5,-1,-1,-1,-1],"loss_changes":[1.654208E2,5.0334366E1,6.4703285E1,0E0,0E0,0E0,0E0],"parents":[2147483647,0,0,1,1,2,2],"right_children":[2,4,6,-1,-1,-1,-1],"split_conditions":[1.45E1,5.25E0,5.245E-1,-3.362115E-3,-3.7899146E-5,-7.8787014E-4,2.0836275E-3],"split_indices":[51,77,55,0,0,0,0],"split_type":[0,0,0,0,0,0,0],"sum_hessian":[6.1915195E3,3.0293318E3,3.1621877E3,2.4709111E3,5.584206E2,1.7223252E3,1.4398625E3],"tree_param":{"num_deleted":"0","num_feature":"106","num_nodes":"7","size_leaf_vector":"0"}},{"base_weights":[1.0799459E-1,2.7495506E-1,-5.1987562E-2,3.362115E-1,3.789829E-3,7.878701E-2,-2.0836274E-1],"categories":[],"categories_nodes":[],"categories_segments":[],"categories_sizes":[],"default_left":[1,1,1,0,0,0,0],"id":67,"left_children":[1,3,5,-1,-1,-1,-1],"loss_changes":[1.6542078E2,5.033441E1,6.470328E1,0E0,0E0,0E0,0E0],"parents":[2147483647,0,0,1,1,2,2],"right_children":[2,4,6,-1,-1,-1,-1],"split_conditions":[1.45E1,5.25E0,5.245E-1,3.362115E-3,3.789829E-5,7.8787E-4,-2.0836273E-3],"split_indices":[51,77,55,0,0,0,0],"split_type":[0,0,0,0,0,0,0],"sum_hessian":[6.1915195E3,3.0293318E3,3.1621877E3,2.4709111E3,5.5842065E2,1.7223252E3,1.4398624E3],"tree_param":{"num_deleted":"0","num_feature":"106","num_nodes":"7","size_leaf_vector":"0"}},{"base_weights":[-1.0695025E-1,-2.0888029E-1,1.51566E-1,-6.699098E-2,-3.3092344E-1,2.1293844E-1,-1.3637835E-1],"categories":[],"categories_nodes":[],"categories_segments":[],"categories_sizes":[],"default_left":[1,1,1,0,0,0,0],"id":68,"left_children":[1,3,5,-1,-1,-1,-1],"loss_changes":[1.631549E2,7.6869156E1,3.0975662E1,0E0,0E0,0E0,0E0],"parents":[2147483647,0,0,1,1,2,2],"right_children":[2,4,6,-1,-1,-1,-1],"split_conditions":[2.15E1,1.15E1,2.45E1,-6.6990976E-4,-3.3092343E-3,2.1293843E-3,-1.3637835E-3],"split_indices":[51,80,81,0,0,0,0],"split_type":[0,0,0,0,0,0,0],"sum_hessian":[6.189502E3,4.4393203E3,1.7501818E3,2.0534712E3,2.385849E3,1.4429021E3,3.0727963E2],"tree_param":{"num_deleted":"0","num_feature":"106","num_nodes":"7","size_leaf_vector":"0"}},{"base_weights":[1.06950246E-1,2.0888026E-1,-1.5156597E-1,6.699095E-2,3.3092344E-1,-2.1293841E-1,1.3637835E-1],"categories":[],"categories_nodes":[],"categories_segments":[],"categories_sizes":[],"default_left":[1,1,1,0,0,0,0],"id":69,"left_children":[1,3,5,-1,-1,-1,-1],"loss_changes":[1.6315486E2,7.686917E1,3.0975655E1,0E0,0E0,0E0,0E0],"parents":[2147483647,0,0,1,1,2,2],"right_children":[2,4,6,-1,-1,-1,-1],"split_conditions":[2.15E1,1.15E1,2.45E1,6.6990947E-4,3.3092343E-3,-2.129384E-3,1.3637835E-3],"split_indices":[51,80,81,0,0,0,0],"split_type":[0,0,0,0,0,0,0],"sum_hessian":[6.189502E3,4.4393203E3,1.7501818E3,2.0534712E3,2.385849E3,1.4429021E3,3.0727963E2],"tree_param":{"num_deleted":"0","num_feature":"106","num_nodes":"7","size_leaf_vector":"0"}},{"base_weights":[-1.0591695E-1,1.0161632E-1,-2.3088898E-1,-2.349447E-2,2.4166614E-1,-3.2312417E-1,-3.5683524E-2],"categories":[],"categories_nodes":[],"categories_segments":[],"categories_sizes":[],"default_left":[1,1,1,0,0,0,0],"id":70,"left_children":[1,3,5,-1,-1,-1,-1],"loss_changes":[1.6052591E2,4.0772064E1,6.953784E1,0E0,0E0,0E0,0E0],"parents":[2147483647,0,0,1,1,2,2],"right_children":[2,4,6,-1,-1,-1,-1],"split_conditions":[4.595E-1,5.135E-1,2.95E0,-2.349447E-4,2.4166612E-3,-3.2312416E-3,-3.5683523E-4],"split_indices":[3,55,77,0,0,0,0],"split_type":[0,0,0,0,0,0,0],"sum_hessian":[6.1874385E3,2.3256174E3,3.8618213E3,1.2287604E3,1.0968572E3,2.6221785E3,1.2396428E3],"tree_param":{"num_deleted":"0","num_feature":"106","num_nodes":"7","size_leaf_vector":"0"}},{"base_weights":[1.05916984E-1,-1.01616286E-1,2.30889E-1,2.3494514E-2,-2.4166611E-1,3.231242E-1,3.568356E-2],"categories":[],"categories_nodes":[],"categories_segments":[],"categories_sizes":[],"default_left":[1,1,1,0,0,0,0],"id":71,"left_children":[1,3,5,-1,-1,-1,-1],"loss_changes":[1.6052591E2,4.077207E1,6.953783E1,0E0,0E0,0E0,0E0],"parents":[2147483647,0,0,1,1,2,2],"right_children":[2,4,6,-1,-1,-1,-1],"split_conditions":[4.595E-1,5.135E-1,2.95E0,2.3494514E-4,-2.416661E-3,3.2312418E-3,3.568356E-4],"split_indices":[3,55,77,0,0,0,0],"split_type":[0,0,0,0,0,0,0],"sum_hessian":[6.1874385E3,2.3256174E3,3.8618213E3,1.2287604E3,1.096857E3,2.6221785E3,1.2396427E3],"tree_param":{"num_deleted":"0","num_feature":"106","num_nodes":"7","size_leaf_vector":"0"}},{"base_weights":[-1.0489478E-1,-2.683936E-1,5.1605605E-2,-2.0702837E-1,-5.3053457E-1,-1.3871033E-1,1.5547045E-1],"categories":[],"categories_nodes":[],"categories_segments":[],"categories_sizes":[],"default_left":[1,1,1,0,0,0,0],"id":72,"left_children":[1,3,5,-1,-1,-1,-1],"loss_changes":[1.5830644E2,4.8561966E1,6.2518005E1,0E0,0E0,0E0,0E0],"parents":[2147483647,0,0,1,1,2,2],"right_children":[2,4,6,-1,-1,-1,-1],"split_conditions":[1.45E1,2.25E1,-1.45E0,-2.0702838E-3,-5.3053456E-3,-1.3871033E-3,1.5547044E-3],"split_indices":[51,80,77,0,0,0,0],"split_type":[0,0,0,0,0,0,0],"sum_hessian":[6.1852944E3,3.024661E3,3.1606335E3,2.4523696E3,5.722914E2,1.1157896E3,2.044844E3],"tree_param":{"num_deleted":"0","num_feature":"106","num_nodes":"7","size_leaf_vector":"0"}},{"base_weights":[1.0489479E-1,2.6839364E-1,-5.1605616E-2,2.070284E-1,5.305346E-1,1.3871035E-1,-1.5547048E-1],"categories":[],"categories_nodes":[],"categories_segments":[],"categories_sizes":[],"default_left":[1,1,1,0,0,0,0],"id":73,"left_children":[1,3,5,-1,-1,-1,-1],"loss_changes":[1.5830652E2,4.856195E1,6.2518024E1,0E0,0E0,0E0,0E0],"parents":[2147483647,0,0,1,1,2,2],"right_children":[2,4,6,-1,-1,-1,-1],"split_conditions":[1.45E1,2.25E1,-1.45E0,2.070284E-3,5.305346E-3,1.3871035E-3,-1.5547047E-3],"split_indices":[51,80,77,0,0,0,0],"split_type":[0,0,0,0,0,0,0],"sum_hessian":[6.1852944E3,3.024661E3,3.1606335E3,2.4523696E3,5.722914E2,1.1157896E3,2.044844E3],"tree_param":{"num_deleted":"0","num_feature":"106","num_nodes":"7","size_leaf_vector":"0"}},{"base_weights":[-1.0388511E-1,-2.005387E-1,1.5727234E-1,-1.0224914E-1,-3.7248757E-1,-1.0911297E-1,2.2555839E-1],"categories":[],"categories_nodes":[],"categories_segments":[],"categories_sizes":[],"default_left":[1,1,1,0,0,0,0],"id":74,"left_children":[1,3,5,-1,-1,-1,-1],"loss_changes":[1.5612833E2,7.625255E1,3.0421253E1,0E0,0E0,0E0,0E0],"parents":[2147483647,0,0,1,1,2,2],"right_children":[2,4,6,-1,-1,-1,-1],"split_conditions":[2.15E1,1.65E1,3.585E-1,-1.0224914E-3,-3.7248756E-3,-1.0911297E-3,2.2555839E-3],"split_indices":[29,80,55,0,0,0,0],"split_type":[0,0,0,0,0,0,0],"sum_hessian":[6.183057E3,4.5130303E3,1.670027E3,2.8725916E3,1.6404385E3,3.406288E2,1.3293981E3],"tree_param":{"num_deleted":"0","num_feature":"106","num_nodes":"7","size_leaf_vector":"0"}},{"base_weights":[1.0388511E-1,2.0053871E-1,-1.5727235E-1,1.0224915E-1,3.7248757E-1,1.0911291E-1,-2.2555839E-1],"categories":[],"categories_nodes":[],"categories_segments":[],"categories_sizes":[],"default_left":[1,1,1,0,0,0,0],"id":75,"left_children":[1,3,5,-1,-1,-1,-1],"loss_changes":[1.5612833E2,7.625253E1,3.042125E1,0E0,0E0,0E0,0E0],"parents":[2147483647,0,0,1,1,2,2],"right_children":[2,4,6,-1,-1,-1,-1],"split_conditions":[2.15E1,1.65E1,3.585E-1,1.0224915E-3,3.7248756E-3,1.091129E-3,-2.2555839E-3],"split_indices":[29,80,55,0,0,0,0],"split_type":[0,0,0,0,0,0,0],"sum_hessian":[6.183057E3,4.5130303E3,1.670027E3,2.8725916E3,1.6404385E3,3.406288E2,1.3293981E3],"tree_param":{"num_deleted":"0","num_feature":"106","num_nodes":"7","size_leaf_vector":"0"}},{"base_weights":[-1.028831E-1,1.2212721E-1,-2.1337326E-1,-5.0866425E-2,2.2278894E-1,-1.4887978E-1,-4.7678745E-1],"categories":[],"categories_nodes":[],"categories_segments":[],"categories_sizes":[],"default_left":[1,1,1,0,0,0,0],"id":76,"left_children":[1,3,5,-1,-1,-1,-1],"loss_changes":[1.5371698E2,3.547493E1,7.036981E1,0E0,0E0,0E0,0E0],"parents":[2147483647,0,0,1,1,2,2],"right_children":[2,4,6,-1,-1,-1,-1],"split_conditions":[-1.6500001E0,-1.45E0,2.25E1,-5.0866423E-4,2.2278894E-3,-1.4887978E-3,-4.7678743E-3],"split_indices":[25,77,80,0,0,0,0],"split_type":[0,0,0,0,0,0,0],"sum_hessian":[6.180903E3,2.0355182E3,4.145385E3,7.489295E2,1.2865887E3,3.3313203E3,8.140645E2],"tree_param":{"num_deleted":"0","num_feature":"106","num_nodes":"7","size_leaf_vector":"0"}},{"base_weights":[1.028831E-1,-1.2212722E-1,2.1337326E-1,5.086642E-2,-2.2278894E-1,1.4887978E-1,4.7678745E-1],"categories":[],"categories_nodes":[],"categories_segments":[],"categories_sizes":[],"default_left":[1,1,1,0,0,0,0],"id":77,"left_children":[1,3,5,-1,-1,-1,-1],"loss_changes":[1.53717E2,3.547493E1,7.036986E1,0E0,0E0,0E0,0E0],"parents":[2147483647,0,0,1,1,2,2],"right_children":[2,4,6,-1,-1,-1,-1],"split_conditions":[-1.6500001E0,-1.45E0,2.25E1,5.086642E-4,-2.2278894E-3,1.4887978E-3,4.7678743E-3],"split_indices":[25,77,80,0,0,0,0],"split_type":[0,0,0,0,0,0,0],"sum_hessian":[6.1809033E3,2.0355182E3,4.145385E3,7.489295E2,1.2865887E3,3.3313203E3,8.140645E2],"tree_param":{"num_deleted":"0","num_feature":"106","num_nodes":"7","size_leaf_vector":"0"}},{"base_weights":[-1.01893134E-1,-2.6209638E-1,5.129494E-2,-3.218957E-1,1.7582014E-3,-7.7077724E-2,1.9921742E-1],"categories":[],"categories_nodes":[],"categories_segments":[],"categories_sizes":[],"default_left":[1,1,1,0,0,0,0],"id":78,"left_children":[1,3,5,-1,-1,-1,-1],"loss_changes":[1.5166882E2,4.766385E1,6.001761E1,0E0,0E0,0E0,0E0],"parents":[2147483647,0,0,1,1,2,2],"right_children":[2,4,6,-1,-1,-1,-1],"split_conditions":[1.45E1,5.25E0,5.5E-1,-3.2189568E-3,1.7582013E-5,-7.7077723E-4,1.9921742E-3],"split_indices":[51,77,77,0,0,0,0],"split_type":[0,0,0,0,0,0,0],"sum_hessian":[6.1786167E3,3.0198076E3,3.158809E3,2.461679E3,5.5812854E2,1.6914148E3,1.4673942E3],"tree_param":{"num_deleted":"0","num_feature":"106","num_nodes":"7","size_leaf_vector":"0"}},{"base_weights":[1.0189317E-1,2.6209643E-1,-5.129492E-2,3.2189575E-1,-1.7581187E-3,7.707774E-2,-1.992174E-1],"categories":[],"categories_nodes":[],"categories_segments":[],"categories_sizes":[],"default_left":[1,1,1,0,0,0,0],"id":79,"left_children":[1,3,5,-1,-1,-1,-1],"loss_changes":[1.5166884E2,4.7663834E1,6.001761E1,0E0,0E0,0E0,0E0],"parents":[2147483647,0,0,1,1,2,2],"right_children":[2,4,6,-1,-1,-1,-1],"split_conditions":[1.45E1,5.25E0,5.5E-1,3.2189575E-3,-1.7581187E-5,7.7077735E-4,-1.992174E-3],"split_indices":[51,77,77,0,0,0,0],"split_type":[0,0,0,0,0,0,0],"sum_hessian":[6.1786167E3,3.0198076E3,3.158809E3,2.461679E3,5.581285E2,1.6914148E3,1.4673942E3],"tree_param":{"num_deleted":"0","num_feature":"106","num_nodes":"7","size_leaf_vector":"0"}},{"base_weights":[-1.0091103E-1,-2.029903E-1,1.3618541E-1,-1.2147445E-1,-4.149339E-1,-1.1273901E-1,2.017179E-1],"categories":[],"categories_nodes":[],"categories_segments":[],"categories_sizes":[],"default_left":[1,1,1,0,0,0,0],"id":80,"left_children":[1,3,5,-1,-1,-1,-1],"loss_changes":[1.4953719E2,7.456171E1,3.0360474E1,0E0,0E0,0E0,0E0],"parents":[2147483647,0,0,1,1,2,2],"right_children":[2,4,6,-1,-1,-1,-1],"split_conditions":[1.95E1,1.95E1,3.585E-1,-1.2147445E-3,-4.1493387E-3,-1.1273901E-3,2.017179E-3],"split_indices":[28,80,55,0,0,0,0],"split_type":[0,0,0,0,0,0,0],"sum_hessian":[6.176409E3,4.3176406E3,1.8587688E3,3.1194421E3,1.1981986E3,3.8721533E2,1.4715535E3],"tree_param":{"num_deleted":"0","num_feature":"106","num_nodes":"7","size_leaf_vector":"0"}},{"base_weights":[1.00911036E-1,2.029903E-1,-1.361854E-1,1.2147447E-1,4.1493386E-1,1.1273895E-1,-2.0171787E-1],"categories":[],"categories_nodes":[],"categories_segments":[],"categories_sizes":[],"default_left":[1,1,1,0,0,0,0],"id":81,"left_children":[1,3,5,-1,-1,-1,-1],"loss_changes":[1.4953717E2,7.456169E1,3.0360455E1,0E0,0E0,0E0,0E0],"parents":[2147483647,0,0,1,1,2,2],"right_children":[2,4,6,-1,-1,-1,-1],"split_conditions":[1.95E1,1.95E1,3.585E-1,1.2147446E-3,4.1493387E-3,1.1273895E-3,-2.0171786E-3],"split_indices":[28,80,55,0,0,0,0],"split_type":[0,0,0,0,0,0,0],"sum_hessian":[6.176409E3,4.3176406E3,1.8587688E3,3.1194421E3,1.1981986E3,3.8721533E2,1.4715535E3],"tree_param":{"num_deleted":"0","num_feature":"106","num_nodes":"7","size_leaf_vector":"0"}},{"base_weights":[-9.9940374E-2,-1.9693197E-1,1.4563426E-1,-6.0694948E-2,-3.1454152E-1,2.0421694E-1,-1.2908147E-1],"categories":[],"categories_nodes":[],"categories_segments":[],"categories_sizes":[],"default_left":[1,1,1,0,0,0,0],"id":82,"left_children":[1,3,5,-1,-1,-1,-1],"loss_changes":[1.4711159E2,7.0916275E1,2.8173199E1,0E0,0E0,0E0,0E0],"parents":[2147483647,0,0,1,1,2,2],"right_children":[2,4,6,-1,-1,-1,-1],"split_conditions":[2.15E1,1.15E1,2.45E1,-6.0694944E-4,-3.145415E-3,2.0421694E-3,-1.2908147E-3],"split_indices":[51,80,81,0,0,0,0],"split_type":[0,0,0,0,0,0,0],"sum_hessian":[6.174108E3,4.4261597E3,1.747948E3,2.0513848E3,2.3747751E3,1.440929E3,3.070191E2],"tree_param":{"num_deleted":"0","num_feature":"106","num_nodes":"7","size_leaf_vector":"0"}},{"base_weights":[9.994038E-2,1.9693197E-1,-1.4563425E-1,6.0694944E-2,3.1454152E-1,-2.0421691E-1,1.290814E-1],"categories":[],"categories_nodes":[],"categories_segments":[],"categories_sizes":[],"default_left":[1,1,1,0,0,0,0],"id":83,"left_children":[1,3,5,-1,-1,-1,-1],"loss_changes":[1.4711154E2,7.0916336E1,2.8173183E1,0E0,0E0,0E0,0E0],"parents":[2147483647,0,0,1,1,2,2],"right_children":[2,4,6,-1,-1,-1,-1],"split_conditions":[2.15E1,1.15E1,2.45E1,6.0694944E-4,3.145415E-3,-2.042169E-3,1.2908139E-3],"split_indices":[51,80,81,0,0,0,0],"split_type":[0,0,0,0,0,0,0],"sum_hessian":[6.174108E3,4.42616E3,1.747948E3,2.0513848E3,2.3747751E3,1.4409288E3,3.070191E2],"tree_param":{"num_deleted":"0","num_feature":"106","num_nodes":"7","size_leaf_vector":"0"}},{"base_weights":[-9.897847E-2,-2.560159E-1,5.1017664E-2,-3.1494948E-1,3.5445606E-3,-7.494015E-2,1.9614676E-1],"categories":[],"categories_nodes":[],"categories_segments":[],"categories_sizes":[],"default_left":[1,1,1,0,0,0,0],"id":84,"left_children":[1,3,5,-1,-1,-1,-1],"loss_changes":[1.45414E2,4.613321E1,5.7743896E1,0E0,0E0,0E0,0E0],"parents":[2147483647,0,0,1,1,2,2],"right_children":[2,4,6,-1,-1,-1,-1],"split_conditions":[1.45E1,5.25E0,5.5E-1,-3.1494948E-3,3.5445606E-5,-7.494015E-4,1.9614676E-3],"split_indices":[51,77,77,0,0,0,0],"split_type":[0,0,0,0,0,0,0],"sum_hessian":[6.171824E3,3.0147966E3,3.1570276E3,2.45677E3,5.580266E2,1.6904053E3,1.4666223E3],"tree_param":{"num_deleted":"0","num_feature":"106","num_nodes":"7","size_leaf_vector":"0"}},{"base_weights":[9.897847E-2,2.5601587E-1,-5.1017642E-2,3.1494945E-1,-3.5445618E-3,7.494016E-2,-1.9614673E-1],"categories":[],"categories_nodes":[],"categories_segments":[],"categories_sizes":[],"default_left":[1,1,1,0,0,0,0],"id":85,"left_children":[1,3,5,-1,-1,-1,-1],"loss_changes":[1.4541394E2,4.613321E1,5.7743885E1,0E0,0E0,0E0,0E0],"parents":[2147483647,0,0,1,1,2,2],"right_children":[2,4,6,-1,-1,-1,-1],"split_conditions":[1.45E1,5.25E0,5.5E-1,3.1494945E-3,-3.5445617E-5,7.494016E-4,-1.9614673E-3],"split_indices":[51,77,77,0,0,0,0],"split_type":[0,0,0,0,0,0,0],"sum_hessian":[6.171824E3,3.0147966E3,3.1570276E3,2.45677E3,5.580266E2,1.6904053E3,1.4666223E3],"tree_param":{"num_deleted":"0","num_feature":"106","num_nodes":"7","size_leaf_vector":"0"}},{"base_weights":[-9.802584E-2,-1.9070558E-1,1.5203369E-1,-9.5999695E-2,-3.5701957E-1,-1.0359713E-1,2.1760078E-1],"categories":[],"categories_nodes":[],"categories_segments":[],"categories_sizes":[],"default_left":[1,1,1,0,0,0,0],"id":86,"left_children":[1,3,5,-1,-1,-1,-1],"loss_changes":[1.4303384E2,7.088278E1,2.7998657E1,0E0,0E0,0E0,0E0],"parents":[2147483647,0,0,1,1,2,2],"right_children":[2,4,6,-1,-1,-1,-1],"split_conditions":[2.15E1,1.65E1,3.585E-1,-9.5999695E-4,-3.5701958E-3,-1.0359712E-3,2.1760077E-3],"split_indices":[29,80,55,0,0,0,0],"split_type":[0,0,0,0,0,0,0],"sum_hessian":[6.1695312E3,4.5014087E3,1.6681228E3,2.8691667E3,1.6322418E3,3.4040054E2,1.3277223E3],"tree_param":{"num_deleted":"0","num_feature":"106","num_nodes":"7","size_leaf_vector":"0"}},{"base_weights":[9.802586E-2,1.907056E-1,-1.5203369E-1,9.59997E-2,3.5701963E-1,1.0359713E-1,-2.1760078E-1],"categories":[],"categories_nodes":[],"categories_segments":[],"categories_sizes":[],"default_left":[1,1,1,0,0,0,0],"id":87,"left_children":[1,3,5,-1,-1,-1,-1],"loss_changes":[1.4303384E2,7.08828E1,2.7998657E1,0E0,0E0,0E0,0E0],"parents":[2147483647,0,0,1,1,2,2],"right_children":[2,4,6,-1,-1,-1,-1],"split_conditions":[2.15E1,1.65E1,3.585E-1,9.59997E-4,3.5701962E-3,1.0359712E-3,-2.1760077E-3],"split_indices":[29,80,55,0,0,0,0],"split_type":[0,0,0,0,0,0,0],"sum_hessian":[6.1695312E3,4.5014087E3,1.6681228E3,2.8691667E3,1.6322418E3,3.404005E2,1.3277223E3],"tree_param":{"num_deleted":"0","num_feature":"106","num_nodes":"7","size_leaf_vector":"0"}},{"base_weights":[-9.70833E-2,-2.5191385E-1,5.0685257E-2,-3.1019658E-1,4.4420864E-3,-1.605004E-1,1.3490963E-1],"categories":[],"categories_nodes":[],"categories_segments":[],"categories_sizes":[],"default_left":[1,1,1,0,0,0,0],"id":88,"left_children":[1,3,5,-1,-1,-1,-1],"loss_changes":[1.4113551E2,4.5008377E1,5.617352E1,0E0,0E0,0E0,0E0],"parents":[2147483647,0,0,1,1,2,2],"right_children":[2,4,6,-1,-1,-1,-1],"split_conditions":[1.45E1,5.25E0,-2.45E0,-3.1019656E-3,4.4420864E-5,-1.6050041E-3,1.3490963E-3],"split_indices":[51,77,77,0,0,0,0],"split_type":[0,0,0,0,0,0,0],"sum_hessian":[6.1671987E3,3.0112908E3,3.155908E3,2.4533171E3,5.5797363E2,8.9952295E2,2.256385E3],"tree_param":{"num_deleted":"0","num_feature":"106","num_nodes":"7","size_leaf_vector":"0"}},{"base_weights":[9.7083285E-2,2.5191385E-1,-5.068528E-2,3.1019658E-1,-4.4420543E-3,1.605004E-1,-1.3490966E-1],"categories":[],"categories_nodes":[],"categories_segments":[],"categories_sizes":[],"default_left":[1,1,1,0,0,0,0],"id":89,"left_children":[1,3,5,-1,-1,-1,-1],"loss_changes":[1.4113556E2,4.500836E1,5.6173527E1,0E0,0E0,0E0,0E0],"parents":[2147483647,0,0,1,1,2,2],"right_children":[2,4,6,-1,-1,-1,-1],"split_conditions":[1.45E1,5.25E0,-2.45E0,3.1019656E-3,-4.4420543E-5,1.6050041E-3,-1.3490965E-3],"split_indices":[51,77,77,0,0,0,0],"split_type":[0,0,0,0,0,0,0],"sum_hessian":[6.1671987E3,3.0112908E3,3.155908E3,2.4533171E3,5.579737E2,8.9952295E2,2.256385E3],"tree_param":{"num_deleted":"0","num_feature":"106","num_nodes":"7","size_leaf_vector":"0"}},{"base_weights":[-9.61511E-2,-1.9469763E-1,1.3243859E-1,-1.1542825E-1,-4.015771E-1,2.9485366E-1,3.3539917E-2],"categories":[],"categories_nodes":[],"categories_segments":[],"categories_sizes":[],"default_left":[1,1,1,0,0,0,0],"id":90,"left_children":[1,3,5,-1,-1,-1,-1],"loss_changes":[1.3892072E2,7.06147E1,2.983411E1,0E0,0E0,0E0,0E0],"parents":[2147483647,0,0,1,1,2,2],"right_children":[2,4,6,-1,-1,-1,-1],"split_conditions":[1.95E1,1.95E1,-6.25E0,-1.1542825E-3,-4.0157707E-3,2.9485365E-3,3.3539918E-4],"split_indices":[28,80,25,0,0,0,0],"split_type":[0,0,0,0,0,0,0],"sum_hessian":[6.164786E3,4.307809E3,1.8569768E3,3.1155798E3,1.1922294E3,7.020549E2,1.154922E3],"tree_param":{"num_deleted":"0","num_feature":"106","num_nodes":"7","size_leaf_vector":"0"}},{"base_weights":[9.615109E-2,1.9469762E-1,-1.3243859E-1,1.1542822E-1,4.0157714E-1,-2.9485366E-1,-3.353992E-2],"categories":[],"categories_nodes":[],"categories_segments":[],"categories_sizes":[],"default_left":[1,1,1,0,0,0,0],"id":91,"left_children":[1,3,5,-1,-1,-1,-1],"loss_changes":[1.3892073E2,7.0614746E1,2.983411E1,0E0,0E0,0E0,0E0],"parents":[2147483647,0,0,1,1,2,2],"right_children":[2,4,6,-1,-1,-1,-1],"split_conditions":[1.95E1,1.95E1,-6.25E0,1.1542821E-3,4.015771E-3,-2.9485365E-3,-3.353992E-4],"split_indices":[28,80,25,0,0,0,0],"split_type":[0,0,0,0,0,0,0],"sum_hessian":[6.164786E3,4.307809E3,1.8569768E3,3.1155798E3,1.1922294E3,7.020549E2,1.154922E3],"tree_param":{"num_deleted":"0","num_feature":"106","num_nodes":"7","size_leaf_vector":"0"}},{"base_weights":[-9.5225476E-2,-2.478048E-1,5.0265867E-2,-1.8943581E-1,-4.995521E-1,-7.06901E-2,1.9486177E-1],"categories":[],"categories_nodes":[],"categories_segments":[],"categories_sizes":[],"default_left":[1,1,1,0,0,0,0],"id":92,"left_children":[1,3,5,-1,-1,-1,-1],"loss_changes":[1.3683614E2,4.411508E1,5.520914E1,0E0,0E0,0E0,0E0],"parents":[2147483647,0,0,1,1,2,2],"right_children":[2,4,6,-1,-1,-1,-1],"split_conditions":[1.45E1,2.25E1,5.245E-1,-1.8943581E-3,-4.9955207E-3,-7.06901E-4,1.9486176E-3],"split_indices":[51,80,55,0,0,0,0],"split_type":[0,0,0,0,0,0,0],"sum_hessian":[6.162514E3,3.007643E3,3.1548713E3,2.4429775E3,5.646654E2,1.7181404E3,1.436731E3],"tree_param":{"num_deleted":"0","num_feature":"106","num_nodes":"7","size_leaf_vector":"0"}},{"base_weights":[9.522548E-2,2.478048E-1,-5.0265856E-2,1.8943578E-1,4.995522E-1,7.069012E-2,-1.9486177E-1],"categories":[],"categories_nodes":[],"categories_segments":[],"categories_sizes":[],"default_left":[1,1,1,0,0,0,0],"id":93,"left_children":[1,3,5,-1,-1,-1,-1],"loss_changes":[1.3683612E2,4.4115112E1,5.5209152E1,0E0,0E0,0E0,0E0],"parents":[2147483647,0,0,1,1,2,2],"right_children":[2,4,6,-1,-1,-1,-1],"split_conditions":[1.45E1,2.25E1,5.245E-1,1.8943577E-3,4.9955216E-3,7.0690113E-4,-1.9486176E-3],"split_indices":[51,80,55,0,0,0,0],"split_type":[0,0,0,0,0,0,0],"sum_hessian":[6.162514E3,3.007643E3,3.1548713E3,2.4429775E3,5.646654E2,1.7181404E3,1.436731E3],"tree_param":{"num_deleted":"0","num_feature":"106","num_nodes":"7","size_leaf_vector":"0"}},{"base_weights":[-9.431204E-2,-1.8737894E-1,1.4092505E-1,-2.239391E-3,-2.684845E-1,1.9748291E-1,-1.2416968E-1],"categories":[],"categories_nodes":[],"categories_segments":[],"categories_sizes":[],"default_left":[1,1,1,0,0,0,0],"id":94,"left_children":[1,3,5,-1,-1,-1,-1],"loss_changes":[1.3490948E2,6.629396E1,2.6219097E1,0E0,0E0,0E0,0E0],"parents":[2147483647,0,0,1,1,2,2],"right_children":[2,4,6,-1,-1,-1,-1],"split_conditions":[2.15E1,8.5E0,2.45E1,-2.239391E-5,-2.684845E-3,1.974829E-3,-1.2416968E-3],"split_indices":[51,103,81,0,0,0,0],"split_type":[0,0,0,0,0,0,0],"sum_hessian":[6.1600728E3,4.4139746E3,1.7460984E3,1.3449304E3,3.0690442E3,1.439283E3,3.068154E2],"tree_param":{"num_deleted":"0","num_feature":"106","num_nodes":"7","size_leaf_vector":"0"}},{"base_weights":[9.431205E-2,1.8737897E-1,-1.4092506E-1,2.239427E-3,2.684845E-1,-1.9748291E-1,1.2416965E-1],"categories":[],"categories_nodes":[],"categories_segments":[],"categories_sizes":[],"default_left":[1,1,1,0,0,0,0],"id":95,"left_children":[1,3,5,-1,-1,-1,-1],"loss_changes":[1.3490947E2,6.629396E1,2.6219093E1,0E0,0E0,0E0,0E0],"parents":[2147483647,0,0,1,1,2,2],"right_children":[2,4,6,-1,-1,-1,-1],"split_conditions":[2.15E1,8.5E0,2.45E1,2.239427E-5,2.684845E-3,-1.974829E-3,1.2416964E-3],"split_indices":[51,103,81,0,0,0,0],"split_type":[0,0,0,0,0,0,0],"sum_hessian":[6.1600728E3,4.4139746E3,1.7460984E3,1.3449304E3,3.0690442E3,1.439283E3,3.068154E2],"tree_param":{"num_deleted":"0","num_feature":"106","num_nodes":"7","size_leaf_vector":"0"}},{"base_weights":[-9.3405314E-2,-1.8285401E-1,1.4761353E-1,-9.100471E-2,-3.4471357E-1,-1.0082465E-1,2.1137714E-1],"categories":[],"categories_nodes":[],"categories_segments":[],"categories_sizes":[],"default_left":[1,1,1,0,0,0,0],"id":96,"left_children":[1,3,5,-1,-1,-1,-1],"loss_changes":[1.3280168E2,6.675223E1,2.643755E1,0E0,0E0,0E0,0E0],"parents":[2147483647,0,0,1,1,2,2],"right_children":[2,4,6,-1,-1,-1,-1],"split_conditions":[2.15E1,1.65E1,3.585E-1,-9.1004703E-4,-3.4471357E-3,-1.0082464E-3,2.1137714E-3],"split_indices":[29,80,55,0,0,0,0],"split_type":[0,0,0,0,0,0,0],"sum_hessian":[6.157718E3,4.491165E3,1.666553E3,2.8662415E3,1.6249236E3,3.4025558E2,1.3262974E3],"tree_param":{"num_deleted":"0","num_feature":"106","num_nodes":"7","size_leaf_vector":"0"}},{"base_weights":[9.3405336E-2,1.8285403E-1,-1.476135E-1,9.100473E-2,3.4471357E-1,1.008247E-1,-2.1137713E-1],"categories":[],"categories_nodes":[],"categories_segments":[],"categories_sizes":[],"default_left":[1,1,1,0,0,0,0],"id":97,"left_children":[1,3,5,-1,-1,-1,-1],"loss_changes":[1.3280167E2,6.675221E1,2.6437557E1,0E0,0E0,0E0,0E0],"parents":[2147483647,0,0,1,1,2,2],"right_children":[2,4,6,-1,-1,-1,-1],"split_conditions":[2.15E1,1.65E1,3.585E-1,9.1004727E-4,3.4471357E-3,1.0082469E-3,-2.1137712E-3],"split_indices":[29,80,55,0,0,0,0],"split_type":[0,0,0,0,0,0,0],"sum_hessian":[6.157718E3,4.491165E3,1.666553E3,2.8662415E3,1.6249236E3,3.4025558E2,1.3262974E3],"tree_param":{"num_deleted":"0","num_feature":"106","num_nodes":"7","size_leaf_vector":"0"}},{"base_weights":[-9.250911E-2,-2.4216783E-1,5.003169E-2,-2.993038E-1,8.348921E-3,-7.1105294E-2,1.8958053E-1],"categories":[],"categories_nodes":[],"categories_segments":[],"categories_sizes":[],"default_left":[1,1,1,0,0,0,0],"id":98,"left_children":[1,3,5,-1,-1,-1,-1],"loss_changes":[1.3134045E2,4.2990555E1,5.33294E1,0E0,0E0,0E0,0E0],"parents":[2147483647,0,0,1,1,2,2],"right_children":[2,4,6,-1,-1,-1,-1],"split_conditions":[1.45E1,5.25E0,5.5E-1,-2.993038E-3,8.348921E-5,-7.110529E-4,1.8958052E-3],"split_indices":[51,77,77,0,0,0,0],"split_type":[0,0,0,0,0,0,0],"sum_hessian":[6.1552637E3,3.0023206E3,3.1529434E3,2.4445837E3,5.577369E2,1.6880781E3,1.4648652E3],"tree_param":{"num_deleted":"0","num_feature":"106","num_nodes":"7","size_leaf_vector":"0"}},{"base_weights":[9.2509106E-2,2.4216782E-1,-5.003169E-2,2.9930377E-1,-8.348893E-3,7.110529E-2,-1.8958053E-1],"categories":[],"categories_nodes":[],"categories_segments":[],"categories_sizes":[],"default_left":[1,1,1,0,0,0,0],"id":99,"left_children":[1,3,5,-1,-1,-1,-1],"loss_changes":[1.3134045E2,4.2990555E1,5.332939E1,0E0,0E0,0E0,0E0],"parents":[2147483647,0,0,1,1,2,2],"right_children":[2,4,6,-1,-1,-1,-1],"split_conditions":[1.45E1,5.25E0,5.5E-1,2.9930377E-3,-8.348893E-5,7.1105285E-4,-1.8958052E-3],"split_indices":[51,77,77,0,0,0,0],"split_type":[0,0,0,0,0,0,0],"sum_hessian":[6.155264E3,3.0023206E3,3.1529434E3,2.4445837E3,5.577369E2,1.6880781E3,1.4648652E3],"tree_param":{"num_deleted":"0","num_feature":"106","num_nodes":"7","size_leaf_vector":"0"}},{"base_weights":[-9.1621354E-2,-1.8678029E-1,1.2878132E-1,-1.0978194E-1,-3.8857263E-1,2.8849632E-1,3.156194E-2],"categories":[],"categories_nodes":[],"categories_segments":[],"categories_sizes":[],"default_left":[1,1,1,0,0,0,0],"id":100,"left_children":[1,3,5,-1,-1,-1,-1],"loss_changes":[1.2908954E2,6.674617E1,2.881436E1,0E0,0E0,0E0,0E0],"parents":[2147483647,0,0,1,1,2,2],"right_children":[2,4,6,-1,-1,-1,-1],"split_conditions":[1.95E1,1.95E1,-6.25E0,-1.0978194E-3,-3.8857262E-3,2.884963E-3,3.156194E-4],"split_indices":[28,80,25,0,0,0,0],"split_type":[0,0,0,0,0,0,0],"sum_hessian":[6.1528047E3,4.2975073E3,1.8552977E3,3.1117095E3,1.1857977E3,7.012671E2,1.1540306E3],"tree_param":{"num_deleted":"0","num_feature":"106","num_nodes":"7","size_leaf_vector":"0"}},{"base_weights":[9.1621354E-2,1.8678029E-1,-1.287813E-1,1.09781936E-1,3.8857263E-1,-2.884963E-1,-3.1561922E-2],"categories":[],"categories_nodes":[],"categories_segments":[],"categories_sizes":[],"default_left":[1,1,1,0,0,0,0],"id":101,"left_children":[1,3,5,-1,-1,-1,-1],"loss_changes":[1.2908952E2,6.674617E1,2.881436E1,0E0,0E0,0E0,0E0],"parents":[2147483647,0,0,1,1,2,2],"right_children":[2,4,6,-1,-1,-1,-1],"split_conditions":[1.95E1,1.95E1,-6.25E0,1.0978193E-3,3.8857262E-3,-2.8849628E-3,-3.1561923E-4],"split_indices":[28,80,25,0,0,0,0],"split_type":[0,0,0,0,0,0,0],"sum_hessian":[6.152805E3,4.2975073E3,1.8552977E3,3.1117095E3,1.1857977E3,7.012671E2,1.1540306E3],"tree_param":{"num_deleted":"0","num_feature":"106","num_nodes":"7","size_leaf_vector":"0"}},{"base_weights":[-9.0741076E-2,5.4204844E-2,-2.3368073E-1,-6.487404E-2,1.9331852E-1,-1.7633697E-1,-4.8083374E-1],"categories":[],"categories_nodes":[],"categories_segments":[],"categories_sizes":[],"default_left":[1,1,1,0,0,0,0],"id":102,"left_children":[1,3,5,-1,-1,-1,-1],"loss_changes":[1.2746102E2,5.062161E1,4.3812714E1,0E0,0E0,0E0,0E0],"parents":[2147483647,0,0,1,1,2,2],"right_children":[2,4,6,-1,-1,-1,-1],"split_conditions":[2.5E-1,5.5E-1,2.25E1,-6.487404E-4,1.9331852E-3,-1.7633697E-3,-4.8083374E-3],"split_indices":[25,77,80,0,0,0,0],"split_type":[0,0,0,0,0,0,0],"sum_hessian":[6.150422E3,3.0540881E3,3.096334E3,1.6458246E3,1.4082635E3,2.5146138E3,5.8172015E2],"tree_param":{"num_deleted":"0","num_feature":"106","num_nodes":"7","size_leaf_vector":"0"}},{"base_weights":[9.074106E-2,-5.4204855E-2,2.3368071E-1,6.487402E-2,-1.9331852E-1,1.7633696E-1,4.8083374E-1],"categories":[],"categories_nodes":[],"categories_segments":[],"categories_sizes":[],"default_left":[1,1,1,0,0,0,0],"id":103,"left_children":[1,3,5,-1,-1,-1,-1],"loss_changes":[1.2746102E2,5.06216E1,4.381273E1,0E0,0E0,0E0,0E0],"parents":[2147483647,0,0,1,1,2,2],"right_children":[2,4,6,-1,-1,-1,-1],"split_conditions":[2.5E-1,5.5E-1,2.25E1,6.487402E-4,-1.9331852E-3,1.7633695E-3,4.8083374E-3],"split_indices":[25,77,80,0,0,0,0],"split_type":[0,0,0,0,0,0,0],"sum_hessian":[6.150422E3,3.0540881E3,3.096334E3,1.6458246E3,1.4082635E3,2.5146138E3,5.8172015E2],"tree_param":{"num_deleted":"0","num_feature":"106","num_nodes":"7","size_leaf_vector":"0"}},{"base_weights":[-8.987202E-2,-1.7967193E-1,1.367826E-1,6.583414E-4,-2.5887764E-1,1.917785E-1,-1.208542E-1],"categories":[],"categories_nodes":[],"categories_segments":[],"categories_sizes":[],"default_left":[1,1,1,0,0,0,0],"id":104,"left_children":[1,3,5,-1,-1,-1,-1],"loss_changes":[1.2517648E2,6.2909912E1,2.4754131E1,0E0,0E0,0E0,0E0],"parents":[2147483647,0,0,1,1,2,2],"right_children":[2,4,6,-1,-1,-1,-1],"split_conditions":[2.15E1,8.5E0,2.45E1,6.583414E-6,-2.5887764E-3,1.9177849E-3,-1.2085419E-3],"split_indices":[51,103,81,0,0,0,0],"split_type":[0,0,0,0,0,0,0],"sum_hessian":[6.1478936E3,4.403462E3,1.7444315E3,1.34416E3,3.059302E3,1.4377755E3,3.0665604E2],"tree_param":{"num_deleted":"0","num_feature":"106","num_nodes":"7","size_leaf_vector":"0"}},{"base_weights":[8.987202E-2,1.7967193E-1,-1.3678265E-1,-6.583577E-4,2.5887766E-1,-1.9177853E-1,1.2085413E-1],"categories":[],"categories_nodes":[],"categories_segments":[],"categories_sizes":[],"default_left":[1,1,1,0,0,0,0],"id":105,"left_children":[1,3,5,-1,-1,-1,-1],"loss_changes":[1.2517651E2,6.2909943E1,2.4754128E1,0E0,0E0,0E0,0E0],"parents":[2147483647,0,0,1,1,2,2],"right_children":[2,4,6,-1,-1,-1,-1],"split_conditions":[2.15E1,8.5E0,2.45E1,-6.5835766E-6,2.5887766E-3,-1.9177853E-3,1.2085413E-3],"split_indices":[51,103,81,0,0,0,0],"split_type":[0,0,0,0,0,0,0],"sum_hessian":[6.1478936E3,4.403462E3,1.7444315E3,1.34416E3,3.059302E3,1.4377755E3,3.0665604E2],"tree_param":{"num_deleted":"0","num_feature":"106","num_nodes":"7","size_leaf_vector":"0"}},{"base_weights":[-8.900952E-2,-2.3449992E-1,4.9312543E-2,-2.9065284E-1,1.1035322E-2,-1.5195018E-1,1.295184E-1],"categories":[],"categories_nodes":[],"categories_segments":[],"categories_sizes":[],"default_left":[1,1,1,0,0,0,0],"id":106,"left_children":[1,3,5,-1,-1,-1,-1],"loss_changes":[1.23705734E2,4.1307465E1,5.089529E1,0E0,0E0,0E0,0E0],"parents":[2147483647,0,0,1,1,2,2],"right_children":[2,4,6,-1,-1,-1,-1],"split_conditions":[1.45E1,5.25E0,-2.45E0,-2.9065283E-3,1.1035322E-4,-1.5195018E-3,1.295184E-3],"split_indices":[51,77,77,0,0,0,0],"split_type":[0,0,0,0,0,0,0],"sum_hessian":[6.1454375E3,2.9947715E3,3.150666E3,2.437208E3,5.5756354E2,8.9754285E2,2.253123E3],"tree_param":{"num_deleted":"0","num_feature":"106","num_nodes":"7","size_leaf_vector":"0"}},{"base_weights":[8.900952E-2,2.3449992E-1,-4.9312543E-2,2.9065284E-1,-1.1035353E-2,1.5195018E-1,-1.295184E-1],"categories":[],"categories_nodes":[],"categories_segments":[],"categories_sizes":[],"default_left":[1,1,1,0,0,0,0],"id":107,"left_children":[1,3,5,-1,-1,-1,-1],"loss_changes":[1.2370572E2,4.1307495E1,5.089529E1,0E0,0E0,0E0,0E0],"parents":[2147483647,0,0,1,1,2,2],"right_children":[2,4,6,-1,-1,-1,-1],"split_conditions":[1.45E1,5.25E0,-2.45E0,2.9065283E-3,-1.10353525E-4,1.5195018E-3,-1.295184E-3],"split_indices":[51,77,77,0,0,0,0],"split_type":[0,0,0,0,0,0,0],"sum_hessian":[6.1454375E3,2.9947715E3,3.1506658E3,2.437208E3,5.5756354E2,8.9754285E2,2.253123E3],"tree_param":{"num_deleted":"0","num_feature":"106","num_nodes":"7","size_leaf_vector":"0"}},{"base_weights":[-8.8157706E-2,-1.73988E-1,1.4317623E-1,-9.77429E-2,-3.7115142E-1,3.1832803E-2,2.7018413E-1],"categories":[],"categories_nodes":[],"categories_segments":[],"categories_sizes":[],"default_left":[1,1,1,0,0,0,0],"id":108,"left_children":[1,3,5,-1,-1,-1,-1],"loss_changes":[1.2201364E2,6.733534E1,2.3511261E1,0E0,0E0,0E0,0E0],"parents":[2147483647,0,0,1,1,2,2],"right_children":[2,4,6,-1,-1,-1,-1],"split_conditions":[2.05E1,1.95E1,5.135E-1,-9.77429E-4,-3.7115142E-3,3.1832804E-4,2.7018413E-3],"split_indices":[28,80,55,0,0,0,0],"split_type":[0,0,0,0,0,0,0],"sum_hessian":[6.1428384E3,4.4806577E3,1.6621807E3,3.232221E3,1.2484368E3,8.863761E2,7.758046E2],"tree_param":{"num_deleted":"0","num_feature":"106","num_nodes":"7","size_leaf_vector":"0"}},{"base_weights":[8.815771E-2,1.7398801E-1,-1.4317624E-1,9.7742915E-2,3.7115145E-1,-3.183278E-2,-2.701842E-1],"categories":[],"categories_nodes":[],"categories_segments":[],"categories_sizes":[],"default_left":[1,1,1,0,0,0,0],"id":109,"left_children":[1,3,5,-1,-1,-1,-1],"loss_changes":[1.2201367E2,6.733533E1,2.3511272E1,0E0,0E0,0E0,0E0],"parents":[2147483647,0,0,1,1,2,2],"right_children":[2,4,6,-1,-1,-1,-1],"split_conditions":[2.05E1,1.95E1,5.135E-1,9.774291E-4,3.7115144E-3,-3.183278E-4,-2.7018418E-3],"split_indices":[28,80,55,0,0,0,0],"split_type":[0,0,0,0,0,0,0],"sum_hessian":[6.1428384E3,4.4806577E3,1.6621807E3,3.232221E3,1.2484369E3,8.863761E2,7.758046E2],"tree_param":{"num_deleted":"0","num_feature":"106","num_nodes":"7","size_leaf_vector":"0"}},{"base_weights":[-8.731338E-2,5.337071E-2,-2.2628261E-1,-6.261955E-2,1.8888858E-1,-1.7001912E-1,-4.6983448E-1],"categories":[],"categories_nodes":[],"categories_segments":[],"categories_sizes":[],"default_left":[1,1,1,0,0,0,0],"id":110,"left_children":[1,3,5,-1,-1,-1,-1],"loss_changes":[1.2007854E2,4.7995117E1,4.225789E1,0E0,0E0,0E0,0E0],"parents":[2147483647,0,0,1,1,2,2],"right_children":[2,4,6,-1,-1,-1,-1],"split_conditions":[2.5E-1,5.5E-1,2.25E1,-6.261955E-4,1.8888857E-3,-1.7001912E-3,-4.6983445E-3],"split_indices":[25,77,80,0,0,0,0],"split_type":[0,0,0,0,0,0,0],"sum_hessian":[6.1402686E3,3.051614E3,3.0886543E3,1.6445636E3,1.4070504E3,2.5104155E3,5.7823883E2],"tree_param":{"num_deleted":"0","num_feature":"106","num_nodes":"7","size_leaf_vector":"0"}},{"base_weights":[8.7313384E-2,-5.337071E-2,2.2628263E-1,6.2619545E-2,-1.8888858E-1,1.7001915E-1,4.698345E-1],"categories":[],"categories_nodes":[],"categories_segments":[],"categories_sizes":[],"default_left":[1,1,1,0,0,0,0],"id":111,"left_children":[1,3,5,-1,-1,-1,-1],"loss_changes":[1.2007854E2,4.7995117E1,4.225789E1,0E0,0E0,0E0,0E0],"parents":[2147483647,0,0,1,1,2,2],"right_children":[2,4,6,-1,-1,-1,-1],"split_conditions":[2.5E-1,5.5E-1,2.25E1,6.2619545E-4,-1.8888857E-3,1.7001914E-3,4.698345E-3],"split_indices":[25,77,80,0,0,0,0],"split_type":[0,0,0,0,0,0,0],"sum_hessian":[6.140268E3,3.051614E3,3.0886543E3,1.6445636E3,1.4070504E3,2.5104155E3,5.782388E2],"tree_param":{"num_deleted":"0","num_feature":"106","num_nodes":"7","size_leaf_vector":"0"}},{"base_weights":[-8.6478285E-2,-1.6064546E-1,1.7450273E-1,-3.241583E-2,-2.7214304E-1,2.0953284E-1,-2.0444639E-1],"categories":[],"categories_nodes":[],"categories_segments":[],"categories_sizes":[],"default_left":[1,1,1,0,0,0,0],"id":112,"left_children":[1,3,5,-1,-1,-1,-1],"loss_changes":[1.1884942E2,6.8342514E1,1.8082336E1,0E0,0E0,0E0,0E0],"parents":[2147483647,0,0,1,1,2,2],"right_children":[2,4,6,-1,-1,-1,-1],"split_conditions":[2.35E1,1.15E1,2.75E1,-3.241583E-4,-2.7214303E-3,2.0953284E-3,-2.0444638E-3],"split_indices":[51,80,81,0,0,0,0],"split_type":[0,0,0,0,0,0,0],"sum_hessian":[6.1376655E3,4.7797197E3,1.3579454E3,2.223657E3,2.5560627E3,1.243448E3,1.1449745E2],"tree_param":{"num_deleted":"0","num_feature":"106","num_nodes":"7","size_leaf_vector":"0"}},{"base_weights":[8.647829E-2,1.6064547E-1,-1.7450273E-1,3.2415852E-2,2.7214304E-1,-2.0953283E-1,2.0444635E-1],"categories":[],"categories_nodes":[],"categories_segments":[],"categories_sizes":[],"default_left":[1,1,1,0,0,0,0],"id":113,"left_children":[1,3,5,-1,-1,-1,-1],"loss_changes":[1.1884941E2,6.8342514E1,1.8082333E1,0E0,0E0,0E0,0E0],"parents":[2147483647,0,0,1,1,2,2],"right_children":[2,4,6,-1,-1,-1,-1],"split_conditions":[2.35E1,1.15E1,2.75E1,3.2415852E-4,2.7214303E-3,-2.0953282E-3,2.0444633E-3],"split_indices":[51,80,81,0,0,0,0],"split_type":[0,0,0,0,0,0,0],"sum_hessian":[6.137665E3,4.7797197E3,1.3579454E3,2.223657E3,2.5560627E3,1.243448E3,1.1449745E2],"tree_param":{"num_deleted":"0","num_feature":"106","num_nodes":"7","size_leaf_vector":"0"}},{"base_weights":[-8.564815E-2,8.533758E-2,-1.9714057E-1,2.474506E-1,1.518753E-3,-4.4435848E-2,-2.9133862E-1],"categories":[],"categories_nodes":[],"categories_segments":[],"categories_sizes":[],"default_left":[1,1,1,0,0,0,0],"id":114,"left_children":[1,3,5,-1,-1,-1,-1],"loss_changes":[1.16995865E2,3.2918716E1,5.34198E1,0E0,0E0,0E0,0E0],"parents":[2147483647,0,0,1,1,2,2],"right_children":[2,4,6,-1,-1,-1,-1],"split_conditions":[4.6850002E-1,-5.95E0,1.05E1,2.474506E-3,1.518753E-5,-4.4435848E-4,-2.913386E-3],"split_indices":[3,25,103,0,0,0,0],"split_type":[0,0,0,0,0,0,0],"sum_hessian":[6.135246E3,2.4216372E3,3.7136086E3,8.246803E2,1.5969569E3,1.417373E3,2.2962356E3],"tree_param":{"num_deleted":"0","num_feature":"106","num_nodes":"7","size_leaf_vector":"0"}},{"base_weights":[8.564814E-2,-8.5337594E-2,1.9714057E-1,-2.4745062E-1,-1.5187645E-3,4.443579E-2,2.9133865E-1],"categories":[],"categories_nodes":[],"categories_segments":[],"categories_sizes":[],"default_left":[1,1,1,0,0,0,0],"id":115,"left_children":[1,3,5,-1,-1,-1,-1],"loss_changes":[1.1699585E2,3.2918716E1,5.3419846E1,0E0,0E0,0E0,0E0],"parents":[2147483647,0,0,1,1,2,2],"right_children":[2,4,6,-1,-1,-1,-1],"split_conditions":[4.6850002E-1,-5.95E0,1.05E1,-2.4745062E-3,-1.5187645E-5,4.443579E-4,2.9133866E-3],"split_indices":[3,25,103,0,0,0,0],"split_type":[0,0,0,0,0,0,0],"sum_hessian":[6.135246E3,2.4216372E3,3.7136086E3,8.2468036E2,1.5969569E3,1.417373E3,2.2962356E3],"tree_param":{"num_deleted":"0","num_feature":"106","num_nodes":"7","size_leaf_vector":"0"}},{"base_weights":[-8.482665E-2,-2.255584E-1,4.867817E-2,-1.7044452E-1,-4.663841E-1,-1.4728282E-1,1.2673496E-1],"categories":[],"categories_nodes":[],"categories_segments":[],"categories_sizes":[],"default_left":[1,1,1,0,0,0,0],"id":116,"left_children":[1,3,5,-1,-1,-1,-1],"loss_changes":[1.15254295E2,3.955635E1,4.817874E1,0E0,0E0,0E0,0E0],"parents":[2147483647,0,0,1,1,2,2],"right_children":[2,4,6,-1,-1,-1,-1],"split_conditions":[1.45E1,2.25E1,-2.45E0,-1.7044451E-3,-4.663841E-3,-1.4728282E-3,1.2673496E-3],"split_indices":[51,80,77,0,0,0,0],"split_type":[0,0,0,0,0,0,0],"sum_hessian":[6.1327583E3,2.9852356E3,3.147523E3,2.430674E3,5.5456134E2,8.963517E2,2.2511714E3],"tree_param":{"num_deleted":"0","num_feature":"106","num_nodes":"7","size_leaf_vector":"0"}},{"base_weights":[8.482665E-2,2.255584E-1,-4.8678163E-2,1.7044453E-1,4.6638402E-1,1.4728284E-1,-1.2673496E-1],"categories":[],"categories_nodes":[],"categories_segments":[],"categories_sizes":[],"default_left":[1,1,1,0,0,0,0],"id":117,"left_children":[1,3,5,-1,-1,-1,-1],"loss_changes":[1.1525427E2,3.9556305E1,4.817874E1,0E0,0E0,0E0,0E0],"parents":[2147483647,0,0,1,1,2,2],"right_children":[2,4,6,-1,-1,-1,-1],"split_conditions":[1.45E1,2.25E1,-2.45E0,1.7044453E-3,4.66384E-3,1.4728283E-3,-1.2673496E-3],"split_indices":[51,80,77,0,0,0,0],"split_type":[0,0,0,0,0,0,0],"sum_hessian":[6.1327583E3,2.9852356E3,3.147523E3,2.430674E3,5.5456134E2,8.963517E2,2.2511714E3],"tree_param":{"num_deleted":"0","num_feature":"106","num_nodes":"7","size_leaf_vector":"0"}},{"base_weights":[-8.401726E-2,-2.9712558E-1,2.9886789E-3,-3.5289526E-1,-4.1689143E-2,-1.7177865E-1,9.576371E-2],"categories":[],"categories_nodes":[],"categories_segments":[],"categories_sizes":[],"default_left":[1,1,1,0,0,0,0],"id":118,"left_children":[1,3,5,-1,-1,-1,-1],"loss_changes":[1.1368075E2,2.5306244E1,7.062189E1,0E0,0E0,0E0,0E0],"parents":[2147483647,0,0,1,1,2,2],"right_children":[2,4,6,-1,-1,-1,-1],"split_conditions":[8.5E0,5.3500004E0,-1.45E0,-3.5289526E-3,-4.1689142E-4,-1.7177864E-3,9.576371E-4],"split_indices":[51,77,77,0,0,0,0],"split_type":[0,0,0,0,0,0,0],"sum_hessian":[6.1300415E3,1.7764565E3,4.353585E3,1.4577936E3,3.18663E2,1.5093872E3,2.844198E3],"tree_param":{"num_deleted":"0","num_feature":"106","num_nodes":"7","size_leaf_vector":"0"}},{"base_weights":[8.401726E-2,2.9712558E-1,-2.9886814E-3,3.5289526E-1,4.1689113E-2,1.7177866E-1,-9.576372E-2],"categories":[],"categories_nodes":[],"categories_segments":[],"categories_sizes":[],"default_left":[1,1,1,0,0,0,0],"id":119,"left_children":[1,3,5,-1,-1,-1,-1],"loss_changes":[1.1368077E2,2.5306244E1,7.06219E1,0E0,0E0,0E0,0E0],"parents":[2147483647,0,0,1,1,2,2],"right_children":[2,4,6,-1,-1,-1,-1],"split_conditions":[8.5E0,5.3500004E0,-1.45E0,3.5289526E-3,4.1689113E-4,1.7177867E-3,-9.576372E-4],"split_indices":[51,77,77,0,0,0,0],"split_type":[0,0,0,0,0,0,0],"sum_hessian":[6.1300415E3,1.7764565E3,4.353585E3,1.4577936E3,3.1866296E2,1.5093872E3,2.844198E3],"tree_param":{"num_deleted":"0","num_feature":"106","num_nodes":"7","size_leaf_vector":"0"}},{"base_weights":[-8.3209954E-2,-1.659806E-1,1.39042E-1,-8.025943E-2,-3.183463E-1,-9.463677E-2,1.9911407E-1],"categories":[],"categories_nodes":[],"categories_segments":[],"categories_sizes":[],"default_left":[1,1,1,0,0,0,0],"id":120,"left_children":[1,3,5,-1,-1,-1,-1],"loss_changes":[1.12766624E2,5.830591E1,2.3372128E1,0E0,0E0,0E0,0E0],"parents":[2147483647,0,0,1,1,2,2],"right_children":[2,4,6,-1,-1,-1,-1],"split_conditions":[2.15E1,1.65E1,3.585E-1,-8.0259424E-4,-3.183463E-3,-9.463677E-4,1.9911407E-3],"split_indices":[29,80,55,0,0,0,0],"split_type":[0,0,0,0,0,0,0],"sum_hessian":[6.1277183E3,4.465091E3,1.6626274E3,2.8584492E3,1.6066415E3,3.3988974E2,1.3227377E3],"tree_param":{"num_deleted":"0","num_feature":"106","num_nodes":"7","size_leaf_vector":"0"}},{"base_weights":[8.320995E-2,1.6598059E-1,-1.39042E-1,8.0259435E-2,3.1834626E-1,9.4636776E-2,-1.9911407E-1],"categories":[],"categories_nodes":[],"categories_segments":[],"categories_sizes":[],"default_left":[1,1,1,0,0,0,0],"id":121,"left_children":[1,3,5,-1,-1,-1,-1],"loss_changes":[1.127666E2,5.83059E1,2.3372124E1,0E0,0E0,0E0,0E0],"parents":[2147483647,0,0,1,1,2,2],"right_children":[2,4,6,-1,-1,-1,-1],"split_conditions":[2.15E1,1.65E1,3.585E-1,8.0259435E-4,3.1834627E-3,9.4636774E-4,-1.9911407E-3],"split_indices":[29,80,55,0,0,0,0],"split_type":[0,0,0,0,0,0,0],"sum_hessian":[6.1277183E3,4.465091E3,1.6626274E3,2.8584492E3,1.6066414E3,3.3988974E2,1.3227378E3],"tree_param":{"num_deleted":"0","num_feature":"106","num_nodes":"7","size_leaf_vector":"0"}},{"base_weights":[-8.241444E-2,-1.5421686E-1,1.699437E-1,-2.9689508E-2,-2.6282033E-1,2.0409654E-1,-1.993626E-1],"categories":[],"categories_nodes":[],"categories_segments":[],"categories_sizes":[],"default_left":[1,1,1,0,0,0,0],"id":122,"left_children":[1,3,5,-1,-1,-1,-1],"loss_changes":[1.11030075E2,6.4497444E1,1.716158E1,0E0,0E0,0E0,0E0],"parents":[2147483647,0,0,1,1,2,2],"right_children":[2,4,6,-1,-1,-1,-1],"split_conditions":[2.35E1,1.15E1,2.75E1,-2.9689507E-4,-2.6282032E-3,2.0409652E-3,-1.9936261E-3],"split_indices":[51,80,81,0,0,0,0],"split_type":[0,0,0,0,0,0,0],"sum_hessian":[6.1250664E3,4.768651E3,1.3564155E3,2.2220586E3,2.5465923E3,1.2420044E3,1.1441116E2],"tree_param":{"num_deleted":"0","num_feature":"106","num_nodes":"7","size_leaf_vector":"0"}},{"base_weights":[8.241444E-2,1.5421686E-1,-1.6994369E-1,2.9689485E-2,2.6282033E-1,-2.0409653E-1,1.9936264E-1],"categories":[],"categories_nodes":[],"categories_segments":[],"categories_sizes":[],"default_left":[1,1,1,0,0,0,0],"id":123,"left_children":[1,3,5,-1,-1,-1,-1],"loss_changes":[1.11030075E2,6.4497475E1,1.7161583E1,0E0,0E0,0E0,0E0],"parents":[2147483647,0,0,1,1,2,2],"right_children":[2,4,6,-1,-1,-1,-1],"split_conditions":[2.35E1,1.15E1,2.75E1,2.9689484E-4,2.6282032E-3,-2.0409652E-3,1.9936264E-3],"split_indices":[51,80,81,0,0,0,0],"split_type":[0,0,0,0,0,0,0],"sum_hessian":[6.1250664E3,4.768651E3,1.3564155E3,2.2220586E3,2.5465923E3,1.2420044E3,1.1441116E2],"tree_param":{"num_deleted":"0","num_feature":"106","num_nodes":"7","size_leaf_vector":"0"}},{"base_weights":[-8.162437E-2,-2.916998E-1,4.0368047E-3,-3.467441E-1,-4.017124E-2,-1.8122587E-1,8.815986E-2],"categories":[],"categories_nodes":[],"categories_segments":[],"categories_sizes":[],"default_left":[1,1,1,0,0,0,0],"id":124,"left_children":[1,3,5,-1,-1,-1,-1],"loss_changes":[1.1019678E2,2.4543716E1,6.7823296E1,0E0,0E0,0E0,0E0],"parents":[2147483647,0,0,1,1,2,2],"right_children":[2,4,6,-1,-1,-1,-1],"split_conditions":[8.5E0,5.3500004E0,-1.95E0,-3.4674408E-3,-4.0171237E-4,-1.8122586E-3,8.8159856E-4],"split_indices":[51,77,77,0,0,0,0],"split_type":[0,0,0,0,0,0,0],"sum_hessian":[6.1225737E3,1.7727288E3,4.3498447E3,1.4541298E3,3.1859903E2,1.3579974E3,2.9918474E3],"tree_param":{"num_deleted":"0","num_feature":"106","num_nodes":"7","size_leaf_vector":"0"}},{"base_weights":[8.162436E-2,2.916998E-1,-4.036814E-3,3.467441E-1,4.017121E-2,1.8122587E-1,-8.8159874E-2],"categories":[],"categories_nodes":[],"categories_segments":[],"categories_sizes":[],"default_left":[1,1,1,0,0,0,0],"id":125,"left_children":[1,3,5,-1,-1,-1,-1],"loss_changes":[1.1019678E2,2.4543732E1,6.7823296E1,0E0,0E0,0E0,0E0],"parents":[2147483647,0,0,1,1,2,2],"right_children":[2,4,6,-1,-1,-1,-1],"split_conditions":[8.5E0,5.3500004E0,-1.95E0,3.4674408E-3,4.0171208E-4,1.8122586E-3,-8.8159874E-4],"split_indices":[51,77,77,0,0,0,0],"split_type":[0,0,0,0,0,0,0],"sum_hessian":[6.1225737E3,1.7727288E3,4.3498447E3,1.4541298E3,3.18599E2,1.3579974E3,2.9918474E3],"tree_param":{"num_deleted":"0","num_feature":"106","num_nodes":"7","size_leaf_vector":"0"}},{"base_weights":[-8.0840714E-2,-1.6844042E-1,1.2125722E-1,-9.690858E-2,-3.580689E-1,2.744579E-1,2.8096123E-2],"categories":[],"categories_nodes":[],"categories_segments":[],"categories_sizes":[],"default_left":[1,1,1,0,0,0,0],"id":126,"left_children":[1,3,5,-1,-1,-1,-1],"loss_changes":[1.0838855E2,5.7894768E1,2.6417988E1,0E0,0E0,0E0,0E0],"parents":[2147483647,0,0,1,1,2,2],"right_children":[2,4,6,-1,-1,-1,-1],"split_conditions":[1.95E1,1.95E1,-6.25E0,-9.690857E-4,-3.580689E-3,2.744579E-3,2.8096122E-4],"split_indices":[28,80,25,0,0,0,0],"split_type":[0,0,0,0,0,0,0],"sum_hessian":[6.120207E3,4.2696753E3,1.8505316E3,3.101308E3,1.1683673E3,6.990381E2,1.1514935E3],"tree_param":{"num_deleted":"0","num_feature":"106","num_nodes":"7","size_leaf_vector":"0"}},{"base_weights":[8.0840714E-2,1.6844042E-1,-1.21257216E-1,9.690858E-2,3.5806888E-1,-2.744579E-1,-2.8096117E-2],"categories":[],"categories_nodes":[],"categories_segments":[],"categories_sizes":[],"default_left":[1,1,1,0,0,0,0],"id":127,"left_children":[1,3,5,-1,-1,-1,-1],"loss_changes":[1.0838855E2,5.7894753E1,2.6417984E1,0E0,0E0,0E0,0E0],"parents":[2147483647,0,0,1,1,2,2],"right_children":[2,4,6,-1,-1,-1,-1],"split_conditions":[1.95E1,1.95E1,-6.25E0,9.690857E-4,3.5806887E-3,-2.744579E-3,-2.8096116E-4],"split_indices":[28,80,25,0,0,0,0],"split_type":[0,0,0,0,0,0,0],"sum_hessian":[6.120207E3,4.2696753E3,1.8505316E3,3.101308E3,1.1683673E3,6.990381E2,1.1514935E3],"tree_param":{"num_deleted":"0","num_feature":"106","num_nodes":"7","size_leaf_vector":"0"}},{"base_weights":[-8.006677E-2,-2.87619E-1,4.471487E-3,-3.4216225E-1,-3.8811933E-2,-1.6486263E-1,9.4195105E-2],"categories":[],"categories_nodes":[],"categories_segments":[],"categories_sizes":[],"default_left":[1,1,1,0,0,0,0],"id":128,